9996 16
. -0.008377296 -0.03411124 -0.016954202 -0.024193926 -0.0014295508 0.018209547 0.07522942 -0.07949228 -0.003334987 -0.012559962 0.06612957 0.017867815 -0.009116472 0.016974129 -0.04183389 0.06804298
영화 0.08489093 -0.1603065 -0.07596442 -0.08458115 0.020023044 0.15960407 0.034625456 -0.026837604 0.0003410956 0.027159981 -0.015550693 0.0736119 -0.05121284 0.07101521 0.0039125574 0.001254499
다 0.054743744 -0.017681625 0.025955059 -0.041275054 -0.003782493 0.087068446 0.014639958 -0.104180634 0.038238224 -0.08548285 -0.029289378 0.012821683 -0.06843709 0.117093936 -0.022303062 0.039864197
고 0.03184335 -0.034346163 0.046255805 -0.008372887 0.045622364 -0.02718605 0.089745745 0.011265767 0.036813565 0.03354904 0.0899866 0.07205764 -0.04035114 0.11499418 -0.0012707736 0.046101674
하 0.037286736 -0.0037611036 0.017877234 -0.053585917 0.04390971 -0.0014117016 0.010139057 0.020568382 -0.016488587 0.047410958 -0.025750095 0.006161408 0.062142648 -0.0105105825 -0.011963815 0.022044512
을 -0.048871513 -0.019653637 -0.0020729075 0.012557463 0.037054572 0.032082252 -0.04432941 -0.009225207 -0.017183919 0.070660956 -0.018529879 0.002551442 -0.028030258 0.043790836 -0.015183295 0.07379934
보 -0.09545728 -0.03601137 0.030848522 0.018067593 -0.006515656 -0.071853444 0.016470911 0.04059994 -0.006137721 0.054793254 -0.0031949426 0.0037572058 -0.03458232 0.041234132 -0.009381508 -0.009255269
.. -0.06620963 -0.026440287 -0.049279355 0.015969448 0.028601669 -0.008198096 0.049665704 -0.06969008 0.0051783705 0.05679733 0.025569178 -0.019247765 0.06740585 0.05541419 -0.00049967604 -0.028231217
게 0.009277871 -0.08144998 0.042935885 -0.088221446 -0.023068305 0.07160721 0.045739114 0.0017799411 0.017412074 0.025532007 0.0525582 0.07692169 -0.0037031895 0.042002358 0.009773662 0.011530509
, 0.032297686 -0.030254237 0.018374871 -0.013946978 0.007923827 -0.019298222 0.055259157 0.028543867 0.029693767 0.02510575 0.006166825 0.04293479 -0.07369097 -0.012427927 0.00025732606 -0.045979418
! 0.030438801 -0.07988973 0.0011272493 -0.14250366 -0.051426776 0.08265167 0.055293687 0.033089332 0.021585431 -0.055056777 0.019099785 0.03290427 -0.07778291 0.055666823 -0.006949861 0.035131466
지 -0.041896515 0.06555101 0.0041879774 -0.032616284 0.13209842 0.014286011 -0.09953344 0.09022658 -0.08531456 0.054408815 -0.061029457 -0.09224809 0.021441812 -0.08018466 0.06831462 0.014185343
있 -0.06619791 -0.065462805 0.042067252 -0.040303867 -0.008394919 -0.04915754 0.07602825 -0.0028474529 0.0194922 -0.012192328 0.0680998 0.07580108 -0.15063183 0.067237124 -0.010026855 -0.15856738
없 -0.054777727 0.04225066 -0.10858419 0.039570678 0.14681481 -0.09982529 -0.08044262 -0.112971164 -0.032320395 0.16732799 -0.15181395 -0.2830255 0.24972992 -0.23291065 -0.011858816 0.11174375
? 0.011858624 0.08290041 -0.058017295 0.093460314 0.038601797 -0.06109777 -0.0426717 -0.05319077 -0.040449955 0.022319198 -0.030609844 -0.10124327 0.13127117 -0.04149763 -0.016277691 0.10569259
좋 -0.037411816 -0.16146167 0.036392633 -0.10491258 -0.12982228 0.042855088 0.32598665 -0.06238104 0.11184101 -0.10569415 0.11670466 0.15573366 -0.21994372 0.18246314 0.058501713 -0.086238585
나 -0.17031199 0.006518162 -0.036144845 0.12278906 0.013855605 -0.0051023224 -0.038109124 0.02212023 -0.005189449 0.016805125 0.091102354 -0.028814247 0.028282253 0.052559465 -0.051837455 0.013349328
었 -0.086234465 -0.04242423 0.0088855475 0.047754843 -0.056908555 0.04830056 0.003195593 -0.054496363 0.00067062967 -0.0052189245 0.065676875 0.072289504 0.039274227 0.010221474 0.025431719 -0.05154916
만 0.054627627 -0.0045804153 -0.08463392 -0.041044604 0.08779064 0.05122626 -0.09153418 -0.06013489 -0.020568194 -0.03150179 -0.13217744 0.020249294 0.10495001 0.03962108 -0.0852936 0.12535611
는데 -0.13940807 -0.041606996 0.049179427 0.045048524 -0.038568523 -0.042068154 -0.075992964 0.11865267 -0.061947923 0.09332896 0.10014481 -0.04880435 0.04904041 -0.03340717 -0.00533522 -0.04604252
너무 -0.026385816 -0.039261255 0.0030185669 0.10691146 0.0661963 -0.03405119 0.26986217 -0.0010757786 0.03744728 0.238013 0.13848357 -0.05487861 0.020561462 -0.012333417 -0.06654161 -0.05014821
봤 -0.0021984624 -0.09580113 0.08789462 0.018081957 -0.028959095 0.052508287 0.14809166 -0.030068485 0.0023060064 0.059793733 0.09515381 0.0734893 0.036680505 -0.06690368 0.016573561 -0.02048751
적 0.019343795 -0.027100593 0.021350129 -0.0020241186 -0.081426166 -0.051131092 0.06600637 -0.09440424 0.06696357 -0.04976467 0.03716092 0.034641214 -0.05303003 -0.015657013 -0.022718798 -0.06330483
안 0.06290698 0.022207448 -0.1699345 -0.02962102 0.18982056 -0.0639206 -0.3119139 -0.2434725 -0.0022914102 -0.04186861 -0.26230863 -0.13597398 0.22130409 -0.14468984 0.0005813441 0.15636373
정말 -0.13937856 -0.05803353 0.051971357 0.1268573 -0.07561341 -0.05749967 0.16678491 -0.085841 0.053099815 0.0056640436 0.11641181 -0.01873276 -0.1379746 0.055808134 0.042955726 -0.13986021
로 0.0053505646 0.017431928 -0.008045124 -0.08738227 0.06496854 -0.048252318 -0.0020370898 -0.048059206 0.0068165273 0.013073288 -0.036018915 0.027569734 -0.0054191523 0.0073001427 -0.028536586 0.016867494
음 0.13112491 -0.042218942 -0.026714152 -0.23086697 -0.0064629195 0.14739256 0.083454676 -0.15067725 0.035834312 -0.049047023 0.003002279 0.036794383 0.07583667 0.14156711 -0.048836824 0.16206361
것 -0.018023077 0.0031641228 0.017269664 -0.02959226 -0.074600086 -0.011425229 0.06736247 -0.035254706 -0.0043088426 0.004081298 0.02293797 0.022595663 0.00088548486 0.0329614 0.0090265805 -0.02931069
아 -0.012091819 -0.0051042857 0.029315535 0.037154403 0.037885036 -0.028754309 -0.060281355 0.060119748 -0.028396007 -0.040224887 0.021971144 -0.010399112 -0.06025557 0.043038957 -0.015401881 -0.00037598153
네요 0.014129109 -0.109641805 0.00557238 -0.1786295 -0.03855574 0.04773529 0.124793954 -0.09964481 0.084419236 -0.05038421 0.020231958 0.048807535 -0.07316593 0.06838626 -0.03893361 0.02389802
재밌 -0.12011201 -0.2664401 0.07567218 -0.17399688 -0.25016165 0.2302233 0.17134447 0.051265575 0.062097795 -0.22018903 0.25352895 0.30933073 -0.26265007 0.30134213 0.11206778 -0.26470324
어 -0.0340872 -0.014591971 0.059746552 0.019112734 0.031718563 -0.00061804353 0.021750256 -0.022546193 0.044868343 0.024817362 0.09005278 0.0007462561 -0.048719965 0.12023685 -0.008426736 -0.008177417
같 0.06536861 -0.003253077 -0.0072575603 0.006332866 -0.01404415 -0.08136646 0.046715315 -0.08866346 -0.022160362 0.0257339 -0.020676471 0.016896978 -0.07015376 -0.06294891 0.0014457549 0.0015537062
점 0.2115917 -0.013168887 -0.08568294 -0.13675322 0.0015945843 0.1806977 -0.011660038 -0.10283519 0.011305316 -0.093223155 -0.063414715 0.07051167 0.1087934 0.00016347581 -0.04521909 0.1033093
지만 -0.28347957 0.071214356 -0.018579472 -0.023679808 -0.0005767292 -0.15310782 -0.11986644 0.18829268 -0.12268129 0.24387772 0.01654625 -0.2491736 0.113899134 -0.022011712 0.028941525 -0.08880711
진짜 -0.20259582 -0.073557705 0.00996023 0.11379731 0.014615455 -0.01605767 0.12030324 0.0032295964 0.026588066 0.095205374 0.1411 0.033564173 0.028391102 0.08864081 -0.0102006085 -0.03460243
했 0.012246453 -0.049603086 -0.017334696 -0.09454288 0.04598033 0.024834339 -0.013453421 -0.064494975 0.0011949462 0.024815038 -0.028844606 -0.027969861 0.10315218 0.034584917 -0.0068438216 0.034638006
에서 -0.027282087 -0.059677057 0.08848534 -0.003956949 -0.0067251725 0.00031442672 0.030557998 -0.025774097 0.045970585 0.048710104 0.05526597 0.04622806 0.00031475478 0.05673085 0.0019614608 0.0034734171
기 0.057322025 -0.003313526 -0.048457246 -0.031574033 0.014705095 0.015333298 0.025287881 -0.08410093 -0.027925592 -0.015518186 -0.09548361 0.012650086 0.022989733 0.032232907 -0.00090846955 0.069382146
네 0.07381001 0.026162762 -0.059142254 -0.07094225 -0.04420363 0.05996058 -0.05235403 -0.056580372 0.0141319875 -0.05386048 -0.023564529 -0.009928855 -0.025850227 0.040515784 0.056823 0.12862946
않 -0.26101586 0.10550898 -0.014025377 0.04942324 0.051917642 -0.19320738 -0.20907786 -0.038442656 -0.04181488 0.118589416 -0.03484286 -0.2645967 0.037299618 -0.15632659 0.0035894844 -0.024307925
거 0.0033591841 0.024981134 -0.06777393 -0.005926262 0.055790428 0.020405427 0.0087869335 0.009356078 -0.07600863 0.026417173 -0.02711505 -0.05604784 -0.03305262 -0.0566867 -0.070028044 0.07183431
았 -0.04477424 -0.037327398 0.04500438 0.05823567 0.00861286 -0.05904476 0.010140322 -0.0425018 -0.017764203 0.032747455 0.062035166 -0.006415593 -0.015400469 -0.029331079 -0.023181202 -0.0055769724
수 0.06811856 -0.01743447 -0.03324133 -0.10288646 -0.018011946 0.12360184 -0.09937369 0.020319572 -0.08499621 -0.07483746 0.046392806 0.094084926 0.03988516 0.0013359119 0.045338392 0.0277339
되 0.021521434 -0.057775136 0.02338531 -0.01573441 0.008700132 0.029456025 0.19697936 -0.00875978 0.01205509 -0.00048929616 0.109491296 0.03405329 -0.037123043 0.09004621 0.005781459 -0.02029123
면 0.0057161753 -0.032530554 -0.027226705 -0.010402319 0.037821647 0.037596952 -0.13238029 -0.073611364 -0.05713056 0.086508304 -0.085944116 0.0041373926 -0.024726603 -0.03914397 0.05579494 -0.016371384
ㅋㅋ -0.0038195273 -0.10124534 -0.030066136 -0.10068777 0.023044398 0.05561651 0.032854028 0.044618852 0.025204632 -0.0441877 0.058867965 0.025837272 -0.006611368 0.06495278 -0.030063761 0.012547299
말 0.009251112 -0.01945801 -0.030090634 0.03623888 -0.056804843 -0.05417145 -0.054603335 0.048270967 -0.022029324 0.009109298 -0.052647714 -0.008582777 -0.00371264 0.014919044 0.026884457 -0.058664862
연기 -0.0695024 -0.07820866 0.039539285 -0.08418096 -0.027145267 0.042330075 0.12376897 0.05671556 0.045159154 -0.0076359008 0.11338954 0.070255876 -0.04262926 0.09155337 -0.031320725 -0.049467206
인 0.018169783 -0.047470067 0.00088330853 -0.053948004 0.007631296 0.09046326 0.06610111 0.10991018 0.040478796 -0.019676466 0.05364587 0.027715346 0.016425615 -0.021067267 -0.0030103968 -0.01571509
주 0.14118403 0.03651887 -0.05390175 -0.07284919 0.0522314 0.05956236 0.08225484 0.07623867 -0.030109929 -0.09243334 -0.07620425 -0.008149139 -0.13638654 0.024633285 0.00941562 0.0319059
내 -0.06856836 -0.02109584 0.031683642 0.05623524 -0.010822623 -0.0767701 0.043153644 -0.043605443 0.04841314 0.08589786 0.053148665 -0.03323992 -0.036821257 0.095056444 -0.033003043 -0.05829431
최고 -0.122510955 -0.19087107 0.28968084 -0.032814223 -0.31318986 0.29207176 0.14042029 0.18062526 0.008171883 -0.16692856 0.38060027 0.33922115 -0.23167142 0.28341112 0.33586702 -0.20544496
~ -0.03409138 -0.045228396 -0.043255933 -0.07700424 -0.049350686 -0.04129396 0.15984716 -0.062179983 0.060481936 -0.058403168 0.058202807 0.0146074435 -0.019690506 0.1085969 -0.07717694 0.009884252
평점 0.000495147 0.011624139 -0.071693055 -0.12969711 0.04255804 -0.00620653 -0.006423818 0.023140471 -0.055729885 -0.027064707 -0.0024340472 0.046306226 -0.018798405 -0.010061205 -0.026678076 0.014155095
이런 0.10363575 0.034825712 -0.015277658 0.11345076 0.0016565168 -0.043457925 0.046784695 0.016780222 0.028047586 0.011050422 0.02434404 0.064634964 -0.13034783 0.00978925 -0.015284108 -0.0325323
던 -0.08501699 -0.053450804 0.020715864 0.0635951 -0.0020777164 -0.009125115 0.00312617 0.018921461 -0.04378779 0.017446155 0.058409452 0.02426039 0.016373793 -0.033548467 0.028220313 -0.047968775
어요 0.057865582 -0.09732703 0.018855404 -0.143291 -0.1770147 0.10465607 0.12845396 -0.10135621 -0.0063102706 -0.13958539 -0.07793449 0.0596963 -0.075473204 0.15041645 0.021627197 0.118578956
할 -0.030992728 -0.034684345 0.09366949 0.06170173 -0.061776206 0.0061220936 -0.021541256 0.05899116 -0.0066504413 0.07708424 -0.00065013336 -0.004284997 -0.013788005 -0.039752904 0.033391796 -0.039708745
왜 0.062481124 -0.0592746 -0.100669265 -0.11580993 -0.05782237 0.06325433 -0.08809514 -0.1353384 0.0059521496 -0.08115462 -0.08906507 0.04341206 0.057302218 -0.029246774 -0.0015586395 0.07193002
겠 -0.0067349034 0.108508624 -0.036272295 0.010828522 0.0800193 -0.06323149 0.024766902 -0.021191124 0.04003579 0.08953083 -0.06935314 -0.018829387 0.011697888 -0.05324802 -0.15745269 0.02059447
1 0.09626691 0.062491924 -0.1915398 0.023893714 0.14336386 -0.05766115 -0.23695375 -0.077284515 0.052033324 0.10188743 -0.24782424 -0.12690787 0.20470992 -0.19905949 -0.0055517564 0.10769741
스토리 0.09516409 0.016135842 0.013235209 -4.5309032e-05 0.06144391 0.0066393265 0.0061619924 -0.032173175 0.02172407 0.069271885 -0.037114795 -0.018280314 0.044126596 0.022719074 -0.057336435 0.093963765
해 0.04269014 -0.011422878 -0.00053018343 -0.024484219 -0.008581747 0.0066024535 -0.054910358 -0.024934454 -0.016705012 -0.11078438 -0.04398257 0.041323695 -0.073391475 0.03206817 0.021268247 0.05672145
습니다 0.07538959 -0.052195083 0.045485884 -0.074285455 -0.096176125 0.04033083 0.14163187 -0.1092329 0.08040975 -0.0232785 0.06526493 0.14943133 -0.15321422 0.05622647 -0.053868353 -0.013751414
ㅋㅋㅋ -0.055666573 -0.022510454 -0.038778186 -0.08563108 -0.017092325 0.036394652 -0.00072510965 0.064925365 0.028039105 -0.00046422041 -0.06053879 -0.014801041 0.025517307 0.037666444 -0.03626486 0.06956377
... -0.0927617 -0.030136226 -0.017023398 0.01075436 0.027265716 -0.018859487 0.00011768006 -0.0268282 0.0020223705 0.048347674 0.007964696 -0.06600174 -0.0036165733 0.051589016 0.0032005275 -0.011420104
드라마 0.019323077 -0.113080546 -0.00832835 -0.14407657 -0.06808605 0.07183544 0.12736022 -0.059449572 -0.0055546914 -0.07559057 -0.02975695 0.03335356 -0.0013091972 0.024596494 0.024357893 0.050056223
생각 -0.113283254 -0.07305717 0.077333555 -0.0957765 -0.07808833 0.08917223 -0.07139698 -0.07755103 0.01769564 -0.088426754 0.038493376 0.093812466 0.019592842 0.036736697 0.09862858 0.0016487305
아니 -0.13342343 0.08846731 -0.093622245 0.08799247 0.09890387 -0.17448287 -0.1694662 -0.04555848 -0.06270707 0.15612274 -0.07679484 -0.21960892 0.09693714 -0.16068538 -0.015671749 -0.073659234
더 0.12122956 0.039937764 0.019939767 0.07516872 -0.066956334 0.01725131 -0.079726554 -0.13218032 0.012204609 -0.12023715 -0.103742175 0.052351307 -0.042015076 -0.018506711 0.033913672 0.070946015
그 -0.12333142 -0.06879148 0.006241385 0.055416573 -0.048223156 0.00046475866 -0.053131565 -0.029329885 -0.054401632 -0.03274209 0.0726714 0.034583032 -0.012890594 0.03895368 0.045005508 -0.029489921
싶 -0.14274366 0.018717766 -0.034807447 -0.012575158 -0.042760108 -0.009157688 0.1776868 -0.08393874 0.062900424 -0.054517075 -0.014367891 0.02802971 0.024484485 0.039743237 -0.08468475 0.021084191
사람 -0.058307607 -0.023468873 0.001955839 -0.03077872 0.023042273 0.07377531 -0.17038499 0.08079835 -0.08704116 -0.050657507 -0.022373047 -0.011037884 -0.09619523 -0.025177263 0.023660978 0.01642838
듯 -0.017177634 0.01881698 0.029395832 0.010283825 0.014279515 -0.07592707 -0.010728818 0.004599918 -0.012035901 0.028602846 0.066568345 -0.031119002 0.008891827 0.08368367 -0.11120747 0.059387147
때 -0.032137062 -0.10490391 0.06273926 -0.030176291 -0.00454909 0.09641946 -0.03920905 -0.08073401 0.055136975 -0.005803043 0.06762634 0.07477638 0.020608155 0.024801658 0.076974235 -0.08026093
감동 -0.13823794 -0.16521731 0.16491501 -0.17065504 0.014208897 0.12083484 0.2092767 0.26392427 0.0049134367 0.02106841 0.26129118 0.09630417 -0.11401563 0.17713948 0.10284519 -0.16001026
함 -0.009163947 -0.008013 0.020247892 0.028898632 -0.03230788 0.0111493515 0.04934733 -0.028746657 -0.0011392479 0.059850078 0.033204664 0.021974523 0.01640107 -0.035904337 -0.027207026 0.037759468
배우 -0.072686166 -0.02308736 0.024502752 -0.00097039214 0.06934796 -0.12514828 -0.002666151 0.059593942 -0.02176388 0.0071114767 0.05317622 -0.019295355 -0.028545184 0.0020679603 -0.011153985 0.027522273
본 -0.05969772 -0.114846475 -0.00082360505 -0.010299508 0.0032340582 0.0501913 0.04249198 0.016476005 -0.029700087 0.04057924 0.024518488 0.044589154 0.027012415 -0.03447276 0.05389806 -0.07840219
까지 0.030124674 -0.031459402 -0.018106174 -0.03629425 0.04405081 0.06750266 0.04098476 0.120780215 0.013206425 0.055990357 -0.033021804 -0.025009511 -0.024562828 -0.0017096715 0.050476063 0.023389408
뭐 -0.033319056 0.0055369195 -0.020885536 0.1138171 0.030266322 -0.0038941125 -0.09664893 -0.07077234 0.029222095 0.03688545 -0.16977915 -0.114430666 0.19911641 -0.11765581 -0.029368896 0.14023851
알 0.05210048 -0.030794367 -0.05612886 -0.0046780608 0.059014376 -0.0721712 -0.008175148 0.011270044 -0.0077445367 0.029559929 0.0032214597 -0.016229892 0.0055483496 0.033703282 0.03402517 -0.01750846
만들 -0.061076377 0.00849103 0.004326946 0.22411251 0.03418856 -0.007499137 0.19796546 -0.038322214 0.014767981 0.12537763 0.042971384 -0.023083713 0.0496583 0.022634646 -0.031173259 0.012037685
내용 -0.04017121 0.03496315 -0.017936304 0.029351918 0.059505194 -0.18476427 0.117642075 -0.043092575 -0.0009541667 0.16160078 0.048948336 -0.10942866 0.08864703 0.059701927 -0.15904291 0.10604724
볼 -0.15044414 -0.042867936 0.02117355 0.0036801323 -0.061533723 -0.028424468 0.1116079 0.07419873 -0.067243375 -0.089795634 0.0850508 0.06481496 -0.16734137 0.09996972 -0.040802624 -0.05631013
감독 0.07538344 0.12193568 -0.065481186 0.031172011 0.09670055 -0.019271689 0.060727328 -0.011937135 0.022890372 0.019406248 0.0016947623 -0.08243207 0.1158243 -0.018619787 -0.09105252 0.07537808
보다 -0.10522729 0.01584767 0.051788844 0.028849972 0.15947202 -0.044701457 -0.010795435 0.1594598 -0.078035474 0.2166583 0.07365725 -0.0006129749 0.036542095 -0.0060765375 -0.038076542 -0.06485435
라 -0.040808108 -0.029492546 0.025118347 0.031943515 -0.053743076 0.06010266 -0.04508885 -0.013233962 -0.0036050489 -0.009535206 -0.0027424104 0.01435511 -0.021460382 -0.038369518 0.06547142 -0.040762156
그냥 0.013698864 0.07157346 -0.08202267 0.15896522 0.06334352 -0.16448405 0.09777783 0.023080617 0.0059163384 0.16893768 0.01862639 -0.12097959 0.0075399335 -0.008257346 -0.13513038 -0.0434148
재미 -0.18828937 -0.016683692 0.09890995 0.009400635 0.021560838 -0.039442528 0.26428077 0.032880116 0.051709667 0.22454348 0.19174325 -0.05906001 -0.06994946 0.14033243 -0.19228838 -0.047760434
시간 0.078985475 0.053852912 0.003134845 0.03940915 0.07011363 0.0022461163 -0.047720972 -0.12658834 0.0130970795 0.07521275 -0.07851685 -0.08804896 0.19816801 -0.094129086 0.031647924 0.14337368
지루 0.21517684 0.15807615 -0.24167658 0.20075287 0.28992358 -0.23908688 -0.1893307 -0.1742292 0.04404206 0.20313969 -0.4056773 -0.2342231 0.24779268 -0.4265763 -0.065450415 0.2971752
중 0.050787814 -0.06831474 0.05431064 -0.110349886 -0.06645823 0.0019863644 0.19404162 -0.08071257 -0.030148922 -0.015696552 0.11593137 0.10258466 -0.113354586 0.0842982 -0.0025005967 -0.046413
재미있 -0.1729215 -0.09930799 0.24007636 0.045078535 -0.15721065 0.1620369 0.22767572 0.09979406 0.061824653 -0.045349512 0.26628333 0.310397 -0.20051865 0.24245004 0.17985676 -0.22903137
년 -0.0016310132 -0.055213623 0.070408024 -0.03733304 0.027103484 0.052551374 0.103738934 -0.020694703 -0.04686972 0.008603086 0.11933781 -0.0014861571 0.051253844 0.18060239 0.035579782 -0.05179469
10 -0.24840613 -0.052938633 0.14810485 0.07831037 -0.27866974 -0.009458519 0.19327761 0.05639865 -0.06621906 -0.15679091 0.16818501 0.24057627 -0.22942133 0.15359972 0.071907684 -0.33115003
였 -0.07624372 -0.045853697 0.011515012 -0.08524453 -0.044916216 0.17909761 0.016276263 0.022651475 0.0365868 -0.122561455 0.03376411 0.14566411 -0.05920229 0.000387976 0.09879994 -0.10135153
잼 0.08705051 -0.18951268 0.16776146 0.024094881 -0.049615495 0.12691647 0.26202893 -0.028202884 0.07686515 0.17523646 0.28674778 0.3186113 -0.16509971 0.20718317 0.07115883 -0.22202383
사랑 -0.12596348 -0.12518407 0.09655609 -0.1276127 -0.076526076 0.021824028 0.02068742 0.09431469 -0.12241724 0.00056527386 0.13318351 0.12530325 -0.084493496 0.11444916 0.05741431 -0.120538026
못 0.17237154 0.039308757 -0.12000983 0.03884127 0.084146224 -0.071843535 -0.19837207 -0.017866872 -0.04905255 0.011989007 -0.17696984 -0.11455934 0.052907366 -0.12372068 -0.055109065 0.1196542
냐 -0.02112592 0.06307536 -0.09076353 -0.035687733 0.16357064 -0.022917707 -0.11436577 -0.00884106 0.06179388 0.027746765 -0.116431504 -0.09488563 0.09739846 -0.09197188 0.017050667 0.051566944
재미없 0.22292894 0.15636118 -0.47954232 0.22980754 0.6218399 -0.44627872 0.006450039 -0.17836742 0.10358693 0.22374056 -0.4615784 -0.2601227 0.19416395 -0.43578365 -0.3168985 0.27321938
쓰레기 0.3115502 0.19780415 -0.28888234 0.30260104 0.42308763 -0.5354274 -0.11070208 -0.28215268 0.18423553 0.17541139 -0.46781686 -0.26984525 0.30987778 -0.5014224 -0.2912711 0.26730487
서 -0.14756775 0.05822792 -0.055508386 -0.061286684 -0.03173676 0.05593973 0.018862985 0.10080911 -0.049300116 -0.12600288 -0.05042357 0.024970977 -0.07495593 -0.05419145 0.07173542 -0.059662648
2 -0.008715198 0.022761041 0.016194267 0.105918854 0.052675657 -0.02214106 -0.16847986 -0.13801019 -0.0007889323 0.09811147 0.059480857 -0.103663936 0.16481878 -0.099272445 -0.030919796 0.041744642
라고 -0.0293596 0.07484969 -0.011899021 0.08935113 0.10577377 0.012525489 -0.05239051 0.1358606 -0.017329872 0.022963077 -0.066794105 0.016422316 -0.008151445 -0.1177521 -0.030251794 0.006866248
야 0.04763512 0.0014601971 0.004861743 0.047500934 -0.0067142835 0.018811421 -0.013712872 -0.07610629 -0.011857986 -0.042501256 -0.016649604 -0.037055857 -0.050974354 0.05408102 0.017153723 0.058349717
니 -0.05353051 -0.037042677 -0.033514094 -0.001306423 -0.025113214 0.015060828 -0.021052634 -0.06906922 -0.0035157688 -0.032313336 -0.0595131 0.011110287 0.1272426 0.0065776254 -0.0089242775 0.042836018
면서 0.03458802 -0.098882556 0.04297732 -0.15215713 -0.035147257 0.037497345 0.086169 0.053048365 -0.0338527 -0.0004110027 0.06571374 0.027161596 -0.0052727326 -0.00048538242 0.02108756 -0.008708469
번 -0.22834271 -0.037659496 0.047866397 0.058680836 -0.07114117 -0.029557811 0.018297048 0.022797223 -0.05395881 -0.048987962 0.082650684 -0.07440134 -0.08658046 0.06848742 0.05771999 -0.03409076
다시 -0.25339916 -0.05810288 0.115792505 -0.099615194 -0.08059743 0.0072227567 -0.029375317 0.012362896 0.054661922 0.049752116 0.23039088 0.13005248 0.016287427 0.17637053 -0.026895082 -0.16035673
나오 0.013525925 -0.03997359 0.010648679 -0.053921837 -0.046645194 0.027886476 0.098336495 -0.0725446 -0.021529848 0.060251147 0.029223029 0.05767083 0.050420117 0.019432029 -0.042951807 0.027724056
작품 -0.029436514 -0.10715855 0.062169664 -0.052977182 -0.09490373 0.06523821 0.01469956 -0.08938279 -0.023799963 -0.08531609 0.057341706 0.080594964 0.050883476 0.09528596 0.09477864 0.004713706
이거 0.033131603 -0.012856409 -0.001705234 -0.08260893 -0.07188512 -0.0068443986 0.04010042 -0.07949119 -0.012269653 -0.03662335 -0.014800037 0.013025857 -0.0025458161 0.045505825 -0.008522092 -0.0073259827
하나 -0.015463926 -0.001825776 0.0004885378 0.025337808 0.046041556 -0.020289619 -0.07643848 0.04476323 0.031244718 0.05099194 0.067532904 -0.02845122 0.13216686 -0.06430574 -0.0022152571 0.056359053
줄 -0.064980984 0.07847286 -0.014838253 0.09973226 0.07287363 -0.090785526 0.013465445 -0.024129631 -0.083825134 0.060487974 -0.0043419683 -0.1481957 0.10322849 -0.14756192 -0.068353295 -0.012934521
해서 -0.03702404 0.008714315 -0.01266511 0.08278517 0.06210166 0.027526379 0.06271864 0.07440544 0.0023804773 0.08918431 0.010988271 -0.01881101 0.12056032 0.014206949 -0.05945899 0.0013690116
개 0.010232673 0.0281301 0.021833088 -0.09210098 -0.011103475 -0.027165858 0.011637587 -0.054573078 0.06820785 -0.06925792 0.02744422 0.04809703 0.011317655 0.05642484 -0.10513792 0.020348465
남 0.119426735 -0.021847326 0.016326563 0.07603027 -0.027252844 -0.06284001 0.14864855 0.0047345967 -0.024477389 0.10060588 -0.0042328844 0.008041777 -0.10611307 -0.027293954 -0.09678438 -0.012654155
정도 0.035889573 -0.039164543 0.07863181 -0.050999794 -0.07355953 -0.021248695 -0.05839765 -0.15777855 0.0277457 -0.010810824 0.024176726 0.039844695 0.0042085927 0.08019355 -0.010324291 0.025016477
마지막 -0.04656519 -0.06984999 0.03349989 -0.22270495 -0.06380227 0.08707237 -0.0015613381 -0.12781595 0.032346237 -0.20250842 -0.026821759 0.05634059 -0.118036166 0.09119567 0.06175559 0.0011563242
끝 0.1295504 -0.005726478 -0.010211861 -0.030890407 0.05826308 -0.058085315 0.023779703 -0.13871075 -0.06547127 0.0091544585 -0.0738683 -0.058540795 0.09394301 -0.022510026 -0.101343386 0.14290619
이건 0.00027696363 0.09121928 8.896744e-05 0.2439126 0.18035002 -0.21360794 0.10537069 0.19201466 0.010893379 0.31186217 0.09979936 -0.16808625 0.06817381 0.012983181 -0.1350771 0.010175341
액션 0.05720945 -0.0631742 0.062149078 0.060641926 0.0100085735 -0.02570927 -0.010848831 0.061729416 -0.09013806 0.12893768 0.06010841 0.034297373 -0.08446025 0.06517085 0.07597824 -0.034950092
임 0.0061281635 0.04260997 0.05584499 0.003780974 -0.052999076 0.016300997 0.030805202 -0.0054868893 -0.0050826753 -0.09087806 -0.04464856 0.0430072 0.0101767965 0.052699562 0.04804619 0.14638616
ㅋ -0.044654097 -0.013489635 -0.03148527 -0.10741932 -0.058317862 0.02734768 0.048326153 0.013971904 -0.02490809 -0.02734287 -0.05840061 0.0040720804 0.004504219 0.034760833 -0.006942281 0.07111354
3 -0.078000695 0.042326108 -0.07194795 0.007444608 -0.010510498 -0.039778244 -0.06884414 -0.08325683 0.046212047 0.07707079 -0.036684886 -0.03976708 0.10638065 0.045866486 -0.078625284 0.078865506
기대 -0.06324618 0.03980094 0.06081517 0.016849257 0.032960933 0.06486368 0.14834465 0.23445031 -0.056889817 0.06531441 0.08333407 -0.11906564 0.08585007 -0.09589608 0.07496545 -0.07046476
입니다 0.03315515 -0.022322025 0.1068305 0.05523463 -0.12902397 0.18507825 0.26906976 -0.07334213 0.0904796 -0.054960914 0.03263964 0.097122915 -0.009587074 0.04892444 0.048016086 0.042568088
건 0.13278905 -0.00053355185 -0.059885148 0.031370893 0.1455317 -0.11185416 -0.044562895 -0.046802774 0.0005491567 0.047254406 -0.074784406 -0.024539547 0.038892735 -0.06860716 -0.117439665 0.092771195
라는 0.06423726 0.027466461 -0.0629682 -0.11044483 -0.026387949 0.014919048 0.05716885 -0.14118297 0.06871563 -0.06510953 0.020925313 -0.010308561 -0.0637214 0.13988629 -0.11005138 -0.012012711
분 -0.07622826 0.105832025 -0.08179152 0.03494875 0.07286932 -0.053168856 -0.013086243 0.058517404 -0.045969427 0.10470875 -0.15789706 -0.1673841 0.066528976 -0.16870862 -0.035256438 -0.031980544
완전 -0.077148244 -0.0671421 0.07190058 0.19854665 0.08260127 0.063137494 0.22772124 0.122151904 0.056820087 0.28468025 0.19970837 0.060751893 0.122985005 0.0060292613 0.013633614 -0.07940131
다는 0.013471199 -0.0018216764 -0.025004249 -0.13199458 0.12696701 -0.04343621 -0.09142517 0.043776635 -0.054336347 -0.09933523 -0.10176425 -0.04681213 -0.07226641 -0.10378466 -0.02261992 0.04009873
참 -0.034123257 0.07327846 0.054943923 0.1168742 -0.005182254 0.0010600146 0.030881109 -0.04549571 0.016322803 0.057881873 -0.012743921 -0.046262536 0.08959906 0.041858286 -0.041965034 0.0007041657
많 0.0011575983 -0.041787352 0.049974 -0.10539625 -0.043006107 -0.016479122 -0.10060033 -0.07404902 0.0035859477 -0.07642656 0.037562072 0.03884469 -0.097498864 0.048102617 0.062100746 -0.029231947
처음 -0.027352566 -0.009547302 0.025841678 0.04975091 -0.07363522 0.053018417 -0.025871528 -0.20314686 0.068640456 0.053779442 -0.020720424 -0.0378535 0.08188064 0.03543795 0.060457952 -0.024674002
장면 0.003569479 0.025435124 0.021102501 -0.06994316 0.012379446 -0.052933436 0.039272323 -0.0070006642 -0.0071702246 -0.018542856 -0.0051134364 0.039137498 -0.030520566 0.05859415 -0.04445805 0.06049723
대 -0.026660796 0.063446425 -0.082390696 -0.17548786 0.06389552 -0.043124802 -0.06985453 0.14140269 -0.07862789 -0.10739608 -0.10616453 -0.0222689 -0.05720616 -0.04870209 -0.04671011 0.01599342
아깝 0.45310405 0.12397355 -0.1351186 -0.05523606 0.15612923 -0.18534534 -0.06462631 -0.13735673 -0.05606656 0.04275043 -0.22530124 -0.18497604 0.15328681 -0.0529904 -0.04966917 0.521084
다가 0.13352245 0.02800826 0.019790918 0.13020721 0.051713854 -0.037622005 0.08732354 -0.00015149947 0.013710024 0.2434948 0.030673226 -0.11898505 0.21741566 -0.109224305 -0.0010063915 0.038043745
으면 -0.015821898 -0.027205696 -0.044859476 -0.13702317 0.07025817 0.044766255 -0.07177466 0.010057223 -0.028583227 -0.04309769 -0.03482305 0.038273327 0.08343674 -0.021387424 -0.065722786 0.10472471
지금 -0.10360251 -0.0026267983 0.045004383 -0.05227747 -0.11372481 -0.04418437 0.057766635 0.032657973 -0.10279282 -0.13133119 0.066511095 0.11830979 -0.2183431 0.09582601 0.01768176 -0.17101227
모르 -0.2719249 8.0766185e-06 0.13155004 0.099685 -0.035038467 -0.08995332 -0.06775058 -0.08384676 -0.037598338 0.11530151 0.07968666 -0.06399597 0.18778802 0.021098992 0.026683927 -0.057607416
이렇게 -0.033295333 -0.06579886 0.07594665 0.116383664 0.02476384 -0.0681206 0.17828363 0.07263907 -0.0025122901 0.1371431 0.13560835 0.028349854 0.024246775 0.14977147 0.030825771 0.05103412
' -0.04379368 -0.0515135 -0.00983274 0.06342804 -0.023964211 -0.017436784 -0.056081556 0.038092364 0.036158703 0.014850175 0.046797264 -0.021181751 -0.008638155 -0.01166858 -0.033189353 0.0065830904
편 -0.13067389 -0.08512112 -0.027478904 -0.10691877 -0.053996257 0.031374358 0.040973615 -0.004696609 -0.06929182 -0.08049065 0.053529777 0.06715379 -0.0517689 0.13497569 -0.023237992 -0.03911017
일 -0.053449426 0.038747787 0.06852558 0.12623799 -0.07099997 -0.017834693 -0.038789213 0.047154773 0.03271231 0.02664285 0.027539251 -0.07169644 0.048159726 0.04789528 -0.0072120596 0.021057026
돈 0.14567815 0.15615715 -0.24475983 0.030195808 0.16856025 -0.25662565 -0.019094735 -0.19365193 0.021147735 0.049259752 -0.30037183 -0.16657199 0.09225842 -0.09361929 -0.14300233 0.17665821
이게 -0.0003132833 0.055495635 -0.07384991 -0.010631227 -0.00057932566 0.05423782 0.04867563 0.012916171 -0.04721224 0.021794533 -0.042223662 -0.05717295 -0.012639648 -0.013110839 -0.023673058 -0.021550385
성 0.093054086 -0.029384043 0.04638657 0.05001819 -0.02254613 -0.020034071 0.008745859 -0.0470694 -0.017747039 0.04797362 0.019174043 -0.02505222 0.13743357 0.010067139 0.0026920629 0.07467825
느낌 0.029615417 0.019225778 -0.004446336 0.07197697 0.106232345 -0.08759678 0.061081298 0.07151288 -0.026725797 0.025702242 0.03414456 0.0025150233 -0.091551095 0.0090486035 -0.012308859 0.0021503966
시 0.0033965954 0.007977242 -0.037205093 -0.07942692 0.004089203 -0.058244985 0.0007046975 -0.027673524 -0.04615376 -0.07335824 -0.07007556 0.021993056 -0.1247735 0.037135392 -0.008360813 0.022519223
이야기 0.04534307 -0.075151116 0.03200999 -0.08813977 0.016245881 -0.047464892 0.04543301 0.029561482 -0.075340085 0.008056791 0.085984685 0.022185205 -0.04861655 0.047267605 -0.009147753 -0.03323349
최악 0.5041656 0.4884189 -0.41849837 0.2471689 0.4027553 -0.29487923 0.6407458 -0.21675143 0.18176039 0.36252156 -0.49888027 -0.44404787 0.3175316 -0.49219424 -0.56465524 0.48647538
된 0.0029166627 0.00041999 0.025921037 -0.11107871 0.043585192 0.048981655 0.10557333 0.0695011 -0.037211075 0.052366126 0.016305521 0.0903338 -0.083234385 0.07749959 -0.03273178 -0.014996613
봐도 0.11504157 -0.099473484 0.07046767 -0.23447 -0.08417119 0.15692805 0.19646801 -0.15818988 0.030423518 -0.083859086 0.10145099 0.18513748 0.034964997 0.14557953 0.09939355 0.02822771
님 0.013926528 -0.023826879 0.015098325 -0.04780119 -0.03571566 0.14262277 0.087487034 -0.028015517 -0.07284533 -0.17051306 -0.020315604 0.039263066 0.03188788 -0.026690332 0.0465571 -0.015896268
어서 0.0912368 -0.0541957 0.03642598 -0.16416377 -0.0252702 0.019469094 0.086660095 -0.20185433 0.014230836 0.058183182 0.05174112 0.15465863 -0.036871623 0.09506154 -0.042416014 0.005002497
애 0.006404911 0.007099224 -0.005537426 0.01838403 -0.0047808494 -0.026387136 -0.004270384 0.068586774 -0.010126639 0.010615734 -0.06002307 0.0060205907 0.063392326 -0.08076459 0.043500967 0.08605283
전 -0.16740216 0.01650607 -0.029938454 0.030630901 -0.0033758958 -0.02576577 0.0079264855 0.093339905 0.010932344 0.10642828 0.043259572 -0.055318706 0.029077139 -0.058154806 0.053234812 -0.106868014
넘 0.022792066 -0.04955233 0.088242345 0.1256009 -0.011548489 0.06507436 0.19663335 0.1728684 0.036002405 0.13731362 0.089904994 0.008594021 0.08058244 0.0018169408 0.08269838 -0.037635308
ㅠㅠ 0.021441817 -0.14385678 -0.007997877 -0.14044872 -0.14447348 0.1116825 0.107245095 -0.059855044 -0.0018342541 -0.06681742 0.045419034 0.083611615 0.05017261 0.113237835 -0.026724003 0.038573626
인데 0.004807963 -0.052540395 0.001515794 -0.06704828 0.0021572027 -0.08730099 -0.06758802 -0.054975525 0.030275417 -0.036301613 0.020634934 0.019075198 -0.053440627 0.046687316 0.037890986 -0.0040055113
다고 -0.072107196 0.13328819 -0.055276696 -0.057957895 0.20279454 -0.042590875 -0.113851786 0.2868701 -0.09540466 0.038494088 -0.162629 -0.069285005 -0.15251827 -0.07410683 0.0011198479 -0.0036535496
이해 -0.10988673 0.06647495 -0.03347308 -0.053357646 0.117680706 0.12314046 -0.07414562 0.17931023 -0.09488315 -0.042474188 -0.1417248 -0.074785136 0.0064013754 -0.15300538 0.059544172 0.048926864
별로 0.27362156 0.12761444 -0.21467994 0.105334796 0.35387734 -0.29125744 -0.17915814 -0.32569283 0.11127457 0.22023366 -0.22267249 -0.24676709 0.24325795 -0.16321267 -0.16928197 0.29617703
그리고 0.32537404 -0.10421049 0.13443306 0.005845894 -0.09263877 0.108070105 0.13419001 0.03272285 -0.022186985 0.097949944 0.13990615 0.04522314 0.08483307 0.055779718 0.097518526 0.032880012
명작 -0.12990445 -0.3193179 0.1963468 -0.12240702 -0.18380265 0.30066305 -0.01653047 0.13827276 -0.18134731 -0.18649797 0.31679168 0.27260426 -0.03788132 0.18673483 0.2671532 -0.14300753
여자 0.07286017 0.05726361 -0.03347809 -0.04182583 0.14536825 -0.10627402 0.01824698 0.11986538 -0.017113082 -0.10228176 -0.04841747 0.01292465 -0.15500712 -0.002165233 -0.033997253 -0.031179953
^^ -0.077516824 -0.021637836 0.15943798 0.03820418 -0.24519081 0.097024575 0.079781376 -0.05772151 0.0668362 -0.09699366 0.13790478 0.1616496 -0.07332058 0.049358252 0.25055456 -0.075916186
역시 -0.06747103 -0.012566068 0.05251701 -0.09340514 -0.12797947 0.076860644 0.08471879 0.067913964 -0.07273466 -0.15708536 0.03998745 0.11963939 -0.047080394 -0.0010170217 0.09473843 -0.10687716
난 -0.10381358 -0.057175335 0.10832614 -0.031106858 -0.02414019 0.08938635 -0.029663406 0.096795924 -5.653745e-05 0.085855626 0.11114722 0.088139124 -0.1768682 0.045388967 0.036094427 -0.16638513
이상 -0.032698847 0.014358708 0.030969562 0.07459293 -0.04875985 -0.1289052 0.025825001 -0.1378619 0.008105283 -0.0036164524 0.003355338 0.0050728377 -0.0961569 0.001414582 -0.060626283 -0.090609685
또 -0.0004868455 -0.06146068 -0.013266288 -0.13390797 -0.085714325 0.06939726 0.028981041 0.032821894 -0.06843428 -0.04925561 0.073662125 0.100854695 -0.088437565 -0.000105366875 0.03246788 -0.094818376
걸 -0.031565137 0.07773097 -0.050039094 0.027381249 -0.15216893 0.023280982 0.019492626 -0.13955706 -0.0030219776 -0.027583046 -0.05778138 -0.017526168 -0.04561389 -0.0341504 -0.0105503965 -0.035211764
한국 0.045878187 0.0032220143 0.00078071374 -0.11610455 0.06817481 0.09218704 -0.054889686 -0.015282328 -0.11162623 -0.032521438 -0.055176128 0.067204006 -0.08142557 0.012601221 0.0302909 0.0020785923
는지 -0.04739202 0.05217304 0.006680627 0.027684906 0.09370672 -0.093742914 -0.024303515 -0.029842883 -0.03898359 0.05386137 -0.059109837 -0.15797384 0.19590233 -0.10384951 0.026410041 0.02882398
많이 -0.047928706 -0.04830256 0.017344173 -0.024648407 0.049811415 -0.06509023 0.09988931 -0.07369954 -0.0150021985 0.08235123 0.008182412 0.041169025 -0.010374262 0.036176447 -0.037126906 -0.054703817
에게 -0.047896188 -0.080177054 -0.006106858 -0.16444735 -0.054662425 0.023152903 0.024973009 -0.0301691 0.0102796145 -0.020547926 0.014750248 0.118004814 -0.12479941 0.051449865 -0.032651633 -0.02160757
부터 -0.008763783 0.005605088 0.013633608 0.09492489 0.04873084 -0.05459978 0.06617614 0.019961756 0.039506648 0.14434937 0.026184773 -0.012386491 0.11903889 0.09148755 -0.09457084 0.034843195
만든 0.019899495 0.005560529 -0.022827951 0.054108962 0.049159676 -0.033430126 0.11445206 -0.040672094 0.008625168 0.10090735 0.12798953 0.0803547 0.021598648 0.11059537 0.019200575 0.06993912
주인공 0.065373726 0.018601855 0.015255182 0.0070935893 0.091807 -0.02560589 0.09354543 -0.06228818 0.06417964 0.166032 0.023315592 0.027259178 0.0054849503 0.013292839 -0.04319416 0.004115226
받 0.06158488 0.0177256 0.049093764 -0.12311785 -0.016749881 0.06430939 0.07238949 -0.09266912 0.016790764 0.053584617 0.05928801 0.037038293 0.05776504 0.063866146 -0.01950528 0.051277198
합니다 -0.016680388 0.010859622 0.026165424 -0.032752413 -0.06976699 0.07648713 0.16902089 -0.0059833564 0.08468694 0.04480728 0.14165807 0.17290805 -0.14887258 0.15154815 0.04491414 -0.0826472
우리 -0.107720144 -0.02429615 0.0878506 -0.075062454 -0.06508529 0.09590858 -0.004970436 0.022655655 -0.032024533 -0.047033526 0.079603545 0.08666151 -0.02759556 0.10448692 0.069035426 -0.08571049
두 -0.03618821 0.040285554 -0.006864681 -0.021410367 -0.025231807 0.101359 0.068915516 0.038510207 -0.0027500396 -0.070225514 0.042524293 0.017500218 -0.004033804 0.025155911 0.036385972 -0.034283187
살 -0.063473806 -0.041952386 -0.016048575 -0.016527778 0.022309486 -0.050213736 0.024745034 0.07746858 -0.13593419 -0.0068910234 -0.006675116 0.016008504 -0.011545238 0.017611165 -0.008571142 0.016482672
!! 0.06600895 0.119642735 -0.006685666 0.042824652 -0.12596841 -0.01610424 0.19888242 -0.008639681 0.075493775 0.0008271287 0.0062684305 0.082275145 -0.06766251 0.065934926 -0.036072247 -0.075230435
길 0.06792661 0.009232586 -0.01964772 -0.090448014 -0.07687784 0.008722379 0.009413679 -0.073694594 0.023163687 -0.0644104 -0.061347008 -0.007348008 0.046942215 0.036825817 -0.028182806 0.10925569
엔 0.012322243 0.0324871 -0.0062637213 0.007526823 0.0716727 0.0023339083 -0.1968947 0.051347602 -0.08676142 0.056319166 0.0148578035 -0.008544748 0.20435296 -0.060338136 0.067702 0.017075483
괜찮 -0.07556276 -0.10672216 0.0630208 -0.1497335 -0.17754608 0.04640924 0.0774144 0.104982734 -0.051975936 -0.1652277 0.22359145 0.31964952 -0.3278963 0.206064 0.024136709 -0.21970055
기억 0.06286081 -0.1147958 0.07526596 -0.07862522 -0.040030498 0.026887191 0.17331076 0.120589204 0.017626299 0.0627984 0.17301421 0.13543959 -0.09878202 0.21913227 0.022559216 -0.073441416
연출 0.053604364 0.057508726 -0.014931837 0.06198487 0.0057673943 0.04540674 0.05466578 -0.06314684 0.09752897 0.07294871 0.07098197 0.012233798 0.011958787 0.025718715 -0.034595627 0.07586975
한다 0.027648315 0.00119068 0.047153905 -0.057994362 -0.042228047 -0.0065926095 -0.07522554 0.031848866 -0.026888406 -0.057703204 0.030154824 -0.009978387 0.040800776 -0.04210162 0.04997516 0.028028443
때문 -0.040771786 0.009423696 -0.07218075 -0.088543475 0.023367034 0.121684045 0.1356209 0.061096657 0.008234982 -0.07356445 -0.054131977 0.01942196 -0.13941404 0.07066534 -0.034688972 -0.044997852
이나 -0.053377394 0.10102919 -0.023021258 0.045265958 0.04102011 -0.023053896 0.019543394 0.09758068 0.098226376 0.014242424 0.019574875 -0.082520545 0.061386082 0.004502057 -0.061873533 0.058465343
ㅎㅎ -0.100989684 -0.18109663 -0.047278557 -0.21443677 -0.09983494 0.13074426 -0.010914893 0.08110033 -0.07550533 -0.15799166 0.02126597 0.11477163 -0.12871036 -0.035098184 0.02950835 -0.027115924
요 0.014125257 -0.13437927 0.029503673 -0.16030513 0.07293417 0.080416866 0.13057256 0.026398925 0.006421431 -0.0869217 0.08294914 0.054895718 -0.022855511 0.10452519 0.034909163 0.03999875
저 -0.1921549 -0.0021226453 0.055312756 0.109288014 -0.06309482 -0.106723286 -0.07733326 -0.021582844 0.05995625 0.08215472 0.04004197 -0.03759897 0.12234645 0.02374625 -0.0076604644 -0.11333956
재 -0.07758582 -0.10005345 0.10391019 0.055838905 -0.08747545 0.09553977 0.08217748 0.14090507 0.050444305 0.16746524 0.16089572 0.21624838 -0.06383646 0.00926752 0.21603282 -0.1829745
꼭 -0.10973042 -0.15501283 0.10196338 -0.032990437 -0.29932353 0.009652342 0.03551871 -0.0753647 -0.13682856 -0.33118254 0.09389824 0.07649015 -0.20425555 0.05253049 0.13744397 -0.092337534
랑 -0.00025581327 0.067073464 -0.0036491724 -0.06879879 0.0084600635 -0.07583771 0.15114577 0.03455264 -0.06552888 0.07164088 -0.017679904 -0.008281048 0.021247108 -0.02487451 -0.030802116 0.00029743128
며 -0.013186827 -0.08829113 -0.02586935 -0.13752232 -0.024247805 -0.074468106 0.1252294 0.053531967 -0.055122454 0.045716453 0.058063515 0.026181696 -0.11876472 0.03852941 -0.012918835 -0.01643088
현실 -0.21542364 -0.117680326 0.06732792 -0.16029264 -0.15582666 -0.020722512 -0.07015581 -0.020787401 -0.028691977 -0.10793993 0.088461906 0.090377495 0.016992822 0.21247673 -0.0062389984 -0.10395058
긴 -0.009924696 0.12661491 -0.07510633 0.0050781313 0.0151762385 -0.04333687 -0.23542373 -0.017657213 -0.0015596106 -0.007271304 -0.048014835 -0.040662065 0.09253053 -0.13428105 0.0028982717 -0.106478296
ㅡㅡ 0.19497758 0.11839594 -0.2548406 0.13286388 0.21218824 -0.11722305 -0.053413823 -0.23849662 -0.019286517 0.13670842 -0.3066779 -0.2593671 0.13031062 -0.115755916 -0.20057131 0.25599942
무슨 0.1849477 0.052651785 -0.114206254 0.079088524 0.15564719 -0.22898202 0.021594204 -0.07849905 0.033018105 0.11095886 -0.16346918 -0.1588027 0.10641057 -0.15023947 -0.1444646 0.19059439
내내 0.1062059 -0.030074585 0.048745144 0.10154145 -0.0740728 0.02433925 0.11993194 -0.12741826 0.04362036 0.060346566 0.114384316 0.0007686502 -0.039275102 0.08362498 0.037192274 0.0984855
결말 -0.0072992076 -0.03570994 -0.05683989 -0.16866389 -0.0029139577 0.09132453 -0.047721256 -0.07243517 -0.04205904 -0.10190345 -0.019653924 -0.0004168857 0.021494046 0.013623098 0.042910967 -0.019255849
죽 -0.07194681 -0.0050535477 -0.029843649 -0.036065657 0.012265506 0.020515993 0.018268729 -0.008346877 -0.007077427 0.010355731 0.038834985 -0.01257172 0.028509974 0.12315178 -0.090739034 0.052716326
남자 -0.13977963 -0.012627282 -0.06448117 -0.15548983 -0.009905769 -0.04940973 0.05660895 -0.062257346 -0.054300223 -0.10088547 0.0236546 -0.011462918 0.0023719636 0.026368355 -0.028430069 -0.0035643333
세요 -0.10621578 0.046228927 -0.013648087 0.036353648 -0.017494269 -0.021382691 -0.06970693 -0.047001082 -0.003200204 -0.029242089 0.061336126 -0.029230364 0.16052018 0.027809517 0.046252113 -0.039783154
전개 0.18179986 0.04713498 0.025502108 0.044170767 0.049666036 0.019161945 0.033359468 0.044234682 0.055102073 0.09684069 -0.07029934 -0.13817616 0.2006238 -0.20729958 -0.009370436 0.13477805
마음 -0.13617203 -0.1608616 0.15664153 0.036480438 -0.16374622 0.09026201 -0.020435926 0.016783983 -0.028517788 0.037341546 0.1799956 0.19316979 -0.15939657 0.17626418 0.13737415 -0.19963026
소재 0.09361968 0.011486739 -0.0068451203 0.118092515 0.24957606 -0.048553072 -0.033359624 0.18904121 -0.01518416 0.121029146 -0.012466146 -0.082088016 0.043199293 -0.14680359 -0.10285515 0.038804304
속 -0.022771291 -0.057337727 -0.002700169 -0.13467982 -0.040665895 0.15318573 -0.02234969 -0.11914406 0.098963425 -0.054505065 0.08543632 0.0050182818 0.11252503 0.073932186 0.028860122 -0.036344096
공포 0.035256434 0.05862087 -0.049728107 0.12649228 -0.0024121117 -0.058552254 0.1510995 -0.089518085 0.024387801 0.03786186 0.03459533 0.02873174 -0.10373815 0.03370497 -0.08327506 -0.034246374
아서 0.09132127 0.024526592 -0.00826233 0.0814072 -0.05038099 -0.087011665 0.20108077 -0.12537402 -0.0942321 0.14491549 0.079246044 -0.039124805 0.06391419 0.08025162 -0.07722229 0.053374648
다른 0.21682842 -0.08598344 -0.006406891 -0.040971674 -0.03535224 -0.050498348 -0.10300158 -0.16809195 -0.025678255 -0.09931312 -0.008133072 -0.0046990383 0.06245179 -0.0014795156 0.04250814 0.066571765
씨 0.18783537 -0.0018080057 0.033273857 0.058707915 -0.029915381 0.007222356 0.006313433 -0.1552958 -0.0022559916 0.027191414 -0.0396329 0.055861436 0.030315477 0.011091974 0.071090646 0.10221834
인생 -0.18502887 -0.13688572 0.13550842 0.08976513 -0.06347323 -0.00889611 -0.11058349 0.20893523 -0.039985012 -0.011516404 0.14764616 0.15456887 -0.11420143 0.08071338 0.20108522 -0.25093827
~~ 0.18112198 -0.018057896 0.024553709 -0.089642555 -0.040452182 0.10665367 0.13034232 0.019960517 0.021424254 0.045002803 0.11931137 0.028329778 -0.028090661 0.10767383 0.04058807 0.07229754
짜증 0.3138531 0.10358212 -0.106457666 0.30570197 0.061070412 -0.31951094 -0.10846811 -0.17449686 0.13884734 0.072406925 -0.15406066 -0.17909296 0.14218915 -0.19879211 -0.0500476 0.23927385
짱 -0.21234785 -0.050941925 0.0113327345 -0.20154776 -0.3106054 0.11364455 0.20918639 -0.08212062 -0.02692858 -0.25804982 0.014125411 0.17968474 -0.11152994 0.12310748 0.14348476 -0.17554817
뿐 -0.019124951 0.18042424 -0.024618702 0.11600428 0.004401675 -0.08936615 -0.063835695 0.021053582 0.047531385 0.11726679 -0.035004932 -0.12988022 0.086244956 -0.08434235 0.049226694 0.015813466
은데 -0.17812571 -0.08295319 0.05208193 -0.06452867 -0.033251885 -0.06687712 -0.0650659 0.06873297 -0.016409507 -0.06734515 0.022871299 0.01427331 0.012367857 0.009880853 0.041799948 -0.096011244
별 0.2394278 0.07589224 0.06807408 0.12857902 0.018033829 0.08772978 0.10719787 -0.12966307 0.07951913 0.11126766 -0.00198403 0.009263907 0.010900219 0.09009198 -0.018547645 0.111207806
아요 -0.04890516 -0.10698555 0.060992192 -0.012125001 -0.101684846 0.10858988 -0.022145795 0.016473843 0.036067877 -0.01920262 0.090269625 0.1493911 -0.08396935 0.09137376 0.095675156 -0.0662834
유치 0.15846044 0.110386886 -0.09206776 0.16916578 0.17693321 -0.2099066 -0.10646575 -0.20851901 0.07294793 0.13948499 -0.089496315 -0.21638969 0.2347225 -0.24501881 -0.06908873 0.11341001
가장 0.07951838 0.015264973 0.015210032 0.15044755 -0.058511235 0.08393543 0.086112306 -0.07428203 0.08244965 0.035316415 0.040543027 0.12008604 -0.11780431 0.0010313676 0.04327731 -0.030532459
필요 0.011930191 -0.20919979 0.114235476 -0.18451475 -0.33326504 0.17262138 -0.20876347 -0.05232171 0.00062847475 -0.36659002 0.13101214 0.23038527 -0.2288091 0.23662594 0.29244232 -0.156422
음악 0.024122082 -0.11798312 0.13062093 -0.086594865 0.052828092 0.01514481 -0.16772608 0.13158715 -0.019825801 0.015026444 0.08767997 0.024184542 0.038650233 0.02484118 0.10821543 -0.0494787
) -0.009497936 0.0066153044 0.06109117 0.022712171 -0.037821367 -0.076363884 0.0076490724 -0.032299012 -0.047285143 0.035121225 0.008747269 0.017585821 -0.0630585 -0.023563009 0.042196065 0.053912446
일본 -0.003890416 0.004815409 -0.025632516 -0.05395215 -0.004497226 -0.07868184 0.0009264565 -0.10170032 -0.0038222366 -0.07603254 -0.06623161 -0.07853489 0.027562143 0.012921779 -0.045397066 0.0011135646
낮 -0.3216837 -0.13520311 0.06357954 -0.29600063 -0.29673782 0.3566832 -0.1998025 0.06445568 -0.029153345 -0.5032662 0.024896467 0.29703298 -0.13173458 0.06741827 0.33170623 -0.24354443
아이 0.013410094 0.01035372 -0.008085022 -0.0343901 -0.015159528 0.03119758 0.06523702 0.04121622 0.006904581 0.04841443 0.035918575 0.029257609 0.027181871 0.08993613 -0.050120994 -0.008111779
;; 0.00093612395 0.034122273 -0.1330903 0.03997873 -0.059182268 0.011500257 -0.006080886 -0.08863485 0.039375104 0.018385408 -0.12872386 -0.12008895 0.069647 0.020797504 -0.07413804 0.060298715
오 0.01388276 -0.019348655 -0.045398276 -0.1100064 -0.015395879 0.037952054 0.018716598 0.01174294 -0.005084813 -0.0536147 0.052188333 0.014479299 -0.10504702 0.011415765 0.030408915 -0.0734319
반전 0.071135946 0.0007218142 0.04767304 0.0645252 -0.038233705 0.02998302 0.009586698 0.086864084 0.020520302 0.0550708 0.11030928 0.032027554 -0.030700767 -0.008762535 0.04716262 -0.09050743
수준 0.15916137 0.12591171 -0.11884815 0.15187989 0.079575256 -0.14367642 -0.14464185 -0.10928658 0.027493801 0.085621595 -0.21019743 -0.17031515 0.046644885 -0.09954 -0.07558935 0.23783329
다니 0.0006624292 -0.08663252 -0.04499595 0.036832657 -0.0025429064 0.0013529701 -0.19611944 0.10975556 -0.12877077 -0.024095379 -0.062152777 -0.06899472 -0.011860614 -0.07981328 0.036983486 0.0138046285
웃 -0.093231164 -0.07311444 0.030362953 -0.120268166 0.0494113 0.10089623 -0.015105138 0.039824285 -0.005310173 -0.005557163 0.027214559 0.018930482 0.032694697 0.13015915 0.067847006 -0.07061487
매력 -0.31004292 -0.047874924 0.10877052 0.060701743 -0.010707893 -0.017374018 0.23162448 0.21367283 0.03292796 0.18679899 0.27052602 0.09430856 -0.24829212 0.07058904 0.061913606 -0.2873778
맞 0.07700864 0.096969 -0.03073975 0.12469419 0.11589129 -0.14318238 0.073389195 0.07640326 -0.008916893 0.09929223 0.021153636 -0.07903811 -0.019200098 -0.0186739 -0.05288802 0.09029213
인지 -0.0014085782 -0.0032868353 -0.00911656 -0.06244378 0.10798043 0.018100852 0.024937877 -0.1277965 -0.037831705 0.020573592 -0.012138335 -0.06443703 0.01527369 0.011539309 -0.05632474 0.03300916
가슴 -0.046363335 -0.16265765 0.17876051 -0.06982192 -0.1565149 0.19514047 0.0869419 -0.0038912136 0.07257893 0.050881855 0.19653569 0.21454464 -0.07904132 0.18902016 0.13571599 -0.08868653
없이 -0.3444879 -0.015903505 -0.09177375 0.102631226 0.013039728 -0.045136098 -0.09727823 -0.0037804882 0.05083031 0.029617948 0.06559359 -0.110154495 0.035377085 -0.012278332 -0.05740527 -0.12198668
원작 0.019603483 0.103014685 -0.15337172 -0.10676583 -0.014958975 0.045816753 -0.049235288 -0.058660116 0.017582815 -0.05584276 -0.18883124 -0.1546635 0.1260249 -0.08850726 -0.059754554 0.08451088
ㄷ -0.0020844133 -0.07379868 0.04216254 0.01223754 -0.06769985 0.050361004 0.0046980823 -0.002414295 0.022770647 -0.01735211 0.03336356 0.026455827 -0.026377441 0.052366678 0.044202384 0.01538324
인간 -0.074686676 -0.13133106 0.023457158 -0.14708795 -0.036714904 -0.028156955 -0.13908154 -0.020824978 -0.08997375 -0.0942878 -0.01441354 0.090455614 -0.14689232 0.08266301 -0.0016675256 -0.021485912
데 0.048844583 -0.041802194 0.02428853 0.023516377 0.07077243 -0.023458023 0.05730072 0.029870827 -0.08918577 0.1085066 0.025754862 0.009610687 0.00094707415 0.05279982 -0.06129002 0.016168261
굿 -0.020131972 -0.23889318 0.1869486 -0.27947697 -0.26843295 0.33573857 0.084912345 0.09286643 0.009248369 -0.18217227 0.11289767 0.27821723 -0.043244 0.06409936 0.41423604 -0.071611725
ㅠ -0.09340679 -0.11618076 0.04125197 -0.090108186 -0.10006604 0.041580312 -0.00964153 -0.029829323 0.034160174 -0.14444855 -0.015106561 0.021645447 -0.048245527 0.031187685 0.13937277 -0.016050942
높 0.026090108 0.09496104 -0.0036821493 0.28428045 -0.06971827 -0.08469045 0.0033626624 -0.09236397 0.03897891 0.10475309 -0.088392355 -0.16399573 0.11257331 -0.18752392 -0.075305395 0.112389885
밋 -0.10814295 -0.18807659 0.09051821 -0.040803872 -0.043660976 -0.088071845 0.0034693961 -0.042208865 -0.13468944 -0.0050705886 0.09204392 0.028768934 -0.036383133 0.10060433 -0.011022554 -0.07419163
( 0.049743194 0.05754938 0.003371966 -0.050663594 -0.07474559 0.094919175 -0.0017068265 -0.042799804 -0.032934736 -0.14583026 -0.14468199 0.0100193005 -0.09170293 -0.051070143 0.0051280824 -0.015928006
만드 -0.15250091 -0.07648602 0.02497878 0.08117284 0.07575801 -0.06580867 0.19740269 -0.035107665 0.06401241 0.22301954 0.13094991 0.027036078 0.04152835 0.14882341 -0.18669418 -0.09463164
급 -0.022020029 -0.025767934 0.015493541 0.0780587 -0.027804498 0.04816713 0.010738746 0.031968094 -0.045386214 0.12409572 0.06460999 0.01737914 -0.013315406 0.0037949162 -0.04565415 0.04847451
눈물 -0.043117955 -0.17679076 0.16062574 -0.090748414 -0.20175417 0.19288501 0.003846306 0.09178856 -0.07652189 0.0008447524 0.21818545 0.08049375 0.0060749017 0.19918048 0.21094061 -0.052857965
보여 0.10136037 0.02368153 0.09625396 0.034288272 0.08856136 -0.06051952 0.07317882 0.058058772 -0.04066034 0.07214255 0.099700764 0.09039655 -0.067128025 0.025506347 0.04270679 0.01177812
준 -0.08840857 0.022773108 0.027555602 0.065009326 0.21954767 -0.0842469 -0.0021728734 0.2789075 -0.047575325 0.16538543 0.12242787 -0.04844986 -0.017926365 -0.0017427108 -0.013181392 -0.036900096
찍 0.011659109 0.034160055 -0.040849123 -3.482122e-05 0.12000048 -0.016135124 0.12428055 0.14964189 0.047564276 0.10859146 -0.069549434 -0.02847669 0.05902649 -0.044353846 -0.03328736 0.06668478
인가 0.09631627 -0.028241416 -0.061343763 -0.08167933 0.04783321 -0.048518755 -0.00824423 -0.03707387 -0.061812215 0.042127848 -0.038864836 0.015796507 0.015439862 -0.0035904034 -0.02722627 0.17395642
노 0.1579483 0.3858755 -0.3749037 0.121642366 0.2379165 -0.18466255 -0.05224819 -0.16646269 0.13565356 0.01861815 -0.5074466 -0.29839733 0.17876522 -0.5238971 -0.2833157 0.26066262
을까 -0.00030097656 -0.080050126 -0.01217518 -0.06775504 0.10302251 -0.11262555 -0.015260883 0.034534216 -0.06077004 0.01792985 0.060358148 -0.024707247 0.004314633 0.014298784 -0.005828752 -0.045567546
용 -0.07588994 -0.0034650054 0.028840642 0.018378891 0.039117392 -0.008203006 -0.011951385 -0.032965977 -0.00039906177 0.083667606 0.075083226 -0.030128747 0.12632899 0.034758184 0.049122777 -0.029873805
코미디 0.023674658 0.051597472 0.011570888 0.12619147 0.09041418 -0.044785526 0.050969113 -0.017318986 -0.012223604 0.117481455 0.024402851 -0.012248593 -0.011464284 0.010310743 -0.022421906 0.048168533
마 0.09888809 0.02769613 0.0012859317 0.07035187 -0.02109728 0.11261822 -0.089314066 -0.12468126 0.04302927 0.012586077 -0.08896381 -0.038260717 0.109660715 0.024043849 -0.034038875 0.21328922
화 -0.0077517377 0.016405322 -0.034503765 0.0530852 0.042981654 -0.04860813 -0.03008806 -0.013352649 0.049186338 0.10760444 -0.003543553 -0.08927217 -0.021428969 -0.010630501 -0.022139343 0.076837994
신 -0.10991805 -0.10471719 -0.043885957 -0.09868399 -0.06549859 0.17036968 -0.014378577 0.019866873 -0.04723526 -0.05893016 -0.004603134 0.02682702 -0.008071789 -0.036566384 0.054798618 0.023958812
모든 -0.06377022 -0.09003807 0.011248396 -0.1331522 0.029820768 0.11974229 0.093527004 0.07372329 0.02549151 0.06693133 0.13522905 0.039352953 0.022581218 0.13742793 0.038482524 -0.06414101
쓰 -0.014265597 0.1776282 -0.039752424 0.048666198 0.0904315 0.075675346 0.012713272 0.09635152 -0.011129863 -0.034747805 -0.03376742 -0.060400285 -0.023184484 -0.044049084 0.019860286 0.0033566095
여 -0.022441305 -0.025776183 0.071757734 0.09523927 -0.040362548 -0.040592644 0.07774456 -0.059357252 0.010654386 0.039895624 0.10280919 0.03503893 -0.092790954 0.039334234 -0.025595184 -0.009812722
5 -0.13835391 0.030030292 -0.08226513 -0.084602654 -0.039636698 0.10161615 0.086039335 0.03382335 -0.032326207 -0.056895304 0.026149426 0.07231341 -0.14910097 0.037192017 -0.050043624 -0.07323898
아직 -0.25894096 -0.062365294 -0.021122778 -0.08142991 -0.0066429763 -0.009045445 0.033036456 0.31435272 -0.18256809 -0.09251055 0.051456098 0.014025885 -0.09297379 -0.017289894 0.001149621 -0.16514423
추천 -0.080579035 -0.16274408 0.099026956 -0.07052256 -0.059619848 0.109112784 0.14755501 0.029805584 -0.021551372 -0.0049204314 0.2256405 0.19124441 -0.026012292 0.1862632 -0.0037608119 -0.13674834
처럼 -0.05463201 -0.019704701 0.044039305 -0.025049051 -6.8692956e-05 0.034113355 0.02419654 0.14525092 -0.0010453416 0.095652066 0.06853151 0.048651226 -0.007517998 0.03639529 0.07452095 -0.028541349
눈 -0.045620516 -0.028396724 -0.028323384 0.13922796 -5.1408613e-05 -0.129431 -0.13427211 -0.10590151 -0.027247082 -0.050603636 -0.14638518 -0.032358993 -0.08563836 -0.1070348 -0.006741533 -0.014004592
아닌 -0.092423536 0.05702785 -0.042553656 -0.035877068 0.18772651 -0.047028586 -0.15695058 -0.06306047 0.02109686 0.022009484 -0.07998413 -0.15880853 0.0033463025 -0.122924596 -0.050071146 -0.048959382
자체 -0.0686576 0.028981794 0.0028162897 -0.040697843 0.07076957 0.0057399827 0.124263294 -0.022838272 0.029286755 0.124457106 0.029592276 0.009970484 0.029130913 0.035848245 -0.059132364 -0.082319796
울 -0.26870096 -0.1740765 0.0843786 -0.20998906 -0.22230113 0.15241966 -0.06866672 -0.088452324 -0.06735072 -0.23468028 0.071898766 0.16039866 -0.08730154 0.1618478 0.14601152 -0.13101226
몰입 0.012173443 -0.014616224 0.13925731 0.26077354 -0.0882549 0.009259308 0.121880196 0.012361913 -0.017563328 0.10957385 0.20236437 0.11577733 -0.13142657 0.13462648 -0.011576698 -0.09690878
4 -0.009479293 0.08324352 -0.068145834 0.06969479 0.037624855 0.051656973 -0.031463746 -0.029597342 0.036488328 -0.004949344 -0.119985916 -0.11741191 0.014815094 -0.06512704 0.009067223 0.08677387
대박 -0.211925 -0.20159222 0.17248127 0.031380277 -0.11211039 0.027993908 -0.007916064 0.19229935 -0.08860065 0.04156633 0.25924438 0.08689692 -0.09765653 0.19292562 0.1792168 -0.21861209
몇 0.01012094 -0.045238294 0.027012048 -0.14699283 -0.11245029 0.11792283 0.22147362 0.01959764 -0.112297416 -0.068416454 0.068640664 0.0059648496 -0.05359826 0.0780832 0.07484845 0.061808433
스럽 0.14949949 0.011053913 -0.04600531 -0.097584605 0.014531596 0.22865276 -0.07674823 0.009092437 -0.031502478 -0.10420238 -0.037957214 0.08719632 0.028747648 -0.04369202 0.08464639 0.047586735
실망 0.27070567 0.25380135 -0.46282712 0.18043958 0.27696747 -0.32895708 -0.09577079 -0.36919928 0.14648819 0.16951984 -0.5281934 -0.40992683 0.23914441 -0.47243732 -0.26035842 0.32708025
는다 0.21306449 -0.008831145 0.02171812 -0.10112331 -0.065147735 0.11915598 0.051732797 -0.08098299 0.10144974 -0.03472151 -0.010565037 0.12304157 -0.046889346 0.08002829 0.074523725 0.035355266
대한 0.031424318 -0.089402795 0.09518131 -0.11248085 -0.10335073 0.005828913 0.024346597 -0.09155857 -0.12063244 -0.055707242 0.039325602 0.07657913 -0.120343186 0.14577243 0.054765884 -0.0064697037
죠 -0.05148606 -0.0136175705 0.042660248 -0.12949856 -0.007863772 -0.02185733 0.0063632093 0.03885595 0.016928427 0.048985165 0.084425196 0.12429639 -0.1948125 0.11342147 0.01417272 -0.074691854
란 -0.08985524 -0.005667685 0.020277862 -0.036855806 -0.074229434 0.056482676 -0.052412454 -0.1571732 0.028976647 -0.10684427 0.023312168 0.08949656 0.07277459 0.030080343 0.06470166 -0.01193833
그런 0.04388841 0.1267492 0.025630254 0.007932544 0.013148389 0.08339021 -0.08678306 0.00026408274 -0.0051237294 0.035252254 -0.030701876 -0.09293514 0.11015353 -0.0885865 -0.034333568 0.10004205
솔직히 -0.018004555 0.023404095 -0.09102426 0.09438901 0.0013112806 -0.15255918 0.025531616 -0.1939391 0.054375626 0.08324608 -0.06314414 -0.020886054 -0.032564934 -0.071604006 -0.092555195 0.0044238158
캐릭터 0.10519624 -0.048417453 0.020639151 0.031195244 0.07352949 -0.03797957 0.15660907 0.034658704 0.03717448 0.052131545 0.08014764 0.0019479953 -0.069615655 0.022544798 -0.053299487 0.00095736666
ㅎ 0.0065135965 -0.16034177 0.070699975 -0.20020317 -0.04518152 0.12599845 0.002055352 0.002334728 0.032886833 -0.040429603 0.021198161 0.11656503 0.03743473 0.097123675 0.04107285 -0.024608532
모두 -0.13176264 -0.05470087 0.13984302 0.115247235 0.11138957 -0.043894045 0.06840883 0.16265266 -0.030156992 0.260468 0.2154369 0.036612455 0.005028447 0.106200434 0.03436014 -0.11369197
아주 -0.21885812 -0.09308441 0.066253625 0.024880331 0.015054887 -0.050028082 -0.010005266 0.040582053 -0.037597466 0.047075108 0.060898818 0.0014101568 0.057664078 0.08354163 0.0070387674 -0.08793276
- -0.06702967 0.06613202 -0.019226382 -0.009674174 0.03964074 0.068552256 -0.09054169 -0.03550298 0.030989308 -0.06667881 0.05352488 -0.09319715 0.07080449 -0.046333853 0.07769633 -0.013272286
가족 -0.04248149 -0.07382206 0.026216801 0.08498229 0.07534851 -0.017243523 -0.013095355 0.18737309 -0.036996074 0.03677285 0.03151917 -0.0028469292 0.043175202 -0.069717154 0.07313798 -0.036539916
여운 -0.11375508 -0.35906947 0.3548388 -0.17158791 -0.20770952 0.13828926 -0.020219425 0.24976394 -0.2602381 -0.14159207 0.43960646 0.451563 -0.34610957 0.4290754 0.21519983 -0.33802813
건지 0.061643932 0.073730744 -0.11818289 0.104192086 0.037402034 -0.09168463 -0.08161355 -0.21535243 0.042570543 0.026406204 -0.1458413 -0.1417996 0.13952433 -0.14406718 -0.071060345 0.09103043
전혀 0.23978196 0.1646914 -0.012919404 0.05753942 0.030258404 -0.13674818 -0.07072157 -0.037716653 -0.06568736 -0.0046124593 -0.18818761 -0.22156046 0.21712108 -0.20558858 0.060097367 0.3036511
연기력 0.06723071 -0.037527613 0.04489339 -0.04451753 -0.030534564 0.024988146 0.070882834 -0.122154206 0.066348195 0.03631432 0.07723746 0.017515529 0.08570793 0.028253056 0.04578868 0.016970983
나라 -0.05458994 -0.011903739 0.003542593 -0.041822262 0.013092661 0.054985724 -0.111105576 -0.020897822 0.02169804 -0.07658237 -0.022217628 0.008762427 0.12396008 -0.045684285 0.066226065 -0.0075899772
후 -0.17367096 0.04459115 -0.115931265 0.07142039 -0.03321362 0.116000116 -0.121182546 -0.07898095 0.09446265 -0.09764868 -0.11743295 -0.12464819 0.18193567 -0.08184333 0.09059709 0.10782872
될 0.07412557 0.024355669 0.046258036 -0.045436118 0.039779667 0.024173625 -0.063969 0.041532498 -0.02078772 0.033922333 -0.048441432 -0.038579855 0.08317721 -0.035336297 -0.013098581 -0.021752603
다면 -0.027271273 0.036330044 -0.055751264 -0.099543564 -0.0022596696 -0.016685534 -0.1517954 0.074834004 -0.106554836 -0.020223958 -0.101499744 -0.013145528 -0.01939775 -0.12259862 -0.037560232 0.009221962
뭔가 -0.14202571 0.07024349 -0.023341961 0.0063906345 -0.03687015 0.06888292 0.09758724 0.0667211 -0.082656346 -0.04572531 -0.039665416 -0.07246781 0.016180903 -0.022782844 0.074382186 -0.04311123
그래도 -0.22423507 -0.07009552 -0.055321716 -0.16181673 0.06861468 -0.0070028603 0.10594948 0.22656067 -0.20103478 -0.046109308 -0.039942052 -0.045306455 0.0528677 -0.1072847 -0.07209756 -0.07627394
; -0.113497645 0.105724566 -0.043681465 0.08687612 0.08421146 -0.084747925 -0.14965962 0.023484051 0.042571075 0.016941788 -0.028365439 -0.048203267 0.12112005 -0.0042591467 0.02531766 0.0133684
시리즈 -0.018155696 -0.027187457 0.020376174 -0.058877654 0.025295852 0.023090443 0.053507406 0.027180765 -0.12873007 -0.05860633 0.09199195 0.108185105 -0.092078514 0.014930457 0.011579907 -0.090024896
근데 0.014631919 -0.07109143 0.020060435 -0.03705925 -0.00492468 -0.05792923 0.02667344 -0.076644115 0.002312061 0.04252063 0.08804186 0.15203027 -0.098970115 0.100302346 0.053118028 -0.06548736
작 0.17072734 0.009623293 0.0075117964 -0.14233594 -0.024522737 0.07349011 -0.12542367 -0.054885108 0.030222038 -0.060288955 -0.012023757 0.041654326 -0.03937944 0.03891076 0.011676544 0.048644517
표현 -0.14724718 -0.0656999 0.16462217 0.022063605 -0.08037519 0.05907165 -0.0108517725 0.23326105 -0.1390013 -0.07821575 0.0913184 -0.049280066 -0.02334324 -0.018909167 0.12320424 -0.07942684
모습 -0.11104451 -0.027065793 -0.037875667 -0.16860522 -0.10622057 0.31959784 0.09479521 -0.02838475 0.17360765 -0.11902231 0.02554186 0.06339997 -0.014245535 -0.021325747 0.16870122 -0.11440419
공감 -0.08000727 -0.03779705 0.041886017 0.08182095 0.04251135 0.041649356 0.26158553 0.26636472 -0.03760666 0.054408032 0.119125344 0.071212746 -0.08973408 -0.010072923 0.02733751 -0.14785686
계속 0.14903376 -0.02749718 0.11353046 -0.1535367 -0.052317213 0.08584756 0.30197465 -0.06214616 0.050452698 -0.033835392 0.16713168 0.08868309 -0.14075994 0.2042364 0.015702743 -0.013368877
먹 0.0031746314 0.044946987 -0.047082324 0.04387456 0.17024423 -0.09316983 -0.0030228747 0.04211385 -0.06954565 0.17625633 0.018274859 -0.04661416 0.09059485 -0.016615765 -0.056168243 0.04182778
"" 0.013412255 -0.03394478 -0.07446752 0.059095163 -0.013675435 -0.12284641 -0.0658941 -0.05029102 -0.029284982 -0.017075708 0.052471362 -0.03789966 -0.09492124 -7.962136e-05 0.0068724584 -0.014764037
제목 -0.025903484 -0.06350066 -0.0410909 -0.20298156 0.00023084765 0.19838406 -0.07325969 -0.0008959603 0.06301957 -0.062168226 -0.01976109 0.018140016 0.17993286 -0.06663024 0.10647338 0.016637223
7 -0.07139976 -0.022651145 0.06504543 0.049689423 -0.040143326 -0.13261801 -0.08907346 0.12943618 -0.111136355 -0.02955867 0.0475831 0.024441628 -0.08020296 -0.09788976 0.029364986 -0.20543706
이랑 0.03438565 0.01058264 0.041536804 0.10866081 0.010471946 0.11263757 -0.032722473 0.081523545 0.029760404 0.026547512 -0.035284754 -0.08296178 0.03298985 -0.13450813 0.08239318 0.016310949
극장 -0.015945366 0.01658689 -0.029406026 0.044812925 0.100120336 -0.03548117 -0.029588431 0.08536379 -0.027906071 0.09532899 -0.06651538 -0.026544113 -0.0077065877 -0.07323191 -0.04686319 -0.03448537
치 0.07493226 0.08266826 -0.0039242236 -0.03185235 0.024435638 -0.12423588 -0.027506927 -0.16145477 0.06775597 0.059561905 -0.01674926 -0.023307256 0.11446387 0.015279094 -0.061580755 0.102994815
비 0.030534992 0.07304874 -0.09214842 -0.02161708 -0.056015436 0.04773475 0.02139072 -0.12872405 0.050873138 -0.12452848 -0.04962995 0.027700996 0.061497517 -0.023408912 0.022120453 0.0139214955
이걸 -0.030500509 0.0676856 -0.07210846 0.018031703 0.083192 -0.05661119 0.0748501 0.034775306 0.035418846 0.100035496 -0.0748411 -0.094902724 0.0670253 -0.07383741 -0.082281075 0.025757734
진 -0.12509252 -0.024729913 -0.010102534 0.08661092 0.00067597255 -0.17223328 0.0065581645 -0.01400369 -0.030628812 0.1858903 0.087269396 0.012788572 -0.06255656 0.20458329 -0.057966065 -0.12384845
바 0.113640614 0.14868857 -0.03653812 0.008395109 0.13330609 -0.016629124 0.1511033 -0.006195825 0.08124269 0.1069347 -0.20242004 -0.1284449 0.1670522 -0.1724551 -0.053069502 0.17160553
대사 0.123243414 0.037289992 0.06574827 -0.16066015 0.03806409 0.031146482 0.0567455 -0.107908145 0.074066415 0.04882396 0.070807375 0.033774614 0.088247366 0.013826609 -0.008294703 0.052166954
부분 0.03722864 0.02033906 0.046975892 0.11188918 0.00946171 -0.043422107 0.036136642 0.07835467 -0.065109186 -0.00246721 0.003077425 -0.061082944 0.044268943 -0.039452408 -0.027283037 0.086529024
그렇 0.10063753 0.0752494 -0.123607926 0.08276657 0.053681146 -0.21543333 -0.19300689 -0.28015387 0.04494216 0.041427698 -0.11454797 -0.15845217 0.17769258 -0.116790846 -0.075023875 0.17667069
개봉 0.043164477 0.08007305 -0.036247354 0.0049997754 0.10573999 -0.0924262 0.012747139 -0.012492487 0.02011969 0.06797819 0.035307374 -0.034530677 0.006170664 0.07965987 -0.124397494 0.058229044
0 0.21432364 0.11778315 -0.10363798 -0.05504372 0.16864115 0.05089075 0.47252047 -0.0008892937 0.09258193 0.040357426 -0.12520076 -0.14554487 0.106040776 -0.11658592 -0.08690283 0.19554892
OO -0.051730204 0.064608335 -0.04576818 0.10034592 -0.026096825 -0.07605878 -0.20772712 -0.0043090307 0.0497706 0.02462301 -0.102129675 -0.08491031 -0.015302335 -0.072792396 -0.03469341 0.04305912
대단 -0.0420063 -0.13912173 -0.015630858 -0.1728089 -0.05404753 0.043236677 -0.048530366 0.11054894 -0.14759979 -0.16213217 0.059130996 0.09986902 -0.2548381 0.049589735 -0.02563735 -0.070067294
어디 -0.053618833 0.023752976 0.026963715 -0.105843306 -0.06097219 0.037024107 -0.13536292 -0.075803936 -0.0011761098 -0.13876957 -0.04979198 -0.021900656 0.1035892 -0.035368487 -0.0068569216 0.057237398
작가 -0.06849603 0.060309142 -0.025798185 -0.0791441 -0.02849136 0.05516126 0.1617204 -0.1686482 0.14879735 -0.05110291 -0.050898846 -0.08505325 0.10034313 -0.016183006 -0.07979524 0.07196505
된다 -0.05031831 -0.00842494 0.1433531 -0.06193331 -0.18171036 0.1068027 -0.034608293 -0.016917827 0.11033835 -0.057343 0.18419251 0.2192271 -0.18351968 0.18701503 0.018270822 -0.112405606
아쉽 -0.10702741 -0.0753563 -0.01688213 -0.086023875 -0.08742845 -0.0023099133 -0.33917373 -0.035068307 -0.13700557 -0.26660517 -0.09249137 -0.0403591 -0.036098357 -0.021403458 0.057770338 -0.017395422
기분 0.1792279 -0.033120755 -0.10838746 -0.065907024 -0.011480188 0.056149274 0.1624663 -0.16072471 0.082273364 -0.031860184 -0.11186887 0.066965304 -0.06742489 0.004426668 -0.060229987 0.066137396
제 -0.040572386 -0.068659954 -0.046079688 0.0061993795 0.06277868 0.06785827 -0.10872573 0.048356406 -0.000344399 -0.043161735 0.0065061953 0.08755546 -0.0846653 -0.100099936 0.020192197 -0.1158631
진심 -0.16113502 0.014241993 0.0056522163 0.13342814 0.07243054 0.035960834 -0.037406415 0.12813757 0.03353776 0.10553407 0.021261677 -0.1458725 0.1471396 -0.08841403 0.011491017 -0.028222095
타임 -0.05270562 0.011765317 -0.009410026 0.031486925 0.040593866 0.05125424 -0.19546829 -0.07729491 0.018479746 -0.016506413 0.04065676 0.0240865 0.06014754 0.024193486 0.0031029764 -0.036146168
/ 0.027831897 -0.015060143 -0.0010283196 -0.10330246 -0.040854808 -0.05062489 0.0356714 -0.04852746 -0.029736042 0.022445122 0.020151587 0.05290244 -0.06859455 0.04736722 -0.106703 -0.014736813
웃기 -0.063473836 0.00072875305 -0.044145286 -0.11195454 -0.037242785 0.06551236 0.1963036 -0.10878109 0.104948506 0.018667735 0.044169977 0.14743873 -0.06350735 0.16032232 -0.09017041 -0.15475489
보이 -0.017385801 -0.0056948178 -0.056195084 -0.03042395 0.12292528 0.009947927 0.14414892 0.116946936 -0.033313245 0.05791333 -0.03813419 0.04842237 -0.034492355 0.018931689 -0.00962191 -0.09003068
놓 0.034966312 -0.06565329 -0.005857972 0.15846309 0.061816197 -0.22403742 -0.15456878 -0.18734439 0.04516731 0.10108134 0.012258299 -0.04717855 0.12087264 -0.010888156 -0.020059776 0.06135624
해도 0.12300172 0.023492148 -0.10372524 -0.022669105 0.09710658 -0.025963936 0.11658201 0.23554741 -0.050882388 0.099008776 -0.027504021 0.10397264 -0.099803716 -0.07638453 -0.084199525 0.033037875
이제 0.11040515 0.00057475345 -0.093089014 0.057905182 0.13846172 -0.16718198 0.09300797 -0.07159877 -0.07979699 0.05218381 -0.04285368 -0.11052028 0.030648993 0.015231911 -0.12816176 0.1905845
물 0.09379627 -0.007102552 0.02045856 0.16579954 -0.043576907 0.03271417 -0.019988658 -0.0708601 0.033369258 0.10133012 -0.006742345 -0.027705923 0.024504185 -0.07898046 0.040623523 0.041391514
봐야 -0.082250625 -0.04342869 -0.01072023 0.021193845 -0.12925148 -0.07022449 0.04022921 -0.005724923 -0.08795261 -0.08829692 0.10734558 0.095856786 -0.048051383 0.12895852 -0.046011608 -0.07817009
막장 -0.0037776725 0.10669905 -0.12702084 0.12313775 0.06869669 -0.21771134 -0.13286053 -0.30774915 0.14561294 0.0062870593 -0.116404116 -0.19758072 0.095899455 -0.14377761 -0.1332378 0.13803528
삶 -0.116956174 -0.08333062 0.1530896 -0.121023245 -0.14840297 0.07201097 0.100048296 0.065961055 -0.13389844 -0.15015705 0.13479437 0.18368278 -0.33100808 0.12936091 0.07246406 -0.2369368
친구 -0.104744665 -0.0058830422 -0.10372175 -0.021298323 8.162815e-05 -0.13362645 -0.064907975 0.07149744 -0.1176567 -0.059505206 -0.05452874 -0.05088902 -0.018356876 -0.09097587 -0.015511958 -0.013909393
잔잔 0.07375944 0.00085796666 0.08924363 0.039830964 -0.10163931 0.014596814 0.015085015 -0.03996177 0.03444713 0.09991354 0.08370857 0.07281845 0.08176164 0.08442422 0.15694337 -0.0028735672
조금 -0.054847572 -0.009006768 -0.061543882 -0.20001237 -0.06451737 0.11688834 -0.2550196 -0.11259243 -0.08102506 -0.22895189 -0.065454625 0.014373518 -0.033845272 -0.009605768 0.048656896 -0.03804079
씬 -0.13009909 -0.014778024 -0.05210412 -0.046248686 -0.02863194 0.030432863 0.12860462 0.061714087 0.06498186 0.062601335 0.1075098 0.07472614 -0.10821074 0.08341659 -0.026963951 -0.04688567
딱 -0.090764076 0.11207425 -0.05947686 0.03921124 0.06289153 -0.010454737 0.13766028 0.15827298 0.09416653 0.09720126 0.018934872 -0.031720936 -0.03149031 0.009308363 -0.0184368 -0.10336279
영상 0.0120310625 0.04286846 -0.0055126194 0.038519178 -0.022662355 0.0046049547 0.1651151 -0.122350104 0.08498107 -0.05131606 -0.007854168 -0.0017300103 -0.059260562 0.08116642 -0.049870126 0.020543888
억지 0.2724344 0.013842503 -0.19972476 0.15184836 0.1434124 -0.1465016 -0.12312215 -0.21459444 0.04943486 0.08519945 -0.2609685 -0.13454066 0.2460763 -0.27849096 -0.022687376 0.2615856
찾 -0.17988248 -0.031093316 0.037036084 -0.052356508 -0.08371889 0.0923433 -0.06429893 0.05208241 0.053981937 -0.10561537 0.0069658165 0.11496498 -0.115172304 -0.020793749 -0.003808182 -0.13414024
요즘 -0.089989126 -0.11160706 0.05185725 -0.13529189 -0.114892036 0.08587265 -0.1613487 -0.0695944 0.028109655 -0.10785017 0.073007815 0.18203908 0.0072955536 0.13766746 0.1285547 -0.13381478
같이 -0.15379882 0.017751152 0.11726379 0.12245816 -0.032239765 0.038127825 0.046291616 -0.0010698539 0.101357065 0.08659241 0.09496902 0.015069572 0.026730139 0.029559854 0.048154604 -0.068918735
중간 -0.022360398 0.025786903 -0.076925576 -0.16318135 -0.009296503 -0.11315091 -0.14248131 -0.37903854 0.16095835 -0.04450022 -0.12956603 -0.058255844 0.11203252 -0.059791494 -0.047334403 0.017907616
" -0.011052274 0.08932023 0.06847034 -0.036300603 0.04279215 -0.038685985 0.12563781 0.10354119 -0.070244275 0.009481325 0.11224484 -0.007141492 0.010880532 0.12121246 -0.07997117 0.033350736
구 0.20342706 -0.057287887 0.024438404 -0.1774383 -0.09260156 0.14962222 0.11064901 -0.136656 0.032353085 -0.07721631 0.08854929 0.11754257 -0.0042428724 0.15395737 0.01556217 0.106603995
라도 0.28835058 -4.7988957e-05 0.01821866 0.15441601 0.07778082 -0.14889526 0.022715291 0.058273096 0.0037540318 0.13377379 -0.07860876 0.026711427 -0.04716932 -0.03919316 0.024823263 0.05614277
스릴러 0.10917132 -0.026510658 0.10758401 -0.008653092 0.03251583 0.13525268 0.058633685 0.09077901 0.121223 0.009907177 0.121930614 0.15319064 -0.023161344 0.019369377 0.027305271 0.003132971
가지 0.02440557 0.057726894 -0.03749962 0.030813284 0.009140304 0.12563357 0.14032784 0.12559237 -0.09572308 0.061685845 -0.021430345 0.006432235 0.047857128 -0.060102977 0.026249513 0.05385359
8 -0.1774432 -0.07350866 -0.0034882778 -0.17441808 -0.08163362 0.013279477 -0.03319329 0.19774865 -0.12123564 -0.13822766 0.11952183 0.103721105 -0.036883656 0.06701826 0.012202991 -0.13634107
믿 -0.011187768 -0.045939386 0.043963466 -0.17678268 -0.14448777 0.19547622 0.086680725 -0.15171492 -0.028965253 -0.12608497 0.014178038 0.052763857 0.009081272 0.025972227 0.006893519 -0.0032449067
싫 -0.043105487 0.094841965 -0.2113764 0.025621058 0.17341076 -0.1332295 -0.2417911 -0.0681076 0.08638694 0.00025050377 -0.17274235 -0.072548546 -0.034748815 -0.1145779 -0.14535385 0.031699684
.... 0.13231774 0.108782895 -0.04065516 0.037018303 -0.020941539 -0.025610242 0.1337846 -0.13998397 0.0008028399 0.09481396 -0.03953372 -0.11405351 0.21662429 0.0901544 -0.09106872 0.17214733
나왔 -0.076571055 0.004005028 0.11304437 0.057810403 0.011449831 0.005773503 0.104652084 -0.060454316 0.05303284 0.19217832 0.17378652 -0.027882518 0.020564979 0.13851927 -0.04484578 -0.030347884
아까운 0.35571504 0.053160433 -0.13164024 0.16812985 0.18682076 -0.18633494 0.142645 -0.077518895 0.09818469 0.185876 0.045524046 0.10803966 -0.033757757 0.05722577 -0.28920785 0.09659583
긴장감 -0.15753539 -0.0339321 0.14452565 0.023059335 -0.016943341 0.17505647 0.14308 0.24948603 -0.105464704 0.023591455 0.12403631 0.039009124 -0.04960346 0.013708608 0.030188555 -0.10085824
점수 -0.064982615 -0.0100692 -0.03191053 0.07448075 0.001725324 0.047808427 -0.14492713 0.17543903 0.06904552 -0.04014433 -0.117856994 0.06635568 -0.080544114 -0.14800577 0.08727228 -0.06999379
개인 0.11398668 0.042911228 0.0111176 0.05927573 -0.0069367955 0.101909816 -0.0020499856 0.01670718 0.07171254 0.0053595575 0.010658985 -0.080597214 0.12544055 -0.0717744 0.062669694 0.0512864
제대로 -0.09145152 -0.035281003 -0.006164196 -0.11796898 0.04527672 0.00087089965 0.06959293 0.13166523 -0.08206718 -0.012519006 0.031066908 -0.010208463 -0.08766409 0.016742267 0.030449787 -0.08848998
부족 0.1259167 0.17785834 -0.12988034 0.039444603 0.018042183 -0.14171882 -0.0985166 -0.17888145 0.011343947 -0.016748805 -0.2194708 -0.1651102 0.048589867 -0.108744256 -0.05688732 0.19196235
이유 -0.023959639 0.0009767694 -0.04952044 -0.07247167 0.10545616 0.054288235 -0.014806312 0.020465355 0.04049304 0.043257933 0.016521731 0.027655544 0.0808818 -0.04235329 -0.05331819 0.021924693
노래 0.060619004 -0.069811024 -0.09139756 -0.16988766 0.0677525 0.050379887 -0.05712514 -0.03361339 -0.013408598 -0.054241437 -0.08226195 0.039951157 0.028792325 -0.040740974 0.028479578 0.01729624
만큼 -0.1361273 -0.052346915 0.04025366 0.08764016 -0.1068526 -0.049272884 0.039973423 0.11254447 -0.057373203 -0.028112728 0.12092425 -0.0734322 -0.104580924 0.0005778382 0.030547623 -0.07168103
라면 0.019496301 -0.023618279 0.009595427 -0.13489896 -0.09326498 0.09923613 0.041366603 -0.08356161 0.044334047 -0.009049825 -0.031621717 -0.0014005472 0.12446369 0.037693504 0.009843001 0.02235551
시작 0.009012862 0.050667588 -0.12815914 -0.19668739 0.07301972 0.09748459 -0.028930489 0.015154464 0.0262683 -0.06454637 -0.096252695 -0.006064662 0.0021849698 0.018201169 0.023145454 0.036264516
구나 -0.12859479 0.059642218 -0.04086333 0.008855405 0.10301665 -0.012354748 -0.0044427253 -0.022038702 0.0038118134 0.06204993 0.07043773 -0.13086936 0.14403155 0.11882216 -0.15692823 0.10126576
잇 -0.026958384 -0.020285387 0.023672093 -0.037906673 0.00985208 0.004824006 0.055278886 0.06546722 -0.019734133 0.0075518787 0.08589235 -0.012397753 0.017298361 -0.00423655 0.018464223 -0.022922974
특히 0.08303683 -0.024970727 0.19316609 0.044810604 -0.2320768 0.3031342 0.2594419 -0.07867219 0.08433351 -0.0034528861 0.16996968 0.15042935 0.017848244 0.18405573 0.18734092 -0.06831727
한테 0.21597771 0.020276979 0.007841521 0.15344608 0.0046677915 0.071980834 -0.005887983 -0.004293287 0.036574923 -0.0066085695 -0.09245729 0.022655867 0.037276987 -0.09393144 0.15906279 0.1141211
날 0.12958525 -0.10387615 0.008115486 0.04527919 -0.10339298 -0.07233391 -0.21457249 -0.15479258 0.0018627542 -0.059758823 -0.039826423 0.0831348 0.03233845 -0.10920051 0.083071426 -0.016484529
려고 0.03539452 0.116619155 0.005298109 0.110245295 0.026102383 -0.14299046 -0.053619273 -0.002144371 0.069981106 0.12163946 -0.011310367 -0.113598816 0.05738778 0.028030537 -0.06421191 0.026662176
제일 0.2248679 -0.049697347 0.050851002 0.1887034 0.045066502 -0.011225519 0.012409311 0.07060347 0.040039893 0.103380434 0.034124844 0.11480281 -0.10341141 0.006631309 -0.008566756 0.0028210366
아름다운 -0.09346398 -0.091349415 0.102860585 -0.042460613 -0.011403591 -0.010967283 0.15582687 0.12999617 0.0063036275 -0.0135681 0.22552249 0.25581932 -0.24977358 0.19785671 0.0419591 -0.22061259
시대 -0.07897293 -0.05005018 -0.01190193 -0.056304414 -0.032828398 0.033123035 -0.011054644 0.12770547 0.0003847927 -0.025890995 -0.0039932644 0.004723401 -0.056423906 0.008627378 0.03830402 0.018494505
ㅜㅜ 0.072221726 -0.114766434 -0.052166052 -0.101124756 -0.11020892 0.03142892 0.123887286 -0.14110364 -0.057973072 -0.16319185 -0.06386968 0.014310706 -0.05668582 0.079382434 0.015231059 0.12866394
어떻게 -0.06759216 0.03602259 -0.12274775 -0.06825276 0.022607407 -0.11264508 -0.054369777 0.010357774 0.0047339927 -0.059395872 -0.048355464 -0.06489612 -0.0157502 -0.03074063 -0.06537611 -0.0052984753
엔딩 0.28834412 -0.05427174 0.040586382 -0.12438271 -0.062884785 -0.05613667 0.026707012 -0.14831665 -0.07402113 -0.08465062 -0.059561584 0.019863924 -0.07394295 0.046381 -0.059233367 0.097137466
당시 0.026953252 -0.033441678 -0.027429499 0.07104163 0.027322946 -0.08544341 -0.0691585 -0.06179507 0.034209203 0.095940225 -0.06678843 0.045831017 0.056935687 -0.080758154 0.030335063 -0.0029008696
하지만 -0.041629717 -0.056279134 0.023625148 0.10108083 0.050022103 -0.18555972 -0.23028952 0.113917775 0.03663688 0.05037541 0.024746073 0.14062196 -0.12821165 -0.018321665 0.01557813 -0.16732654
나름 -0.084961765 -0.021166936 0.040587477 0.041403167 -0.08193892 -0.029919233 0.119347356 0.0065290267 -0.057338286 -0.13375482 0.015710432 0.05283945 -0.11744315 0.013894995 0.050062343 0.006939921
봐 0.07504259 0.109778486 0.07169947 -0.023853377 -0.060314234 0.03722372 0.13818592 0.10893613 0.020928485 0.05437136 -0.017807893 0.07965107 0.0057501663 0.023735927 0.03312234 0.11665097
무섭 -0.066353194 -0.009257798 0.034879103 0.09087266 -0.017172242 0.06854982 0.11022869 -0.14778754 0.09603129 0.036048107 0.13877547 0.04836979 -0.1168081 0.051069718 0.021003982 -0.09759299
나온 0.13325788 -0.025198177 0.017637353 -0.20723948 -0.0024532385 0.06235149 -0.034968134 -0.13761939 0.038966384 -0.09014331 0.056425102 0.06346823 -0.039356455 0.13271478 -0.0033255816 0.112296596
명 0.0849479 0.05570405 -0.072052486 0.03604366 0.0911803 0.024744587 -0.09450092 0.050014723 0.023286633 0.039305452 -0.13746555 -0.12537794 0.24884473 -0.18388832 0.024710683 0.08706016
사 -0.17780572 0.027248755 -0.038361855 -0.1021826 -0.02378303 0.042156868 0.015772745 0.014995292 -0.0611231 -0.065442875 0.118841216 0.009700419 -0.09426163 0.15764631 -0.047169585 -0.067493215
니까 -0.38320732 -0.009112063 -0.021452954 -0.05040868 -0.07701618 0.08036037 -0.13299714 0.023550892 0.009031327 -0.15501367 0.011890901 -0.054730866 -0.04130807 -0.0069808736 0.057434812 -0.16649495
오랜만 -0.15359963 -0.086278364 0.1129452 0.0872185 -0.09921843 0.018730408 0.06641029 0.19995333 -0.04476751 0.10510358 0.2067586 0.0718685 -0.06753812 0.10525944 0.09100825 -0.18466124
이것 -0.018024586 -0.019565213 -0.08532185 -0.09473094 0.008427089 0.015407949 0.15385985 -0.1345032 0.0033947066 0.01798645 -0.0061180647 0.00075001747 -0.031118317 0.10515682 -0.10744694 0.037168894
해요 0.0717517 -0.06351824 -0.012174143 -0.12561075 -0.07099865 0.12922195 0.09543756 -0.051263884 0.041057557 -0.18768735 0.04756807 0.083027646 -0.04293842 0.15548703 0.02999203 0.0849094
9 -0.46598274 -0.14584742 0.17268847 -0.10877627 -0.0921037 0.061048213 0.09228171 0.21787558 -0.07802947 -0.027364276 0.27332655 0.09403658 -0.12688813 0.19334029 0.0932185 -0.3412772
팬 -0.024212206 0.057033673 0.009919964 -0.072441764 0.08411102 0.18257251 0.09070036 0.033936936 0.004300471 0.09785638 0.048947006 0.052419927 0.02643083 0.0566582 0.076377325 0.043784466
차라리 0.15785831 0.2596759 -0.37944424 0.17490056 0.33255628 -0.45860392 0.17615344 -0.32544893 0.19156049 0.1798822 -0.36981794 -0.372876 0.20609851 -0.44886696 -0.24948466 0.26688755
절대 0.066660576 0.02453908 -0.021621998 -0.02434615 0.05013314 -0.06303577 -0.058416154 0.04410962 -0.03166282 0.021953972 -0.04696997 -0.07456011 0.14348583 -0.041817725 -0.07606157 0.06861409
세상 -0.030206965 -0.012188992 0.025813654 -0.009639598 -0.13370664 0.1900312 0.036166795 -0.029232575 0.04305214 -0.03295498 0.06873997 0.054183707 0.010075327 0.14561859 0.041744694 0.00604282
세 0.058244497 -0.06277446 0.02478863 -0.073097855 0.004211093 -0.059592728 -0.045263965 -0.0698077 -0.06650398 -0.007652109 0.021800924 0.025703784 -0.024301667 0.0479198 0.0066934926 0.05048409
못하 0.22166629 0.061061244 -0.08321861 0.13354506 -0.05890207 -0.087260984 -0.20749326 -0.291239 -0.06333886 -0.06945825 -0.30136997 -0.2003888 0.30463773 -0.23195025 -0.017457172 0.37509546
의미 0.036789652 -0.03732673 0.068639494 0.047366366 0.000632251 0.09580857 0.12702285 0.049338758 0.03663719 0.044017833 0.058771834 0.023599835 -0.12945865 -0.0058497563 0.015574282 -0.03644978
던데 0.30574623 -0.1035644 -0.032606382 -0.29930314 -0.08268333 0.22764319 -0.01847608 -0.05680935 0.0029679139 -0.19612888 -0.01059036 0.14086352 -0.027335102 0.046068843 0.15020798 0.10193827
봄 0.16236213 -0.003962069 0.081722036 0.024929116 0.08740117 0.10280626 0.1938584 0.05434557 0.090783656 0.20645246 0.064043626 0.14680192 -0.025343318 0.049595673 0.04052365 0.013581994
욕 0.08001869 0.09590168 -0.2641978 0.21245149 0.14349496 -0.28846967 -0.18247005 -0.13585462 0.03766824 0.08254637 -0.19424623 -0.16658777 0.06593931 -0.19089033 -0.10036692 0.060080573
훌륭 -0.11558167 -0.0860017 0.19018959 -0.07489245 -0.050184328 0.17873526 0.1612054 0.13588889 -0.06522033 0.008739716 0.19298157 0.20545849 -0.17849779 0.21392368 0.120223664 -0.1344403
너무나 -0.15820065 0.038060848 0.014289011 0.0006366753 0.020997295 0.052778397 0.13792941 0.012697177 0.10236195 -0.00087277766 0.026515445 0.030804167 -0.1561648 0.029145654 -0.032098074 -0.059348613
강추 -0.12835161 -0.16888867 0.2157525 -0.20066543 -0.19876523 0.24767888 0.12736739 0.08703108 0.010694177 -0.08202575 0.2702604 0.19457448 -0.11344621 0.30242327 0.28137296 -0.16858353
감 0.19423144 0.011424815 -0.00061326846 -0.025263097 0.10741614 0.12553334 0.021177284 0.045400675 0.04170929 0.104333736 -0.027009593 0.11846101 0.013943077 0.0150535125 0.008462392 -0.052611716
됨 -0.05920615 -0.12673752 -0.02370431 -0.24667339 -0.11286969 0.11371734 -0.021887738 -0.0634401 0.04324468 -0.12088387 0.027026653 0.07301302 0.06821643 0.11103006 0.094944485 0.024200648
ㅡ 0.13748749 0.10220297 -0.18222994 -0.089451686 0.21777879 3.7351245e-05 0.20726714 0.018733881 0.03723154 0.010231275 -0.21625222 -0.029965239 0.012790746 -0.07249466 -0.16829357 0.12268129
따뜻 -0.055809215 -0.18590249 0.06111662 -0.20222916 -0.11632596 0.067121096 0.17401478 0.07205988 -0.015613929 0.04288987 0.10887037 0.114852116 0.033955626 0.19214983 0.12476995 -0.07230008
빼 0.034945298 0.15801972 0.0326602 0.18286614 0.2249072 -0.06563101 0.24506828 0.16081215 0.07434066 0.28022602 0.009554821 -0.11788138 0.08193873 -0.058240242 -0.057122994 0.017041132
느끼 0.03755477 -0.10255686 0.10110769 0.06381649 -0.066391416 0.07078753 -0.037372578 0.05057036 0.036919888 0.079199456 0.13927609 0.103047006 0.018201629 0.01739262 0.10423329 -0.08439729
해야 -0.11838198 0.020502765 0.06692567 0.095354795 -0.033471525 -0.11352023 0.0022577243 -0.05300301 0.009937002 0.07564151 0.10502548 -0.08837792 -0.014115501 0.0693318 0.024253318 -0.11708586
드 0.15305263 0.06588523 0.0015068976 -0.101541206 -0.0063996706 0.28552184 0.36365443 -0.05834714 0.083511956 0.001647378 0.028819248 0.0074575255 0.1198855 0.053056523 0.012123282 0.13945733
도대체 0.1432136 0.1614427 -0.22927953 0.051369976 0.22188461 -0.22377123 0.10076075 0.040489443 -0.0032907901 0.1497526 -0.26266828 -0.16589129 0.10524248 -0.16762136 -0.17538527 0.16475315
어야 0.19718294 0.096648656 -0.05900866 0.013519448 0.0073794923 -0.04026511 0.10975544 -0.098063715 0.00062846974 0.07489324 -0.021377115 -0.069581494 0.13405561 0.053104937 -0.08635979 0.16664544
답답 0.164065 0.124580346 -0.11569092 0.13549277 0.12590832 -0.21351568 -0.09432847 -0.2233434 0.025044683 0.14142801 -0.10328517 -0.15466559 -0.022369295 -0.07403202 -0.1433257 0.11507886
마다 0.10146192 0.08527148 0.12066508 0.28350803 -0.07896539 0.048102323 0.28698742 0.2061331 -0.005537196 0.1047925 0.12307858 0.0039979303 0.020507602 -0.02560414 0.090073735 -0.033862893
준다 0.163562 -0.096288756 -0.0989053 -0.27221218 0.10028443 0.13080114 0.014534862 -0.10247688 -0.008554167 -0.14854363 -0.119723625 0.19011219 -0.01928978 -0.0035093797 -0.028307544 0.077333435
글 0.029278291 -0.0006054854 -0.018524144 0.07033437 -0.16482027 0.0020381163 -0.13536452 -0.13817023 0.01611906 -0.018817862 -0.10915011 -0.027099658 0.078111775 -0.018731775 0.053982135 0.031714316
전쟁 0.15809916 -0.03837536 0.024678893 -0.04045676 -0.062484518 0.028828263 -0.13662343 -0.08643089 0.040154725 0.10848394 0.030814232 0.08086071 0.0435651 0.03663146 0.10691242 -0.01587116
놈 -0.07870105 0.024306653 0.050434027 -0.050030522 0.06637684 0.0693285 -0.14657894 0.18411705 -0.09979131 0.00085932575 -0.030623982 -0.18941237 0.099424794 -0.15088445 0.0506527 -0.016652413
설정 0.12592363 0.127422 -0.052676447 -0.018516058 0.22212489 -0.1771702 0.19424146 0.054001637 -0.00071576575 0.20352286 0.007117326 -0.0067141927 -0.13972002 0.13571946 -0.19685651 0.06955532
무엇 -0.032492794 0.005265276 -0.03131028 -0.10001814 -0.09735676 0.075533696 0.15400003 -0.096887775 0.025585268 -0.113743775 -0.029232066 0.0863768 -0.18687125 0.117801376 -0.01093664 -0.047651734
수작 0.06191393 -0.3857075 0.24885179 -0.44617248 -0.34992412 0.32475045 -0.020986544 0.030319761 -0.3266696 -0.32925853 0.26390666 0.35503265 -0.27086106 0.37097374 0.27766556 0.063445695
만화 0.08518117 0.029189631 -0.08034927 -0.05913057 0.1743872 -0.07462318 0.045798883 0.11952988 -0.076466545 0.03629199 -0.088811375 -0.08065109 -0.016620224 -0.040119253 -0.083110325 0.06381127
흥미 0.18288225 -0.04489737 0.15121435 0.1939315 0.10559377 -0.10708278 0.162199 0.1562509 0.025129812 0.32814354 0.15432714 0.03514332 0.119313866 0.08837914 -0.011458092 -0.028536849
그저 0.15323512 0.025712222 -0.0063712057 0.120854944 0.062498555 0.03928306 -0.17417711 -0.22296482 0.15865695 0.007622866 -0.11117518 -0.017682439 0.18132575 -0.04659584 0.056412548 0.061303053
감정 0.104895435 -0.07666102 0.19476454 0.16232109 -0.075118765 0.07852804 0.08510437 0.07964475 -0.019933436 0.11699307 0.12607819 0.010093038 -0.017011333 0.050805826 0.12783691 -0.017815232
미국 -0.14040703 -0.05787281 -0.05346287 -0.0611983 -0.115198545 0.014523064 -0.14949273 0.008651511 -0.0389274 -0.10473228 -0.041821387 0.02140948 -0.05134853 -0.007366475 0.017729728 -0.041015614
신선 -0.26821578 -0.030955449 0.08199093 -0.15403482 -0.09577487 0.15955326 0.17833355 0.06578006 -0.0047627105 -0.0837577 0.19108853 0.15248714 -0.11880387 0.21746789 0.02999999 -0.10145945
행복 -0.40987858 -0.1507015 0.1431254 -0.050815776 -0.11609722 0.12142513 -0.10545708 0.106615566 -0.0475963 -0.17933038 0.15389442 0.132121 -0.09388682 0.065335214 0.1747602 -0.21125409
뻔 0.12681866 0.08631998 -0.023201004 0.10891644 0.07660204 -0.14853579 -0.11202639 -0.023693142 -0.003672609 0.048906423 -0.043469667 -0.08500635 0.013279215 0.018486524 -0.1500477 0.13869415
형 -0.011774375 -0.031976257 0.09553237 -0.1130391 0.070294626 0.1374162 -0.05130388 0.13494064 0.030543763 0.062792055 0.044111315 0.16234581 -0.10713958 -0.00091917434 0.094193056 -0.10647342
앞 0.23197772 -0.036319736 0.09358657 0.13031708 -0.01526439 -0.11129355 0.010895697 0.19061226 -0.1893349 0.009984767 0.07716243 -0.047672644 0.009629083 0.008190012 0.10150903 0.12392285
허접 0.1888583 0.2216707 -0.12118677 0.2177942 0.14660835 -0.38736728 -0.03795979 -0.33617118 0.1347072 0.25434095 -0.1711503 -0.35325563 0.3210525 -0.17981058 -0.20973027 0.28130364
어도 -0.016298093 0.045471136 -0.026717842 -0.059537705 0.09270896 0.13939954 0.0410921 0.09623488 0.032963727 -0.016796784 0.017245615 0.07112929 -0.08072473 -0.0007459625 0.056695253 -0.03796119
군 -0.06570182 0.10633041 -0.058402896 0.08220288 0.038137242 -0.11957502 -0.09829353 -0.055793043 -0.02311707 -0.04004454 0.03924584 -0.10106516 0.05289198 -0.014893189 -0.05293267 0.023668641
시절 0.274849 -0.0052167326 0.13116385 0.009769559 -0.049865603 0.04257158 0.17823915 -0.119886026 0.15012065 0.067870766 0.14536147 0.145316 0.009110116 0.18096524 0.035376683 0.043154966
관객 0.01572029 0.07692122 -0.12293553 -6.0634706e-05 0.07968554 -0.03192636 0.030281022 -0.13275057 0.06138866 0.0068548755 -0.23235522 -0.09474352 0.12791759 -0.14520992 -0.10138976 0.09498858
배경 0.05965072 0.04635108 0.06977005 0.123157375 -0.006319012 0.08863562 -0.07588656 -0.038183 0.070420004 0.044639066 -0.022801185 -0.05086253 0.08957849 0.015615032 0.035380844 0.035556387
6 -0.03516215 -0.050809048 0.041761465 -0.053150482 0.08650256 -0.048772614 -0.07696807 0.10059433 -0.14249606 0.0986092 -0.012877085 -0.042624913 -0.017916936 -0.055124953 0.048645187 0.035362497
초반 0.06825717 0.05737831 -0.09788461 -0.046251524 0.10720194 -0.08106291 -0.1412499 0.045541666 -0.035270095 0.027306452 -0.19307946 -0.14966394 0.16698436 -0.17421907 -0.005242048 0.03906021
사실 -0.20808977 -0.05664235 0.05921817 -0.2021088 -0.04724861 0.045548245 -0.014439473 0.14621052 -0.07319504 -0.16004583 0.03804287 0.06314225 -0.07817806 0.03402802 0.04259227 -0.10914067
웃음 0.080461375 -0.014390254 0.025798291 -0.06176847 -0.027045157 0.049453475 -0.051202167 0.010571739 0.03106757 0.08277643 0.058838997 0.06663707 -0.014414214 0.0654964 0.034992423 -0.012433065
답 -0.023566825 -0.018021632 0.011095277 0.11646548 0.105602644 -0.046430513 0.1322722 0.106642835 0.004249854 0.111891665 0.06390537 0.04277697 -0.0481171 0.020643167 -0.029820608 -0.04385568
엄청 0.11084746 0.077663414 0.00862086 0.2558947 -0.11883101 -0.022424785 0.26097983 -0.17506397 0.115125455 0.13804731 0.103392094 0.047988165 -0.19482034 0.18812238 -0.054158017 0.01048514
더라 0.047341 -0.027127892 -0.008488801 -0.10749881 -0.05503865 -0.07298097 0.04372879 -0.051152695 -0.015401636 -0.09641914 0.07987858 0.2044401 -0.12579955 0.21722648 -0.02206622 -0.0930185
라니 0.13487814 -0.019315591 -0.005203629 0.0006497129 -0.07805333 0.07234274 -0.07043983 -0.12058047 0.0346777 -0.034066524 -0.024863139 0.09822932 -0.048967753 0.048136894 0.07570929 0.011252108
질 0.1814551 0.023453219 -0.09076044 0.031603955 0.18107672 -0.1835739 -0.005048775 -0.11424418 -0.05410155 0.026588585 -0.18671857 0.006844162 0.020745933 -0.06477619 -0.14111333 0.14911208
자신 0.07913981 0.080942124 -0.10630693 -0.027717289 -0.03362303 0.1070203 -0.07711197 -0.16100852 0.03557167 -0.0061196303 -0.14993986 -0.10509191 0.12154939 -0.16844624 0.059316102 0.11921851
추억 0.052787762 -0.06377496 0.11784752 -0.0778952 -0.0896321 0.20629326 0.21589845 0.14575934 -0.10487756 -0.06171753 0.11494597 0.11863014 -0.0068447385 0.1435548 0.14998923 -0.01427053
캐스팅 -0.04867567 0.060027387 -0.07697132 0.008291661 0.07742578 -0.04530966 0.013744823 -0.11322287 0.037391923 0.042599738 -0.045867693 -0.16354209 0.1827259 -0.112111814 -0.03073468 0.028406097
첨 0.017147966 -0.02989496 0.08075017 0.09093668 -0.04102801 -0.14351125 -0.13379124 -0.05966751 0.03956422 -0.017000189 -0.009834182 -0.08095693 0.10408066 -0.0010205993 0.04573485 -0.028599005
멋있 0.13621916 -0.17605604 0.19691883 -0.1451252 -0.15503182 0.09932972 0.13393903 -0.028638879 -0.120098695 -0.022847127 0.1724775 0.24997579 -0.0648566 0.22993863 0.1868485 -0.056040343
류 0.33563328 0.13094042 -0.03530022 0.3124941 0.04276555 -0.06757131 0.17286372 -0.016469467 0.037852127 0.17374009 -0.043625817 -0.043283112 -0.06416523 -0.0867374 -0.10947046 0.13469057
어색 0.34467113 0.21814366 -0.15090662 0.075948805 -0.020637121 -0.17700608 0.079817526 -0.32333687 0.060302217 0.037029784 -0.27721143 -0.30841982 0.19682403 -0.16475236 -0.17146523 0.29688686
시나리오 0.090784125 0.09937712 -0.10228518 -0.04561203 0.25070474 -0.11517558 0.15929833 -0.0354886 0.045587357 0.16982658 -0.06800906 -0.10571183 0.13148709 -0.056872986 -0.16729909 0.06542285
머 0.1736355 0.037069015 -0.0703186 -0.075519584 0.017621825 -0.045362417 -0.10410971 -0.107912 0.11380264 -0.063181326 -0.15268418 -0.054522533 0.06679288 -0.12692244 0.011712442 0.061944995
밖에 -0.16512933 -0.11306391 0.045271046 -0.052656777 0.07775533 0.05922463 0.057322573 0.20526586 -0.10655035 0.009986726 0.1827281 -0.029051775 -0.070304915 0.077116124 -0.08909848 -0.087400556
OOO 0.17985056 0.16497867 -0.1359244 0.13930576 0.18133579 -0.259072 -0.22790742 -0.13250072 0.11688352 0.061729915 -0.2870259 -0.19661288 0.11714182 -0.4546292 -0.11165498 0.08350081
슬프 -0.15205099 -0.10790325 0.07737446 0.022550832 -0.20115145 -0.0035864739 -0.26219442 -0.04302077 -0.09552712 -0.11706211 0.07375756 0.09866613 0.027076654 0.10480387 0.2266361 -0.057002734
정신 0.0022793792 0.047286898 -0.05579336 -0.03219354 0.036940455 0.019319452 0.12486305 -0.002886389 0.10909526 0.0789483 -0.029742517 0.087517545 0.012841866 0.019079758 -0.07283837 0.072453745
분위기 0.06938326 0.030876158 0.025769636 -0.08657379 -0.053862236 0.030839209 0.114797324 -0.13684984 -0.0076016453 -0.042190216 0.028850682 0.022471102 -0.051303737 0.13985786 -0.09134525 0.052956562
소름 -0.23750277 -0.06564599 0.22702192 -0.035928227 -0.11116916 0.1352651 0.011408688 0.20195182 -0.15698354 -0.14706318 0.19905241 0.12274873 -0.19346239 0.016688108 0.20720954 -0.24623671
멋진 -0.033528645 -0.11619823 0.088664435 -0.22893284 -0.15785852 0.09952967 0.06334522 -0.032709368 -0.056460872 -0.1377092 0.075559795 0.20261528 -0.09692607 0.08029967 0.0026400767 -0.12937264
힘들 -0.07511282 0.032173477 -0.09817448 0.037186306 -0.062054876 0.052802008 -0.18338609 -0.21429735 0.122296624 -0.13117644 -0.19009829 -0.14165929 0.20617817 -0.09274948 0.026929734 0.21000306
오늘 -0.05039609 -0.0035151169 -0.06228183 -0.1353688 -0.12751026 -0.11407028 -0.116496 -0.15757446 -0.09721565 -0.20236664 -0.10122383 -0.10061759 0.1680366 -0.10490888 -0.005106725 0.02073459
어이없 0.18106705 0.32463217 -0.18204053 0.3104019 0.1264933 -0.42494753 0.12642513 -0.11904967 0.083479516 0.19958818 -0.22411731 -0.40108046 0.26370224 -0.31032634 -0.24135865 0.33870968
봐서 -0.13443907 0.094592646 0.015073671 0.03863158 -0.024689015 -0.020536957 0.016560927 0.061550036 -0.04175079 0.11850914 0.07811495 -0.052073732 0.07528459 0.0104196835 0.02801083 -0.044089787
잡 0.154231 -0.054560073 0.106960036 0.06673467 -0.028527863 -0.16497204 -0.12045942 0.04235912 -0.08101475 0.11786562 0.061314043 0.012855687 0.063264824 0.0031394665 0.054764505 0.056905665
구성 -0.18684134 -0.029480465 0.043892078 -0.03646408 -0.0017722914 0.0015482068 -0.0034244407 -0.0049769883 -0.05009698 0.03758081 0.028917732 0.0023553146 -0.010800647 0.07584135 -0.06849904 -0.056999236
엄마 0.026105203 -0.005534144 0.13824053 -0.0589404 -0.16150312 0.16466342 0.07239967 0.0070906724 0.010352768 -0.11700368 0.10514649 0.13719633 -0.09062986 0.1478834 0.13474576 -0.028277481
함께 0.08256246 -0.0716994 0.120629475 -0.07680774 -0.035626657 0.04656466 0.059510313 0.06723751 0.014082009 0.0427335 0.09946869 0.15262721 -0.17278174 0.16655093 0.024717031 -0.15340859
문제 -0.0688984 0.14144428 -0.16302772 0.12553166 0.05436694 -0.21856526 -0.08708554 -0.03275951 -0.038014647 0.14613588 -0.18688494 -0.22312921 0.15623787 -0.24170792 -0.08281978 0.08876129
위해 -0.2098587 0.13504216 0.024906568 0.0895082 0.06834776 -0.12070456 0.17352766 0.13957317 -0.023502804 0.14031795 0.04368069 -0.11291689 0.01799814 -0.052782487 -0.056249537 -0.039941818
졸작 0.40187097 0.16936879 -0.34552673 0.22805105 0.09686188 -0.49844354 -0.15256657 -0.48094225 0.1845982 0.07111895 -0.30300108 -0.36624798 0.13639505 -0.22652692 -0.27786246 0.36461607
잊 -0.09637073 -0.11824681 0.0655395 -0.13920322 -0.253185 0.119175546 -0.14200391 -0.18176834 -0.06305007 -0.31173453 0.11312343 0.15612194 -0.19100729 0.1533055 0.14690019 -0.11544159
이딴 0.2773155 0.35413545 -0.30843347 0.39952624 0.2414843 -0.14462695 0.2938984 -0.044606227 0.2375824 0.27266803 -0.4111501 -0.29587248 0.2767202 -0.527312 -0.18726999 0.26499978
등 -0.17833133 -0.061177444 0.09203186 -0.12286613 -0.030657193 0.030006109 0.036078554 0.14887527 -0.19211353 -0.0754135 0.02890407 -0.039899867 -0.06363803 0.02355277 0.009760518 -0.15972295
집 0.0007185148 0.018557327 -0.14093718 -0.04354571 -0.031843543 0.02756589 -0.058175586 -0.08275615 0.024630535 -0.057562232 -0.10073398 -0.036108073 -0.041285776 -0.099035144 0.025928952 -0.01669351
유쾌 -0.44207793 -0.12446396 0.17476474 0.19265929 -0.09401908 -0.07159787 0.040487897 0.3247698 -0.10054059 0.09091255 0.25089315 -0.0569739 0.18094864 0.11156088 0.13037221 -0.16089979
뻔한 0.24729675 0.044384275 -0.040331017 -0.024492769 0.14852923 -0.0009841425 -0.0157664 -0.3359284 0.16588429 0.12358176 -0.029479643 -0.112276666 0.27222958 0.025786992 -0.042216923 0.13662557
킬링 -0.13601568 -0.025581542 0.0059262915 -0.04879256 0.015273246 0.09854671 -0.0432637 0.070739724 -0.06680913 -0.117074914 -0.042787943 -0.043383263 -0.03096184 0.010375153 0.031374026 0.006142156
스러운 0.14726223 -0.006480084 0.04052544 -0.19608949 -0.02023579 0.23836765 0.07744882 -0.017736292 0.051806886 -0.060844522 0.021740524 0.09897841 -0.018388608 -0.009009125 0.098716125 0.064759366
결국 0.17647809 0.01949061 0.07114638 0.007058204 0.031006537 -0.08286104 0.040461365 -0.0014147364 -0.05819574 0.057771 0.0067490186 -0.11905592 0.105028726 -0.006402525 0.00776314 0.07782911
낫 -0.092107095 -0.021997357 0.056402497 -0.016543861 0.13421029 0.08901401 0.053335685 0.1268712 0.045998696 0.023238216 0.054629583 0.09379883 -0.02443355 -0.0070638065 0.056155276 -0.07911151
한데 -0.19839816 0.054276075 0.051485144 0.12137971 0.12561601 -0.11103316 -0.0017001987 0.17530373 -0.06883199 0.08878494 0.11190785 -0.1043962 -0.050516747 -0.033870365 -0.07500948 -0.13509277
나요 0.10264613 -0.124261975 0.013957758 -0.18717764 0.072485894 0.019192576 0.06808714 0.06554012 -0.10205414 -0.12679593 -0.007940532 0.13013689 -0.105309494 0.03456306 -0.03950315 -0.026978765
뭘 -0.073939115 0.10816349 -0.20525375 -0.044246282 0.1939993 -0.013949944 -0.0089327 0.13001822 -0.016014038 -0.02384943 -0.25824672 -0.18234691 0.06295502 -0.19422662 -0.048100226 0.033701144
소리 0.019487264 0.0121803805 -0.01844829 -0.022761915 0.0069720126 0.055929918 -0.0994554 -0.0026933802 0.023586607 -0.15074526 -0.10294101 -0.051743437 0.089371525 -0.19588166 -0.022664098 0.0348016
간 0.11171639 0.035072148 0.045068976 0.16692552 0.16871244 -0.0114055155 -0.0029572772 0.14143445 0.02823487 0.21162035 0.053629696 0.061405413 0.07946849 0.03330179 0.03211711 -0.0010490747
20 -0.054016575 0.061746772 0.012615769 -0.08010406 -0.010274829 0.02250375 0.031251907 0.30073753 -0.2591664 -0.004125403 -0.01962838 -0.119771145 0.099913895 -0.088816896 0.00092618866 0.025098506
역사 0.09852074 -0.04746324 -0.019889342 -0.10109639 -0.023175053 -0.036086835 -0.082869664 -0.024412144 -0.10392235 -0.032203805 0.013942874 0.06896288 0.038099743 0.06457195 -0.013346953 0.054331046
뭔 0.036122646 0.02091909 -0.002451059 -0.016075488 0.06486489 0.08162941 -0.03406235 -0.023928387 0.15779683 0.09623632 0.018452605 -0.10736095 0.27144128 -0.15294455 0.06532077 0.08351188
제발 -0.028899964 0.09541657 -0.14364566 0.028284043 0.09576114 -0.12045234 -0.079245664 -0.02280243 0.0035094903 -0.06163712 -0.22854644 -0.22839046 0.04864704 -0.24824542 -0.08636627 0.0978808
