9996 16
the -0.02866715 -0.017412135 -0.0015373289 -0.0022257753 0.032298606 -0.026509987 -0.015236195 0.03401511 0.012604582 -0.008917273 0.05030392 -0.015964035 0.007653405 -0.036013503 0.012979932 -0.06495161
and 0.001813102 -0.017196788 -0.07410946 0.052392494 -0.019448247 0.01122109 0.032001145 0.004065434 0.04158083 -0.032873116 0.026922086 0.03663315 0.008545534 -0.054251827 -0.06806922 -0.00087876257
a -0.0268595 -0.0003984868 -0.031161709 -0.028000409 -0.00539688 0.023375306 0.008816287 -0.02334929 0.058775134 -0.00025359093 0.0072557786 0.06926016 -0.038750898 -0.03698051 0.023813767 -0.06115294
of -0.015495605 -0.011339545 -0.013965229 -0.077688135 0.055947106 0.0009779832 0.014088092 0.04641961 0.0040724757 0.031560786 0.07781585 0.045654614 -0.008190762 -0.06252704 -0.023535559 0.008671664
to -0.002035893 -0.0015949795 -0.033617415 -0.019063992 0.06459893 -0.01739666 0.004578225 0.027835084 -0.017441386 -0.039008383 0.043752003 0.011849033 -0.0541487 -0.069802664 0.046356857 -0.0572473
is 0.015924955 0.040080097 0.009112806 -0.025363958 -0.030439096 0.042662755 0.07220084 -0.022834867 0.035595015 0.002990793 0.051198065 0.025219003 -0.031079201 0.027924327 -0.014077729 -0.053194977
br 0.025582485 0.046711266 -0.05722152 -0.041192275 0.004847183 0.054118037 0.00019471512 -0.03706288 -0.012568749 -0.0055071707 0.055255305 0.0661571 0.005207977 -0.062250502 0.028784702 0.006146179
in -0.02073458 0.012555304 -0.034650955 0.036560513 0.071320176 0.025645522 -0.023384105 -0.0042936606 -0.0078057027 -0.020354664 0.026283488 -0.017546987 -0.03658372 -0.02113957 0.0313735 -0.04412421
it 0.009099659 0.048408177 -0.047167256 -0.0070717908 0.04902607 0.051060982 -0.008097949 0.0011614435 0.00741909 -0.079494864 0.06992752 0.0351328 0.017845286 -0.057431657 -0.01244623 -0.07395961
i -0.033175588 0.00011166804 -0.0037254551 -0.002363133 0.061682627 0.015604659 0.027063675 0.0017085745 0.035222244 -0.006047191 0.07524088 0.013110782 -0.03130383 -0.015804872 0.032009106 -0.061113905
this -0.023292065 -0.025367124 -0.00011513599 -0.063321546 0.04736744 -0.032536905 -0.020185689 -0.04148956 -0.04264363 -0.06343629 0.06780007 0.016480241 0.012030514 -0.16751139 0.03821737 -0.008861937
that 0.02200231 0.029484155 0.030601537 -0.014476259 0.06623051 -0.01352376 0.013567941 0.0071526007 0.03704978 0.031154776 0.012591379 0.029438194 -0.056615833 -0.123226695 -0.027953796 -0.054101415
was 0.045252178 -0.055336114 -0.039729763 0.014366745 0.015741028 -0.023314763 0.04198175 0.033764824 0.033988245 0.049788248 0.029254405 0.007905412 -0.051718872 -0.029613193 0.035770837 0.021797655
as 0.00057388964 0.0006925866 0.011420277 -0.011313461 0.050989583 0.0057854876 -0.049307216 -0.0166598 0.011156613 0.003609976 0.08566864 0.03978004 -0.05421788 -0.09788944 -0.010370245 -0.019929912
for 0.04183151 0.006591792 0.009823217 -0.05881417 0.015501749 0.03228254 0.02122113 0.04296422 0.026069146 -0.002284335 0.04250984 0.063980326 -0.01071259 -0.082369044 -0.035087265 -0.053906437
with 0.0046392255 0.021906102 -0.036428243 -0.012653451 0.08316182 0.07185207 -0.059444938 0.07357913 0.028046733 -0.004572472 0.035988383 0.07047968 0.011729323 -0.065592214 -0.014942419 -0.023319416
movie -0.032740697 -0.046913907 -0.052024152 -0.057029087 -0.015824175 -0.0013962447 -0.0002748399 -0.018870402 0.031650633 -0.022837557 0.048265625 0.084242776 -0.039792906 -0.10972945 0.043789346 0.03160538
but 0.025515858 -0.00045070818 -0.022104727 -0.012119272 0.0059140204 -0.051036805 -0.019450141 -0.012987239 0.026993215 0.026251482 -0.028394848 -0.041222915 -0.0063053 -0.048699588 -0.04365484 -0.039333433
film 0.012663552 0.033890408 -0.06416339 -0.030314874 -0.04515893 0.03574524 0.050118566 -0.03265434 0.007182827 0.0012569197 0.039238103 -0.025735691 0.052267767 -0.14620431 -0.0309055 -0.054653566
on -0.0032323184 -0.037726518 -0.06560147 -0.0037796074 0.08137764 0.03424144 -0.0027768442 -0.006989204 0.0085949 -0.021122733 0.019096384 0.011410172 -0.009635432 -0.06142923 0.031727307 -0.053844374
not 0.012444047 -0.058283925 0.037000477 -0.046671335 0.04515609 0.0017678188 -0.0598553 0.06186709 -0.022490965 0.03441031 0.028085284 0.030179631 -0.056866385 -0.095791794 0.0002355233 0.06054266
you -0.02528097 0.001026043 -0.05978523 0.0074744257 0.010489379 0.018511998 -0.014350245 -0.04774017 0.02785171 -0.043866456 0.10558712 -0.016235195 -0.006281855 -0.13498096 -0.028054014 -0.07616589
are 0.051089842 -0.03408072 -0.035230756 -0.03531782 -0.008235567 -0.012654455 -0.00828664 0.040168684 0.018375766 0.019859755 0.047593784 0.05225347 0.002127118 -0.047822036 0.024185315 0.022365447
his -0.018776549 0.023138257 -0.09031717 -0.015836963 0.0045521175 -0.033269174 0.08520781 -0.043016978 0.03290683 -0.042834457 0.030291928 -0.050560854 0.047225248 -0.081511825 -0.0579829 -0.005395576
have 0.038070463 -0.025358401 -0.032110438 -0.043810446 0.05630579 -0.0101966 0.007637606 0.039156675 -0.033043317 0.036333457 0.01441641 0.0149105 0.009086755 -0.050793666 0.0038906585 -0.031406965
he -0.042922348 0.044970088 -0.014766335 -0.007303275 0.041548673 -0.023317289 0.041171413 0.025127549 -0.034347326 0.022672592 -0.020139277 -0.015797658 0.028602384 -0.06329452 0.036992203 -0.018927116
be 0.018417774 0.0419705 -0.0074921553 -0.027052842 0.052407414 0.020017391 -0.042680304 0.023202244 0.03007898 -0.011791256 0.051358804 -0.03345127 0.011898119 -0.09029943 0.044446424 -0.01984729
one 0.036477584 0.010509105 -0.0135897 0.02562457 0.07634273 0.0813105 -0.015458227 0.008277068 -0.020717159 -0.026064647 0.07731871 0.0911718 -0.030971503 -0.1116266 -0.05281494 0.031988777
all 0.009977851 0.030203888 -0.03138443 0.054875363 -0.038178876 -0.020367173 0.0027843073 0.01307608 -0.013616011 -0.0059173494 0.056618817 0.0139993215 0.008157308 -0.09249716 -0.031942833 -0.08198106
at 0.0336377 -0.015064632 -0.004668756 -0.05034582 -0.043400906 0.04661184 -0.034856625 -0.016684376 0.017750032 -0.034696788 0.045815025 0.031674787 0.004871816 -0.107240595 0.043819126 -0.028714746
by 0.033477113 0.019307075 -0.017911278 -0.021699479 0.018393058 0.01762998 0.037319563 0.03805089 -0.0069359243 -0.058468163 0.038650412 -0.017500121 0.017795773 -0.107840076 0.028633755 0.011010508
an 0.054274265 0.023100818 -0.008751855 -0.0028416242 0.024873639 0.064722404 0.021733576 -0.026149008 -0.021083744 0.00561989 0.024970697 -0.009243231 0.0461998 -0.07168372 -0.014799833 -0.025932482
they -0.041868977 0.01932295 -0.04420385 -0.05422811 0.03825917 0.0049114428 0.037959974 0.038936876 -0.01121362 -0.021871462 0.072909236 -0.026977828 0.027916068 -0.0776147 0.01238139 -0.007801649
who -0.06609577 0.060880225 -0.0072339196 0.06501792 0.041911256 0.036086474 0.034882214 0.037523326 0.06179902 -0.03557506 0.029669749 -0.045588333 0.00045041295 -0.10955872 -0.030305767 -0.06394592
so -0.014947912 0.017500756 0.031249432 -0.012577766 -0.011745541 -0.023095608 -0.05145925 0.04078627 -0.018688066 0.026107267 0.04979578 0.025816653 -0.043005265 -0.10794207 -0.039326876 0.018156894
from -0.00210921 0.003954492 0.0059882808 0.014262477 0.04982687 0.054371566 -0.03427376 0.0398985 -0.007241144 -0.030846834 0.06793994 0.0077747125 -0.034489375 -0.17940931 0.026475858 0.0007476064
like 0.034687307 -0.03661922 -0.033192575 0.00895273 0.029047891 0.018407833 0.022207582 0.04357842 0.036066763 0.006586573 0.0084469365 0.033198934 -0.008117225 -0.020232473 -0.005124829 -0.0370905
her 0.03212538 0.010810318 -0.025979623 0.012865999 0.009271844 -0.031033859 0.040252145 -0.036159486 0.033653423 0.012660351 0.0045987503 0.019281548 -0.028721495 -0.004490312 -0.034588728 -0.0131457085
or 0.0076905163 -0.019922877 -0.0032261298 -0.043196004 0.051650457 -0.015643852 0.054034583 -0.004746436 0.054695588 -0.01847821 0.011162244 -0.013669993 0.03129877 -0.17064357 -0.0059089693 0.017849011
just 0.04341627 -0.03452054 0.028622339 -0.11507158 0.11160004 0.017435115 -0.011064648 0.030259803 -0.085692815 0.059181023 0.11057355 0.026186887 -0.019924024 -0.025574528 0.058179177 0.06826242
about 0.024471153 -0.009029834 0.007188822 0.014880435 0.02738375 0.010832384 -0.028359894 0.011682314 0.04400629 -0.024733732 0.028549857 -0.022300111 -0.034167882 -0.104882255 -0.032685176 0.009314698
it's -0.024360824 -0.014137863 -0.019107193 0.0025753318 0.07246881 -0.032638405 0.029938297 -0.0049521476 -0.0024667883 -0.046150777 0.03678027 -0.01090944 -0.01232429 -0.098363265 -0.016509432 0.004805602
out -0.012088693 -0.018612646 0.0021128897 0.026533611 -0.041178852 0.07255287 0.036747225 -0.00738136 0.052327137 -0.038831744 0.04076574 0.029125487 -0.029257756 -0.01539498 -0.029070351 -0.019905338
has 0.022688942 -0.029481642 0.030769834 0.044502888 0.03185107 0.007067297 0.012316125 0.0043782364 0.00047691562 0.019452339 0.0010136616 -0.011165478 -0.012542777 -0.035638385 -0.019306192 -0.00412119
if 0.043391217 -0.07275804 0.008118803 0.004879683 0.034261174 -0.029412868 -0.07551087 -0.0044093463 -0.011472326 0.013005682 0.029137535 0.10069085 -0.02602724 -0.06553621 0.021405904 -0.024535736
some -0.013506258 -0.030800281 -0.0073853796 -0.008700273 0.04502578 -0.027525363 -0.032307595 -0.029262792 -0.019463552 0.0046990556 0.009176689 0.042614963 0.010923102 -0.1071387 0.04311564 -0.030352848
there -0.010180312 -0.0145648755 -0.041754335 -0.004590433 -0.026757443 0.051776897 -0.049212173 0.020282587 -0.05113 0.030873487 0.017636005 -0.018660534 0.02750833 -0.07158175 0.03771464 0.005424722
what -0.06998918 0.002745134 0.008462776 0.017876461 -0.01812687 0.0076883147 -0.0058703334 0.010843468 0.013250402 -0.06330221 -0.0056039356 -0.011954809 0.06858893 -0.07146342 -0.0051581347 -0.022267044
good -0.05306906 0.013425906 0.00047335855 -0.008581516 -0.046886906 0.029531548 0.088173024 -0.047096353 -0.0118079325 -0.0293279 -0.056805782 0.032380734 0.07011402 0.025392773 -0.011892116 -0.028285502
more 0.009621359 -0.009903841 0.015160654 0.026373005 -0.05796309 -0.044685878 0.041720666 0.005405588 -0.016661026 -0.020890296 -0.030653236 -0.06576948 -0.0019754337 0.0858112 -0.007241377 -0.004339841
when -0.05844918 0.038390927 0.03185419 0.0426036 0.060389012 -0.0073828725 0.015410502 0.022493165 -0.02138848 -0.020274684 -8.8910965e-05 0.011504527 0.007212591 -0.08983628 -0.006266858 -0.032677848
very 0.00404745 0.061303664 -0.06890541 0.039432026 -0.0278971 0.026208261 0.032291777 0.008180561 0.0014237759 -0.008765444 0.03362388 0.019756991 0.0188344 0.011884308 -0.06694071 0.031616863
up -0.04295566 -0.016600544 0.018816423 0.012134046 0.0146201765 -0.0083672255 0.05821967 0.03138015 0.04554566 0.006985428 -1.6274127e-05 0.015770197 0.024024783 0.0033676163 -0.041212622 0.017662877
no 0.045262173 -0.10838098 0.08108592 -0.04082325 0.06934295 0.09551643 -0.017293414 0.08589259 -0.0975471 0.07578178 0.11853992 0.07327662 -0.072827004 -0.047426753 0.09297438 0.0975868
time -0.020111308 0.04103738 0.021416124 0.0022574337 0.04689576 -0.015148167 -0.030446017 0.026685951 -0.040815935 -0.06677693 0.07410885 0.03581285 -0.005794196 -0.20874542 0.047615975 -0.06589169
she 0.022231806 -0.0021209987 -0.038759448 0.015412069 -0.059301864 -0.044739146 -0.018893983 0.024211816 0.024686169 -0.021300383 -0.06088085 -0.055078056 0.009477202 0.01862561 0.010325249 -0.06481275
even -0.03503483 -0.052024934 0.019846402 -0.034442905 0.028343223 -0.042793114 -0.056584407 0.06143266 0.029519986 0.034880888 0.025297895 0.014544081 -0.061771035 -0.17066589 -0.02389121 -0.013381885
my 0.005174046 0.047956187 -0.0132779 0.011669068 0.015405242 -0.06086178 -0.004703715 -0.0669683 0.010003492 -0.025042957 0.012730496 -0.040428013 -0.009560626 -0.11236299 0.0038375114 -0.002425931
would 0.0066940263 -0.027105637 0.028674163 0.01088261 -0.02540406 -0.043799076 0.011987121 0.039760474 0.01909805 0.04537992 0.05340069 0.031637803 -0.033316147 -0.07831664 0.038190424 0.041764855
which 0.0110183 0.044680044 -0.0372246 0.0136676 -0.055873394 0.030761374 0.08989935 -0.020704765 0.063012384 -0.0068223355 -0.024469206 0.017555296 -0.004324048 -0.020779314 -0.0011842977 -0.030208
only 0.013414042 -0.028227605 0.053480692 -0.08953236 0.094886445 0.018637145 -0.02539117 0.021368321 0.007328496 0.029433904 0.12129325 0.03833354 -0.064229965 -0.13753627 0.0899909 0.005110678
story -0.024992054 -0.009166538 -0.03065856 -0.010480286 0.048405416 -0.0073263017 0.0077865594 0.050808616 0.03295351 0.05413633 -0.013893923 0.05518471 -0.034490515 0.06919979 0.0053939205 0.029005954
really 0.0041347323 0.031517554 -0.0103625 -0.05319685 0.030415053 -0.036269628 0.04511698 0.025827978 -0.0027039298 0.037903897 -0.005512126 -0.0019058298 -0.008056548 -0.091375865 0.0035536548 0.009622125
see -0.023456309 -0.00843135 -0.071806505 0.04952477 0.035109494 0.010538692 0.0024151115 -0.05560884 -0.005955609 -0.060133 0.017482711 0.015310962 0.06714584 -0.1331998 0.015309628 -0.014283921
their -0.034312665 0.0044040773 0.0037305264 0.043179058 0.025335768 -0.006240961 0.037536424 -0.012336803 0.044600263 0.01096092 -0.012858856 -0.013763286 0.014967126 -0.09266806 -0.010892432 0.009105273
had 0.08521814 -0.035947435 0.051443238 -0.007919741 -0.00029035922 -0.033567663 -0.01477804 0.052566197 -0.028185878 0.021088814 0.04689133 0.05835496 0.0055540744 0.050919246 0.0065153698 0.05470802
can -0.006668662 -0.022903623 -0.017472757 -0.009224672 0.050469402 -0.014069552 -0.004856582 0.03195409 -0.02735561 0.007168259 0.03640609 0.07290236 -0.014706793 -0.071417466 -0.03618299 0.01584022
were 0.0017772012 -0.016762992 0.01708628 -0.026029756 -0.03181823 0.003956003 -0.028795747 0.05927914 0.020570096 0.038502783 0.0065546096 0.022057252 -0.045870494 -0.032259647 0.059936002 0.03319258
me 0.013510654 0.027570426 0.00595617 0.014005719 0.063224524 0.02595384 -0.026758902 0.018796762 -0.01351134 -0.04886959 0.014847763 0.024834253 -0.042047177 -0.035257034 -0.042352937 -0.056844663
well -0.06770233 0.034068886 -0.09885334 0.04636162 -0.051681858 -0.060848244 0.0991405 -0.059884407 0.1167741 -0.08255482 0.0016246915 -0.079505384 0.036174294 -0.08979761 -0.09417009 -0.072718576
than 0.03455475 -0.02418912 0.00993913 -0.032937583 0.029799942 -0.024101447 -0.007961929 -0.024590207 0.027264275 -0.027752915 0.0383011 0.02616603 -0.03914757 -0.088316604 -0.021906821 -0.04261096
we -0.038027175 -0.024031758 -0.010074123 0.040334027 -0.041908838 0.059487857 0.05387275 0.03071968 0.021160932 -0.0006296284 -0.03996813 -0.049481332 -0.013530367 0.0023804738 0.023000369 0.0058611613
much -0.012198598 -0.0456622 0.002658991 -0.0043748277 0.026814142 -0.026222672 -0.036238335 0.0062228083 -0.039932787 0.03899914 0.00988388 0.056545626 -0.0038222417 -0.02012588 0.030646464 0.02577109
been 0.010137538 -0.053841766 0.04265867 -0.049096562 0.022154119 -0.010668182 0.042285252 0.03224893 -0.055553455 0.053325307 0.03429444 -0.00094170216 -0.024817562 -0.07233559 -0.020885352 0.022993242
bad 0.11727331 -0.07433931 0.10115095 -0.10354958 0.15387508 0.10276742 -0.1084299 0.08777311 -0.14050886 0.105152585 0.07966851 0.12393094 -0.11960419 -0.079220295 0.14244735 0.11183856
get -0.040227395 0.03931485 -0.03784318 0.026090594 0.032006722 -0.00018628855 0.046056658 0.03626967 -0.027538763 -0.038233228 0.035954162 0.037001494 -0.020343281 -0.067871734 -0.0017616611 -0.021822833
will -0.03984698 0.040540855 -0.018413214 -0.028591147 0.04889468 0.06864898 0.01622366 -0.030936524 -0.017677702 0.0107227685 0.13126697 0.029064232 -0.019188719 -0.15294442 0.05042599 -0.032321263
do 0.009286872 0.03369998 0.013116091 -0.033230904 0.022587296 0.0054261116 -0.001058841 -0.00364861 -0.012693723 -0.004788768 -0.000100649195 0.01249301 -0.03511546 -0.14383921 -0.011874574 -0.015061314
also -0.04381104 -0.002237998 -0.03381849 0.051042143 -0.054257046 0.021407133 0.07361611 -0.04299219 0.08565779 -0.011381591 -0.044952463 -0.009733484 0.08604852 -0.04179943 -0.08159119 -0.079442486
into 0.029104155 -0.026687913 -0.0013621893 -0.010650306 -0.0177457 -0.023065409 0.022778075 0.021247374 -0.00953346 -0.04023913 0.0075992956 0.02706507 0.039205126 -0.11677739 0.010581313 -0.04586434
people 0.04085763 0.020959217 -0.009364168 0.005238029 0.037542857 -0.014876638 0.017885234 0.014168016 0.04656516 -0.0040730056 0.06963785 0.01460043 0.043727912 -0.085396454 -0.020361163 0.0006764154
other 0.0038456346 -0.044184368 -0.059814345 -0.0041082483 0.0043444536 0.035591073 0.015275419 0.011889698 0.020585941 0.019839445 0.009854895 0.016072031 0.0030326312 -0.111327656 0.046912275 0.028196754
first -0.06573206 0.0008699948 -6.061296e-05 0.025873043 0.032455094 -0.047725957 0.029871183 0.0296594 0.047477596 -0.06935581 -0.037998397 0.012794422 0.0068988823 -0.116994135 -0.016489932 0.003830241
great -0.117783554 0.13724831 -0.08695738 0.13377602 -0.106964976 -0.07232094 0.062020592 -0.061053265 0.1311945 -0.062380053 -0.046072517 -0.12940234 0.10259211 -0.07351153 -0.12087932 -0.07765183
because 0.0688349 0.013166003 0.03153586 -0.06118708 -0.038091727 0.02100968 0.015576916 -0.017189639 -0.048620723 -0.00987072 0.0779442 -0.023502761 -0.0373538 -0.033036776 -0.010884121 0.025869098
how 0.011554093 -0.060893845 -0.0033998445 -0.07758335 0.0649338 0.0007986791 0.0016611457 0.04904854 0.025629612 0.050864164 0.02621151 -0.005659458 -0.060524117 -0.03337643 0.04008309 0.0061624963
him 0.005289432 0.025037399 -0.06864757 0.002193031 0.042556047 0.012321125 0.05751169 -0.03803211 0.05685426 -0.045417752 0.0007036384 -0.017356643 -0.018885357 -0.08168023 0.0064692805 -0.054307975
most -0.0759395 0.06922355 -0.106178954 0.040631354 -0.031966385 0.006158845 0.03741615 -0.005315633 0.04489087 -0.044414904 -0.00893148 -0.07609603 0.006943737 -0.10149147 -0.099358305 -0.08945305
don't -0.039208155 -0.03722298 -0.0038752453 -0.004212905 0.07300019 0.018112129 -0.028544644 0.04184296 -0.05095789 -0.03746434 0.044708364 0.0018880621 -0.06348188 -0.16429019 0.0014303364 0.007886905
made 0.04682532 -0.033979222 -0.011612636 -0.0031216447 0.04562052 0.053824935 -0.04434754 -0.026601568 -0.010016509 0.046335984 0.061592583 0.006233851 0.014047945 -0.05715356 -0.0049120695 -0.0045088027
its 0.003723817 -0.031339437 0.013790779 -0.051496297 -0.023149138 0.009318377 0.05844374 -0.040356044 0.038622066 -0.020168735 0.009947939 -0.029744506 0.055593137 -0.032659 0.010501204 -0.05730779
then 0.01542493 0.0068731513 -0.007881715 -0.033234324 0.06960747 0.009986558 0.007790058 0.0015775437 -0.0036472285 0.009837957 0.054106914 0.042461317 -0.06740893 -0.026217185 0.024526833 0.01638974
way -0.009944925 0.00794079 -0.067080416 -0.021206945 0.0107783 0.039367322 -0.0324159 0.053901993 -0.029831056 0.009908905 0.018505348 -0.0038575823 0.0016582088 -0.07370258 -0.00516691 -0.010881677
make 0.0022718732 0.00014500172 0.03097165 -0.027991021 0.043604176 0.009112094 0.030901399 0.041518737 -0.052602436 0.025032569 0.04055665 0.010464887 0.020674635 -0.059966326 0.00023197709 0.02095254
them 0.061153565 0.0065036733 -0.008155382 -0.009501157 0.04161464 0.006276234 0.035311565 0.04010364 -0.006737177 0.053800017 -0.015304378 0.036252152 -0.0016150267 -0.040034104 0.008484589 0.049601994
too 0.0069266 0.019427292 -0.009811793 0.03966919 -0.020098345 0.00036322878 0.05659399 0.022238133 -0.04736306 0.019256158 0.02740009 0.017359203 -0.0009821667 0.016663373 0.012952663 -0.01702333
could -0.000522548 -0.057496462 0.037513934 -0.013969423 0.056192264 0.036886614 -0.012273996 0.07514955 -0.04542705 0.066317275 0.010283954 0.032550994 -0.05271498 -0.0065842196 0.0026749098 0.008620158
any 0.032305285 -0.08172212 -0.0052487208 -0.002967946 -0.0028577507 0.007318021 -0.06416855 0.08638879 0.0016772677 0.002436616 0.08822922 0.067123994 -0.00039490554 0.013101824 0.08773837 0.07219815
movies 0.026999323 0.031678773 -0.056214347 -0.05607047 0.102989316 0.08759524 -0.014827345 0.055984333 0.027325101 -0.05372298 0.06148844 0.0927068 0.018957064 -0.10938985 0.030607363 -0.044613916
after -0.08124717 0.01179873 -0.07220563 0.07696796 -0.032711677 -0.07213203 0.013726289 -0.060838234 0.02815697 -0.00711154 -0.031593155 -0.012736777 0.021708503 -0.04642501 -0.018245228 -0.036281288
think -0.050704915 0.059295367 -0.007568931 0.03972312 0.0136018405 0.00689737 0.00023292573 -0.026178334 0.078443974 -0.06574677 -0.024879443 -0.057637185 0.03620994 -0.04525636 -0.002347814 -0.042635147
characters 0.04379189 0.009382421 0.027365005 -0.06300482 0.09397419 0.035166554 0.016500479 0.010815311 -0.065709226 -0.022333596 0.05896392 0.041739218 -0.007057799 -0.028170401 -0.016758136 -0.01384281
watch -0.04813085 0.024527567 -0.017917482 0.05742168 0.03532662 0.031584814 0.053453654 0.006684532 -0.00084277627 -0.0020142116 0.027192807 -0.02474886 -0.023733255 -0.118078314 0.005946087 -0.08972387
two 0.04935234 -0.071089365 0.011884278 -0.067860775 0.08801323 -0.01617899 -0.02758665 0.059715383 0.032806214 0.011506591 0.055044156 0.011560773 0.0029300696 -0.09202879 0.00831162 0.011777077
films 0.050700355 -0.0020619049 0.04003331 -0.059919626 0.07168978 0.025445668 -0.031068498 0.05438034 -0.03636143 -0.014374764 0.05196776 0.0050939317 0.00020149682 -0.034547746 0.010261966 -0.020700915
character 0.005820884 -0.0105349785 -0.03870987 -0.02306041 -0.0007105634 0.029827556 -0.0042706346 0.002773417 0.043543663 -0.0070245415 0.044182245 -0.029334895 0.012351244 -0.017539956 0.04494327 0.007508298
seen 0.0033551645 0.026267275 -0.090708435 0.03518618 0.02238446 0.00578406 0.028064577 -0.068378836 0.06464083 -0.043655746 -0.0029500092 0.0063675838 -0.019728905 -0.118697666 -0.063689634 -0.044460077
many -0.07694083 0.042498898 -0.040879104 0.050797578 -0.0062575825 0.031446096 0.060879093 0.001017631 0.0720258 -0.04782672 -0.011492226 0.025893813 0.01810661 -0.0865959 -0.06095773 -0.06720405
being -0.03561692 0.005186964 -0.0047606593 -0.010430926 -0.012556155 0.038887158 0.027691795 0.02708237 -0.032522377 -0.04231924 -0.007312322 0.054736853 -0.011339992 -0.04695212 0.0243844 -0.005870565
life -0.07116146 -0.013376723 -0.0058403527 0.00015586967 -0.041104715 -0.05780499 0.057341907 -0.04766303 0.06631031 -0.0872414 -0.040172018 -0.041440476 -0.009000409 -0.055635814 -0.0043578427 -0.07748241
plot 0.04042985 -0.09726881 0.057782385 -0.0489079 0.088184394 0.055249497 -0.030194756 0.013105513 -0.022945305 -0.005120885 0.064622596 0.10013703 -0.02456744 -0.0048364364 0.08660584 0.08538891
never -0.030676018 0.034235023 -0.056305386 0.021034785 0.08005794 0.022041682 -0.07314664 0.0728268 0.007780527 -0.0034007977 0.13070816 0.064595416 0.010320428 -0.11439238 -0.016658733 0.03596825
acting 0.07264109 -0.043824952 0.04906113 -0.11179665 0.02772692 0.07883514 -0.017924182 0.07307045 -0.06521317 0.043629218 0.10050258 0.02610128 -0.055434603 -0.029707305 0.08515295 0.04435916
little 0.00038773246 -0.060400747 0.059046604 0.024180787 -0.094974615 0.013897486 0.043518174 0.0017282192 -0.024723696 0.008635963 0.0009003164 -0.03694423 -0.0415229 0.10239419 -0.015154745 -0.010988327
best -0.09854275 0.023807961 -0.08684998 0.10222382 0.015799467 -0.06876962 0.046077047 -0.08038881 0.08687406 -0.096291184 0.015463349 -0.09995775 0.056152202 -0.042011995 -0.03364306 -0.122432075
love -0.010049175 0.062777296 -0.06344556 0.08229273 -0.05108991 -0.023721552 0.11006929 -0.06630603 0.08650709 -0.017374128 -0.015102469 -0.02324656 0.008068325 0.009354335 -0.054676116 -0.08417043
over -0.010580444 0.024832284 0.0058081653 0.00095957227 0.06635737 0.009339361 -0.005252284 0.027466295 0.034119062 -0.024135679 0.036101118 0.021068 -0.046569906 -0.09508953 0.04929817 -0.009808214
where -0.004946854 -0.038793977 -0.05193514 -0.004795113 0.02748499 0.01977952 -0.010787402 0.030342408 -0.010866191 -0.04480872 0.045617115 0.041493133 0.043979585 -0.07919305 -0.0017618682 0.0052273152
did -0.008541011 -0.056442074 0.035895195 -0.017282054 0.03996917 0.040502325 -0.0021807232 -0.0049307332 -0.021949068 -0.009975304 0.06674184 -0.013272707 -0.055691358 0.050414123 -0.014354113 0.06711803
show 0.0048974026 -0.041885063 0.05977443 -1.2881646e-06 0.04672283 0.09597777 0.012095445 0.001098704 -0.014614556 -0.013330487 0.024470542 0.08387814 -0.02382909 0.0078117233 -0.00742034 0.05361432
know -0.032668322 0.030870596 -0.00646897 0.020298457 -0.000967676 0.008366212 0.033994373 -0.056257118 0.03403074 -0.027524993 -0.038834326 -0.0661743 0.03194509 0.048926663 -0.05265535 -0.033927012
off 0.013043032 -0.035002444 -0.00790051 -0.012065442 -0.008160066 0.0006683209 0.032371253 0.058842506 -0.047510147 0.02134577 0.031843174 0.07759693 -0.029998917 -0.059207823 0.039733745 0.06581166
ever 0.035206262 0.0060753054 0.0018446165 -0.080081105 0.096553445 0.06055195 0.0028587333 0.014248876 -0.0334784 0.026601361 0.06895125 0.01610796 -0.049198467 -0.1394128 0.047619242 0.030445054
does 0.022975406 -0.0035755793 -0.05779686 -0.014645723 0.062540844 -0.04273035 0.0042364234 0.025498722 -0.013175273 0.03350742 0.05004753 -0.04765579 -0.009809988 -0.029494256 0.036771815 0.033673484
better 0.082296416 -0.047347106 0.09113339 -0.03930846 0.067342125 0.0059790905 -0.01587712 0.043802533 -0.06680979 0.073719926 0.0656567 0.11195525 -0.04029384 -0.09153601 0.081336044 0.0043494534
your -0.029140333 0.021312254 -9.27668e-05 -0.052898787 0.103903756 -0.01117171 0.015909577 0.0572907 0.005692047 -0.0546119 0.034453012 0.078808255 -0.014877742 -0.20267184 0.016072335 0.0039351955
end -0.050153065 -0.03209376 -0.04894796 0.01549597 -0.037661098 -0.011677204 0.043709826 -0.042234562 0.038699687 -0.010676324 -0.028444432 -0.01993646 -0.02459566 0.019828578 0.013501694 -0.039574344
still -0.057314 0.0360118 -0.042989705 0.043600425 -0.03239284 -0.0570001 0.0429585 -0.02327839 0.028871687 -0.013691592 0.026572179 -0.017345548 0.024281835 -0.049898755 -0.06640489 -0.004575334
man -0.007779085 0.08450787 0.0072559593 0.040985003 0.000789298 0.020895444 0.029046617 0.008531652 -0.011429016 -0.022406073 -0.0014500746 0.0068742237 0.01690426 -0.11967235 -0.0070257904 -0.05397938
here 0.057635084 -0.09308142 -0.0072701946 -0.084803134 0.06326658 0.03349708 -0.02094181 0.075975396 0.0066941334 0.00845103 0.037061114 0.003998822 -0.043367602 -0.14192635 0.025628362 -0.0025154403
these -0.022752838 -0.008148516 -0.043206647 -0.031081699 0.05489299 -0.019846663 0.028103214 0.011911188 0.01807094 0.016594715 0.032202974 0.053290572 0.028482353 -0.08441795 -0.03685724 -0.029857261
say 0.032233804 0.026430639 -0.034850225 0.01988272 -0.0016159968 0.042429313 -0.06476801 0.03699262 0.016458675 0.027891427 -0.016008213 0.018500146 -0.0656788 -0.06836895 0.05072013 -0.017367993
scene -0.05663916 0.03757076 -0.0635004 0.06730931 -0.013530329 0.023777153 0.026505098 0.011649023 0.06407086 -0.090656616 -0.055624053 -0.01639739 0.012607127 -0.04921577 -0.0074377535 -0.03745974
while -0.026639437 0.034000475 -0.0800266 0.026260806 0.015139346 0.01087952 0.042401314 -0.023178536 -0.0017232384 -0.0010148901 -0.008292428 0.014945532 0.014984888 -0.11361879 -0.01062384 -0.07692965
why 0.087379135 -0.06499305 0.06359166 -0.0715129 0.064888604 0.06568855 -0.030691743 0.023783835 -0.023704492 0.06348127 0.06428935 0.032082427 -0.06501904 -0.00076776923 0.020932015 0.033705935
scenes 0.06400409 -0.08731379 0.0981978 -0.025726864 0.01894009 0.014720527 -0.08843091 0.02734203 -0.0939707 0.023512492 0.020705126 0.04345667 -0.0604739 0.04335209 0.013409737 0.093555965
go 0.018081386 -0.024893476 0.022494713 -0.0022102909 0.12891486 0.099058926 -0.02157054 0.05021671 -0.010800287 -0.006827828 0.093070425 0.083890304 0.016174769 -0.10081936 -0.012618405 -0.02501914
such 0.004451287 -0.03060431 -0.012357787 0.023748297 0.024257293 0.022273585 0.017802726 0.035246488 -0.020645175 -0.004280744 0.025262775 0.029772667 0.012545202 -0.025750078 0.06692424 0.048777327
something -0.037050795 -0.033959284 0.01641257 -0.058999132 0.08697561 -0.0101539 -0.032547474 0.020488154 0.012210046 0.01919888 0.030851988 0.031450883 -0.05381778 -0.15132351 0.026855038 0.028066782
through 0.038521457 -0.09859934 0.0386567 -0.022507938 0.011156797 0.005221767 -0.08941066 0.05517506 -0.04970578 0.084234916 0.09678672 0.030791745 -0.05684611 -0.040155463 0.059174452 0.07221959
should 0.03862284 0.01803533 0.0061062905 -0.027578948 0.0035216461 0.06337663 -0.031697296 0.056554776 0.018264623 -0.013741516 0.0012277688 -0.020761358 -0.016806776 -0.09110311 -0.0057136333 -0.029737629
back -0.049890395 0.018470949 0.03464027 0.02525947 0.11071596 -0.044132374 -0.057389297 0.07779407 0.011757178 -0.068596475 0.118962966 0.09003748 -0.023676183 -0.23496774 -0.00866984 0.03202806
i'm 0.05235598 -0.044707824 -0.0055051087 -0.058264304 0.11270133 0.00822215 -0.013913188 0.014683544 -0.06864783 0.029569363 0.06747462 0.077508144 -0.06153433 -0.08250954 0.06497636 -0.0033892295
real 0.0035508857 -0.032062966 -0.010822552 -0.014345155 0.020285329 0.043869592 -0.0070069702 0.0077495594 -0.0069226264 0.014981364 0.0030529716 0.043126043 -0.027086599 0.018195085 0.01565642 0.03683895
those -0.0010419724 -0.014487791 -0.06290663 -0.0023908888 0.05987373 0.039144196 0.01134003 0.0089632645 -0.00017515887 0.009279659 0.03625512 0.04996875 -0.042841244 -0.06046454 0.031262495 0.0037361232
watching 0.051624134 0.021761425 -0.017275244 -0.0028028984 0.089459 0.06620173 0.016310323 -0.01462164 -0.006453441 -0.033609055 0.10548028 0.0767274 0.00015606085 -0.100164995 0.013124072 0.010340494
now -0.0649544 0.087602556 -0.023366606 0.02752698 -0.02153145 -0.033697926 0.028923249 -0.023383927 0.028545652 -0.09325911 -0.011526142 0.007951233 0.07462006 -0.077659704 -0.021784946 -0.010635435
though 0.00989505 0.06996429 -0.031393774 0.033689592 -0.077704415 0.008072092 0.053864546 -0.006613739 0.02590556 -0.057632986 -0.04189354 -0.075872555 0.03284372 -0.04472215 -0.048568625 -0.023301277
doesn't 0.040042017 -0.094866976 0.061851148 -0.03347861 0.039073605 0.060400937 -0.09697867 0.10041169 -0.081699 0.1033251 0.013515295 0.052826725 -0.06028323 0.042056516 0.01417741 0.022064054
years 0.07752849 -0.024933705 0.0029208814 -0.036814895 0.07461081 0.022900602 0.002723028 -0.009158788 -0.07609157 0.02353179 0.016988486 0.09450754 -0.020343235 0.007301958 0.016628182 -0.012745391
old -0.04291976 -0.021701388 -0.04292537 0.018869005 0.060440306 0.042133123 0.03040162 -0.017625036 0.07187273 -0.02020893 0.043058753 0.04147324 0.049039558 -0.06405666 -0.04980251 0.017087791
thing 0.10009265 -0.05517435 0.056358714 -0.010781619 0.088483065 0.0117787905 -0.019059518 0.029899364 -0.014568938 0.07645265 0.03729095 0.051398188 -0.09908025 0.098373905 0.013148822 0.05302715
actors -0.0027190638 0.006861568 0.011816507 0.001505194 0.041001618 -0.0039765257 -0.025647433 0.040316433 -0.010937887 0.038552247 0.023735901 0.09227338 -0.08670266 -0.11243804 0.07030763 0.062268674
work 0.0076968777 0.0078914035 -0.02918311 0.0015722548 0.053638224 0.03908418 0.059496917 -0.032123122 0.028658325 -0.0002819601 0.049396083 0.010219908 0.040163822 -0.08359906 -0.040132202 -0.07369408
10 -0.1152883 0.069171056 -0.050099943 0.1140531 0.007166997 0.22515862 -0.039057415 0.01297372 0.037221238 -0.16678345 0.105518684 0.06466772 0.052329004 -0.31645477 -0.059191585 -0.13594791
before -0.051860496 0.03403179 -0.040292036 0.031203348 0.020695478 -0.027816765 -0.035820138 0.0047257016 0.01477526 -0.020950526 0.087866664 0.04908041 0.012436719 -0.06949006 0.03884889 0.023191303
another 0.042761985 -0.038802303 0.045456573 -0.083588034 0.099283405 0.0013109779 -0.065492675 0.079979345 -0.0023948657 -0.012960261 0.051191542 0.06321429 -0.015056422 -0.11665011 -0.008466846 -0.012300317
didn't 0.028124886 -0.085347146 0.025333561 -0.046244927 0.023131603 0.033875514 -0.031027088 0.09348391 -0.075309366 0.100470275 0.08755614 0.11616056 -0.081952654 -0.064171344 0.10546932 0.106945746
new -0.06813868 0.084671356 0.0027525981 0.040229015 -0.0048295353 0.0037605132 0.011182378 -0.03825789 0.039747782 0.0043568895 -0.06802795 -0.054067522 0.056881856 -0.03276621 -0.042522352 -0.051755577
funny -0.036218874 -0.020042034 -0.0014079806 -0.004228212 -0.008297322 0.050022736 -0.03321667 0.024656404 0.026770307 -0.061900273 0.02047944 0.042209554 0.018214647 -0.0010728702 0.00039563744 -0.011426694
nothing 0.14333792 -0.07366388 0.119163215 -0.08113274 0.11289282 0.113194115 -0.06531152 0.13665444 -0.12130846 0.13687108 0.09038773 0.06939236 -0.13420561 -0.035443403 0.08576335 0.09622009
actually 0.0067734225 0.0069634267 -0.01943535 -0.0062019266 0.02766672 -0.035055272 0.016535513 0.034038812 -0.036794163 -0.04804406 0.016316468 0.02104951 -0.0024238531 -0.1499283 -0.02934806 0.022582624
makes -0.01687021 0.014939354 -0.0068466114 0.008420495 -0.010310576 0.011478741 0.061583336 -0.0643065 0.054610606 -0.011131299 0.012685853 -0.0004223376 0.07009556 -0.041112117 -0.04695902 -0.031207196
director 0.089210235 -0.06268976 0.034170832 -0.077679425 0.07259854 0.018096654 -0.06334372 0.07110458 -0.075062945 0.043766897 0.08099127 0.07063267 -0.0050168694 0.00120743 0.035317503 0.07799152
look -0.042910624 -0.01721276 -0.00068727165 -0.049596798 -0.02861236 0.036284093 0.023962572 0.024201293 0.03959971 -0.0047242744 -0.005570677 0.049373075 -0.039071966 0.047302783 -0.017720059 -0.04670947
find -0.046229556 0.048077166 -0.037081983 -0.015724763 -0.005246148 0.033339154 0.042731736 0.0061823903 0.07365601 -0.024550188 -0.007858173 -0.026829446 0.051267635 -0.09902628 -0.027933532 -0.08593749
going 0.018542506 0.005373928 0.033011984 0.019580921 0.045620423 0.015858496 -0.031825468 0.045286752 -0.011919063 -0.034999955 0.010398678 -0.04312582 -0.024226233 -0.087132566 0.037543073 0.028404964
few -0.04639942 0.018057976 -0.024403138 -0.021280255 -0.061734498 -0.030901158 -0.0018033216 0.013612438 -0.029000437 -0.010832501 -0.036696386 -0.042401485 0.03362263 0.026040861 -0.035605468 0.012179748
same -0.035535574 0.021303732 0.033177376 0.024519974 0.039408244 0.038781684 -0.028209774 0.039281 -0.0029171763 -0.00094167434 -0.028780814 -0.027483629 0.012533929 -0.062366765 -0.024960116 -0.022453059
part -0.0056791613 0.0068304148 0.029757176 -0.038789865 0.072796814 -0.015474043 -0.033880476 -0.007950192 -0.009800562 0.047554184 0.01183376 -0.006534693 -0.038483102 -0.0277052 0.020598883 -0.0030232475
again 0.030339109 -0.0396141 0.0059300745 0.04256238 0.0007681995 0.046754908 -0.060157016 0.056000575 0.0036304386 -0.019979378 0.06898632 0.022255631 -0.040370755 -0.052067615 0.03278615 -0.030818231
every 0.0024927657 0.0046133576 0.04083764 -0.004126443 -0.0124368705 0.057456724 0.013572794 -0.031578697 -0.007294873 0.04847764 0.05843465 0.0038130367 -0.015821842 -0.037856482 0.049489934 -0.038961787
lot 0.023758594 0.021487663 -0.04576971 0.022743717 -0.042376194 0.010497664 0.06323354 -0.06521987 -0.0050699306 -0.052363764 0.019567199 -0.05117345 0.0534669 0.00037193325 0.02589697 -0.04903076
cast 0.013684468 0.027229376 0.0070554456 0.05278932 -0.043547522 -0.022315914 0.0034423177 0.023546338 0.05198517 0.009038892 0.01338563 -0.03833093 0.023884535 -0.02845788 0.0071619516 -0.03825882
us 0.0027129313 0.043734122 -0.03284085 0.046845436 0.04219057 -0.033579104 0.019932952 0.02625984 0.0055652075 -0.056832366 0.043256607 -0.0055651893 -0.03205751 -0.07591081 -0.056621283 0.022827886
quite -0.05596881 0.0032067348 -0.045726366 0.04733554 -0.037378363 0.03178466 0.0019523941 -0.0761209 0.014218862 -0.07141226 -0.044925015 -0.023008734 0.06534932 -0.09020264 -0.0027349207 -0.013705077
down 0.01167301 0.04124291 -0.028298635 -0.013409011 0.03948743 -0.024854297 0.043865778 -0.0051166257 -0.011419121 0.006470672 0.068320654 0.062904485 -0.035173323 -0.050871305 0.042697012 0.046123177
want -0.013415601 0.03035868 0.007348595 -0.053059593 0.04168757 0.011326927 -0.03510415 -0.010843233 -0.0421898 0.017579393 0.0019876638 0.07198875 -0.07502006 -0.017178273 0.035364967 -0.03395349
world 0.008775889 -0.0019888408 0.014179047 0.0008491083 -0.008192385 -0.043149967 0.033569943 0.007852902 -0.011522557 -0.043176398 0.03258912 -0.033172153 0.047804866 0.0101743825 -0.028535377 -0.042814523
things -0.0023710409 -0.018040635 -0.013441865 -0.01719995 -0.006139191 -0.0346469 0.022445183 -0.028409539 0.07426656 -0.011809893 0.02153014 0.0019960012 -0.009297645 -0.060576536 0.013734168 -0.07779885
pretty -0.045889433 0.03616041 -0.029739259 -0.0004377523 0.020042837 -0.003799207 -0.038188294 -0.046701282 0.022565464 0.020270815 0.007862532 0.040867437 -0.011058269 -0.09400309 -0.031374503 0.03971164
young 0.0470563 0.03504087 -0.029776562 -0.030105207 0.020842772 -0.014451639 0.05939378 -0.049957227 0.009572349 -0.03796588 -0.03151236 -0.016650463 -0.035457727 0.09772795 -0.023113364 -0.016766937
seems 0.011889556 -0.0067438507 0.086187065 -0.0004934114 0.019167908 0.025182521 -0.04310502 0.005865991 -0.006914387 0.06893359 0.04638584 0.08718009 -0.06034878 0.039718993 0.08778985 0.07354146
around -0.0069206352 -0.03814183 0.034547895 0.035163585 0.04082363 -0.02215446 0.03591426 -0.020876916 -0.041788526 0.011213247 0.05777694 0.029992808 0.035532165 -0.023881773 0.020195246 0.034300853
got 0.011270098 0.023966039 0.0018693724 -0.002545044 -0.04165945 0.010571966 0.011203153 0.0008854892 0.03248898 0.00028065522 -0.05794192 0.014999944 0.0109897405 -0.055639297 -0.012333267 -0.049452577
horror 0.09418955 -0.030861154 0.049344666 -0.075528435 -0.005167431 0.060416844 -0.08049961 0.03376747 -0.029293409 0.1004601 0.04921446 0.015801722 0.0035885584 0.06376371 0.026062867 0.10023869
however 0.07092428 -0.03747231 0.019721802 0.029054202 -0.03997914 -0.024396496 0.029503725 -0.025753243 0.028332643 0.047534004 -0.011023486 0.0057992362 -0.04161086 0.13285366 0.025439035 -0.010344921
can't 0.022186095 -0.0616682 0.026880343 -0.0031057966 0.046669282 0.012099514 -0.0009187864 0.06068955 0.0022952617 -0.017858762 0.1012124 0.071763575 -0.025010914 -0.12658991 0.016763126 -0.0049551674
fact 0.0210739 0.018988898 -0.03702949 0.044908483 -0.0073121553 -0.009928592 -0.013336675 -0.016651653 -0.015446986 -0.05912721 -0.010259141 -0.0008758644 -0.01681523 -0.047995947 -0.01578255 0.029513625
take -0.00075929484 0.042311672 -0.044366803 0.03512362 0.04033903 -0.041051123 0.04394378 -0.041130032 0.0075362474 -0.0044179843 0.061866984 -0.038491365 0.0055482783 -0.07300024 0.018532671 -0.048281405
big 0.022051701 0.018877152 -0.026587827 0.017009994 -0.001337404 -0.015905783 0.028513495 -0.04184452 0.031676024 0.03876531 0.0008575761 -0.014305126 0.039864015 -0.0359118 -0.021075886 -0.027543046
enough 0.07115139 -0.09071601 0.09754657 -0.060112037 0.041637342 0.11448354 0.010577781 0.058496945 -0.07727142 0.11830028 -0.0002574639 0.016146269 -0.034198653 0.07037887 0.09916883 0.053048614
long 0.0821325 0.0011003278 -0.0101690795 -0.092501916 0.07754796 0.108584106 -0.022290388 0.0226589 -0.011732666 0.048745 0.066534765 0.057620425 -0.057106175 -0.008076252 0.029233336 0.028029973
thought -0.01145548 0.026560962 0.022401046 -0.0001994845 0.03946764 0.023950147 -0.028959591 -0.0005570246 0.017237162 -0.038311053 0.044604823 -0.011648121 -0.017641399 0.018672716 -0.0076803155 0.028714456
that's -0.044894427 -0.01445079 -0.001520141 0.014278779 0.00041103622 -0.004466418 0.006632234 0.005872177 0.054767665 -0.040832393 -0.02428466 -0.013755773 -0.028226709 -0.046638872 -0.00056759315 -0.0610516
both -0.03328671 0.069266655 -0.014412191 0.0038931286 -0.06528946 0.0047138673 0.005318019 -0.057235103 0.059594974 -0.071881406 -0.0136295315 -0.04068088 0.057206642 -0.051049646 -0.071175896 -0.03728534
between -0.059440926 -0.017433897 -0.07912981 0.0423372 -0.0123017905 -0.06263329 0.048220273 -0.068150125 0.046015687 0.009421886 -0.007253109 -0.07596386 0.062389668 -0.0189789 -0.020469178 -0.048667733
series -0.068112604 0.06876855 -0.034603175 0.021003833 -0.038432743 0.008394391 -0.011684075 -0.049826708 0.085321605 -0.03875369 -0.026899543 -0.061771493 0.060272817 -0.11343641 -0.03847266 0.004546669
give 0.018325644 -0.03672814 -0.020250386 -0.0009902635 0.10199592 -0.011146713 -0.03847627 -0.04017444 -0.009527584 0.01722635 0.059333738 0.03553379 0.038902212 -0.10224166 -0.007460436 -0.056187082
may -0.05910741 0.03834396 -0.08046806 0.031163039 0.009952486 -0.0077905348 0.05171742 0.019609192 0.076630265 -0.03445875 0.050263785 -0.020119634 0.05627044 -0.063554436 0.0082466975 -0.042694546
original 0.056891013 -0.0048394403 0.08612656 -0.096601054 0.051314607 0.088779286 -0.021376576 0.10173543 -0.015490189 0.0007721823 0.115649395 0.11294123 -0.097684145 -0.036618263 0.016252808 0.023340989
own -0.013228665 0.034332488 -0.033398304 -0.019162947 -0.011664028 -0.045645345 -0.0016701372 0.015112983 0.012993429 -0.041821677 -0.009784174 -0.0098515665 0.06504494 -0.063701786 0.011028422 -0.03900571
action 0.044240464 0.011759508 -0.013457881 0.048721656 0.008812068 -0.010988562 0.03310837 -0.034229714 0.047732025 -0.007915637 -0.0178721 0.051178288 0.04352853 0.015415188 -0.010961407 0.032290623
i've 0.03576659 -0.086128876 0.05280967 -0.061370917 0.006927652 0.018910345 -0.07905659 -0.011773789 -0.049434993 0.061167564 0.041316323 0.040054455 0.008319872 -0.022336407 0.0011756286 0.081163794
right -0.021032155 0.039730527 -0.07570626 0.041424673 -0.0047816196 0.014536011 0.008054382 -0.051468976 0.0016548028 0.011598253 0.017157901 -0.022483813 0.052517496 -0.04183756 -0.028107528 -0.06522513
without -0.026951358 -0.0106200995 0.01136581 0.01589067 0.06434398 -0.03696219 -0.02982949 0.04855619 0.0090129655 -0.05094423 0.051895548 -0.004067224 0.0062244846 -0.06131674 -0.008560645 0.003854349
always 0.061029095 -0.0059347674 -0.037277322 0.009706561 0.018219735 0.05457136 -0.011682016 -0.040762477 0.039430294 0.058877647 0.035204433 -0.004500875 0.04001059 0.067375496 -0.0072407443 0.03083571
times -0.01766416 0.01757539 -0.08108854 -0.007352861 -0.06642723 -0.014332536 0.08290755 -0.09135601 0.046688594 0.012362084 -0.030944474 -0.07758819 0.01834811 0.06323797 -0.075879 -0.060149554
comedy 0.017148403 -0.027961288 0.05150046 -0.018201968 0.032921083 0.08181212 0.01304245 0.026518082 -0.006255331 -0.02744613 -0.0010313394 0.0688384 0.016603008 0.0022415142 0.033075526 -0.0045522633
point 0.09841672 -0.04749207 0.015057083 -0.06435405 0.07982801 0.070685744 -0.03440076 0.08625866 -0.017324636 0.07098726 0.07522288 0.08009481 -0.034620326 -0.06324086 0.08885718 0.02658908
gets -0.01284532 0.05782099 0.0110814385 -0.017014628 -0.0006760116 -0.004302536 -0.01228027 0.01096163 -0.03065363 0.026043426 -0.010145964 0.0026296133 0.04553317 -0.05940595 0.0053749057 0.030237481
must -0.058478642 0.053066086 -0.10011732 0.100583486 -0.076291785 -0.009616794 0.0757375 -0.078119166 0.019895785 -0.08370383 -0.06634716 -0.08947534 0.055249933 -0.008315338 -0.01918283 -0.037520584
come -0.023297645 -0.051435094 -0.0031043382 0.04197715 0.023372034 0.022219013 -0.050636273 -0.04246458 0.022416824 -0.0030813757 0.03415566 0.012970938 -0.03959269 -0.0017554044 -0.047757614 -0.02001538
role -0.0012316951 0.042368732 -0.036190428 -0.040006146 -0.056078687 0.05549886 0.0025987271 0.027222795 -0.016487258 0.028879466 0.027061941 0.030046301 -0.00836573 -0.008716259 -0.025382616 0.008587365
isn't 0.03779557 -0.04215152 -0.0061830115 -0.021046218 0.028209457 0.022578973 -0.0009748186 0.07169285 0.013446516 0.01905609 0.108950965 0.061156992 -0.009228462 -0.05683297 0.03596901 -0.001886913
saw -0.009404778 0.008873095 -0.004937754 -0.02047752 0.016314616 -0.024831643 -0.008143973 0.067799404 -0.0056333216 0.08523408 0.009224513 0.03835236 0.0026663733 0.00390948 0.004955636 0.05962119
almost 0.059274737 -0.04305298 0.02453231 0.042603146 -0.058772773 0.028257277 0.02986898 -0.0011114926 0.00820549 -0.016593691 -0.04888603 -0.0440875 0.018955778 0.0071368106 -0.04526918 -0.0060944036
interesting 0.11201577 -0.062408954 0.07997933 -0.03803744 -0.023824634 0.06336479 -0.02753107 0.00028427385 -0.015105228 0.080576085 0.08405478 0.0878795 -0.07165747 -0.0083144335 0.08812646 0.090513304
least 0.08197241 -0.00055789074 0.080605805 -0.033191804 0.01897299 0.05054522 -0.041236922 0.016323201 0.0010512348 -0.0044856905 0.03932048 -0.017767707 -0.046929546 0.03570145 0.039354276 0.08560132
family -0.07228392 0.047403313 -0.08465412 0.08466727 -0.07653431 -0.069258496 0.057353932 -0.013064238 0.044359423 -0.072885044 -0.031599775 -0.051360477 0.092768535 -0.051589157 -0.09805436 -0.094666444
done -0.012452066 0.0015493915 -0.050347492 -0.034946553 0.055127863 0.044005737 0.01894585 -0.024738092 -0.0069424957 -0.033600986 0.049277477 0.030932128 0.016169652 -0.06624788 0.037769537 0.040922664
there's 0.05180391 -0.06268731 -0.043467656 0.014809331 0.079625644 -0.018782308 -0.05198005 -0.0033643602 0.00475522 -0.02860743 -0.0028833193 0.0055599487 -0.0630033 -0.12261931 -0.00798612 0.00038994622
whole 0.08786295 -0.04043422 0.086861886 -0.029751072 0.08016448 0.053640332 -0.08622578 0.027156956 -0.03317066 0.070028715 0.0714319 0.10805946 -0.104250945 0.00783937 0.11244957 0.05370176
bit -0.045114655 0.13069469 -0.06308287 0.11177 -0.024059486 -0.041059196 0.13566165 -0.10143069 0.08803659 -0.07823482 -0.05095568 -0.12636 0.13782543 -0.12464593 -0.069813594 -0.052110408
music 0.011666758 0.04619724 -0.0006074127 0.015970176 -0.039596137 -0.009613787 0.02997806 -0.000284111 0.0036469582 -0.03774137 -0.06218164 -0.04668141 0.03150764 -0.00085594074 -0.020420438 -0.07651563
script 0.036692925 -0.100050606 0.08657115 -0.05964254 0.02614088 0.06511002 -0.081044964 0.033213407 -0.12237026 0.084906235 0.07242133 0.032972425 -0.07561379 0.055627294 0.07179529 0.06265676
far 0.056899328 -0.08155126 0.07914376 -0.08677944 -0.019295441 -0.006472795 0.02057187 0.071596794 -0.035821006 0.021014886 0.07678145 0.07614891 -0.07285822 -0.017933097 0.059616767 0.017175572
making 0.050374325 -0.01769299 0.0026345795 -0.06621831 0.08625048 0.06187136 -0.027099393 0.036702316 0.013888019 0.0005764734 0.101191714 0.039044026 -0.0018914744 -0.116613835 0.05756551 0.049369853
guy -0.00753557 -0.014498791 0.034476675 -0.021863308 0.003483917 0.02067634 -0.020361898 -0.037882082 0.035269845 0.0545966 -0.03567433 -0.03180516 0.03093721 0.04129977 0.004393835 -0.0026290729
anything 0.027868409 -0.013354387 0.07879945 -0.032024853 0.07892396 -0.004520166 -0.07547878 0.08106002 -0.1034329 0.016337708 0.10325441 0.08699839 -0.033553988 -0.12313971 0.070050456 0.034998342
minutes 0.018729774 -0.092661984 0.051154315 -0.040738545 0.074882284 0.03191021 -0.06954629 0.016688807 -0.07114683 0.08377244 0.10615776 0.0148632815 -0.021580368 -0.13970926 0.03287962 0.025304373
feel 0.02630631 -0.011293555 0.065405495 0.0027084737 0.02011995 0.07026914 -0.028158942 -0.03641203 -0.044935703 -0.003817716 0.05238784 0.013533623 -0.06458737 0.021668425 -0.003459504 0.065345526
last 0.005259221 -0.047848612 -0.027116094 0.021617446 -0.080035605 0.021863088 0.012874524 -0.053986754 -0.025980107 0.0017790077 -0.074986205 -0.0006112704 0.012460777 -0.0057981596 0.01687368 0.053614605
since -0.032781247 0.028446473 -0.06001489 0.023934498 -0.024660664 -0.048545785 0.029787809 -0.067642175 0.057546616 -0.013562562 0.0070303376 0.002674051 -0.0052533457 -0.07519207 -0.00496388 -0.021645438
might 0.023450308 -0.0026163459 0.067615576 -0.092911415 0.0448229 0.072040066 -0.072271906 0.061322164 -0.03189419 0.01587632 0.098613255 0.0888449 -0.059747342 -0.04033655 0.03616424 0.062820226
performance -0.016067335 -0.03148722 -0.029754173 0.023311311 0.031040706 0.09226601 -0.0640145 0.0066773575 -0.041574355 -0.010041352 0.054595735 0.010101887 -0.043944098 -0.11071777 0.025632385 -0.037886247
he's 0.0012322884 0.020546732 -0.016143387 -0.049001087 0.0025048493 -0.025869763 -0.040318023 0.0071214517 0.00059030537 0.0027532068 0.07341916 0.030969035 0.033206064 -0.123326816 0.04248625 -0.021533346
2 0.05385986 -0.08272001 -0.0053906874 -0.07365107 0.09251614 0.08101794 -0.07909119 0.054194614 -0.057226755 -0.024528868 0.07665402 0.07587153 -0.0898933 -0.26249143 0.05855959 0.03064309
probably 0.022217391 0.013740528 -0.0068179104 0.019946389 -0.0009675771 0.043127388 0.03127231 0.041909013 -0.018634928 0.034407478 0.044385865 -0.014263567 -0.049303435 0.013847348 0.026171183 0.026031116
kind -0.032269936 0.027766598 0.025264727 -0.07080703 -0.009833927 -0.0011117382 -0.03506343 0.015754668 -0.028314356 -0.029487371 -0.0036752112 0.04282072 0.027089912 -0.04817366 0.05019471 0.013487106
am 0.02678215 -0.047202785 0.016644264 -0.006153692 0.041937117 -0.009573051 -0.027344555 0.014748472 -0.0019270617 0.016723568 0.06980032 0.010499991 0.0011046514 0.016743029 0.05975373 0.0033297508
away 0.040689822 -0.020965919 -0.032298546 -0.04688733 0.049359642 0.032439046 -0.054794982 0.049043864 0.0036040402 -0.055236533 0.06506989 0.03130013 0.023578579 -0.18764882 -0.01095731 -0.016916545
yet -0.024004165 -0.00418654 -0.06442683 0.064206555 -0.025905157 0.012482742 -0.00012553057 -0.011026304 0.03294924 -0.05724382 0.012310739 -0.02788148 0.008626867 -0.098464295 -0.031249182 0.0069829873
rather 0.018569171 0.0125133945 -0.0059049935 -0.015264712 0.012726354 -0.010335751 -0.0069148466 -0.041145515 0.011831296 0.022751808 0.052161157 -0.029643958 0.00508817 -0.0047474466 -0.017824654 -0.030640949
tv -0.01296642 0.04876804 -0.064115874 -0.042295806 -0.014726258 0.028759765 0.046807446 -0.0004684999 -0.01777019 0.01526192 0.078693375 0.027789073 0.023903362 -0.06715113 -0.03847402 -0.028450135
worst 0.17303617 -0.26197904 0.20194353 -0.25264224 0.2595376 0.1917006 -0.19999847 0.2539917 -0.19750768 0.25082806 0.25928247 0.21440515 -0.25997096 -0.0023910436 0.19362897 0.18510723
girl -0.002835771 0.020592306 -0.03552927 0.020628069 -0.07142535 0.047258426 -0.027859867 -0.02385158 -0.03533387 0.048454206 0.022197869 -0.024860103 -0.020311287 0.039892823 -0.012459306 0.054719172
day -0.03910128 -0.014147937 -0.00949645 -0.012064617 0.0016461319 0.015846977 -0.031286076 0.017283771 -0.0022555098 0.021989837 -0.02989292 0.016614087 0.04112412 -0.07007086 -0.041114014 0.019205911
sure -0.058976118 0.04340595 0.0021534783 0.026392676 0.070253074 0.021394785 -0.023371466 0.0053202147 0.021771817 -6.31375e-05 0.039561607 -0.0273549 3.2985845e-05 -0.08975066 -0.036823 0.013438529
fun -0.044174597 0.07941692 -0.1376405 0.10222588 -0.07908289 -0.040461976 0.08680644 -0.075244576 0.12499399 -0.08126991 -0.06841713 -0.09617546 0.0886079 -0.06763845 -0.07513391 -0.13300304
hard -0.016652634 -0.045197666 0.03183105 0.012463001 0.06993922 0.06304328 -0.00455045 0.061233006 -0.045693055 0.013429099 0.09307029 0.012926593 0.011804252 -0.05027688 0.05257999 -0.0139973285
woman 0.029261477 -0.10210345 0.061550565 -0.00840523 0.028154854 0.035828266 0.009978033 0.06590744 -0.02272319 0.09469235 0.010768717 0.06549723 -0.045600522 0.13267694 0.07405079 0.09527
played -0.008713534 0.040103044 -0.0038827937 -0.040188655 0.019114343 0.037653517 0.016261106 0.052583355 0.036400504 -0.027991777 0.04082276 -0.027465459 0.022756815 -0.03500089 0.055220325 0.0025524618
each -0.005169941 0.04667346 0.006214162 0.038466375 -0.027293459 -0.06383399 0.025785025 -0.1068388 0.00019890457 -0.00069423474 -0.090764746 -0.050285768 0.04242497 0.046486653 -0.0012208823 -0.020014355
found 0.057453893 -0.0795763 0.02650404 -0.06122428 0.03955307 0.0041514905 -0.023124672 0.010100285 -0.09363052 0.0792132 0.076225415 0.0803997 -0.072507046 0.026649224 0.065042056 0.030621083
anyone -0.048152916 -0.013607282 -0.046448875 0.0040370557 0.062723726 0.008730319 -0.027842578 -0.009356106 0.039434735 -0.05173439 0.03417872 0.015587948 -0.011605755 -0.15241994 0.018948153 -0.00703293
having 0.020849682 0.018718766 0.060939495 -0.051056184 -0.018956672 0.029519605 -0.05735894 0.06020563 -0.0028444252 -0.031309914 -0.02508644 -0.017897652 0.006052879 -0.048922673 -0.0071210037 0.006869296
although 0.009846239 0.025815839 -0.06353095 0.073351376 -0.044895336 0.050216667 0.0028702 -0.016103774 0.05736761 -0.012352173 -0.033363994 -0.016316522 0.08050943 -0.11294478 0.016335618 -0.013565878
especially -0.0998311 0.029147573 -0.06858078 0.04506149 -0.05821981 -0.012229453 0.06103566 -0.06530336 0.08251978 -0.13411638 -0.029458331 -0.07370482 0.048484337 -0.052369952 -0.0718535 -0.04104903
our 0.0052709263 -0.027007563 -0.010727197 -0.036241572 0.0079447655 0.010018738 -0.025292719 -0.032285757 0.010256236 0.018282693 0.012348904 0.0046984097 0.01786293 0.051166546 0.0013174783 -0.02126187
believe -0.004981396 0.034333948 -0.005736807 -0.044394642 0.02337451 -0.015456531 0.0023957035 -0.03941965 0.042865064 0.03095 -0.00214006 0.043590404 0.0007873019 -0.11876796 0.035370454 -0.025919802
course 0.008455527 0.04313971 -0.017227951 0.062177107 0.007283339 -0.040959492 0.020398522 -0.03973015 0.06292249 -0.024571938 0.0010917054 0.0048325798 0.05290741 -0.010835275 0.020812277 -0.045580618
comes -0.0023023647 0.054700695 -0.033244252 0.027273176 0.0072498107 0.013155811 0.017239075 -0.023612712 -0.017670617 -0.061484765 0.02567175 0.04981566 0.024179181 -0.06937965 0.006491648 -0.012663699
looking 0.032179385 0.0025587168 -0.020455966 -0.0022819238 0.07176885 -0.014627082 -0.032487176 -0.012812642 -0.053628106 -0.0145170055 -0.0030223345 0.020475918 -0.01418391 0.0041728145 -0.015675176 0.0029043364
screen -0.0915535 0.09415706 -0.066710815 0.018017948 -0.026684836 -0.061043873 0.051400322 -0.034664653 0.09075577 -0.037516758 -0.050800283 -0.01639098 0.10856192 -0.111117646 -0.08767586 -0.08789184
trying 0.0006977569 -0.07045318 0.07710897 -0.025016442 0.05046764 0.015728181 0.0016893337 0.049356584 -0.084028415 0.09064363 0.029630184 0.051701006 -0.038232107 -0.043499287 0.047614817 0.08445574
set -0.007136653 0.015207613 0.02474367 0.062408485 0.015734196 -0.056345556 -0.021712024 -0.052018534 -0.017640563 -0.037799053 -0.001421172 -0.029488487 0.044665616 0.11087788 -0.0062850392 -0.01948227
goes 0.047669835 -0.08333682 -0.011294269 -0.004430291 -0.0045999032 0.07727544 -0.07762095 0.018300738 -0.021922324 0.06035916 0.04744508 0.034104474 -0.03305468 0.051378928 0.0617378 0.010070377
looks 0.047238313 -0.1158966 0.06622863 -0.04153544 0.109581195 0.095455326 -0.110372275 0.06682196 -0.06209842 0.11276873 0.11167882 0.04335023 -0.12105096 0.06283693 0.0335098 0.110096514
place 0.07517066 -0.046273366 0.0021205961 -0.031168573 -0.043719463 0.032388072 -0.034465984 0.027319774 0.008515937 -0.014428055 -0.031189464 0.00594909 0.026065225 0.06722773 -0.020746607 -0.0022745486
book 0.006288142 -0.052343972 -0.034208756 -0.026922584 0.08142497 0.036565475 -0.011412515 -0.025356 -0.005079323 0.046880774 0.0065359958 0.034379788 -0.031846784 -0.05890234 0.016094549 -0.014109488
different -0.026810024 -0.024232056 -0.061383206 0.009156711 -0.026188659 0.002291134 -0.0018060463 -0.03575135 0.010671543 -0.010734523 0.04039137 0.0044521173 0.055649523 -0.100222915 -0.051066622 -0.06893535
put 0.018706888 -0.050530758 -0.007991241 -0.041285805 -0.007179276 0.047714975 -0.043877434 -0.014364012 0.010262237 0.062411636 0.045331474 0.014741645 -0.0065778354 -0.08990955 0.063264556 -0.032848425
ending 0.01983818 0.00290253 -0.003402506 -0.0809365 -0.034483552 0.029315494 -0.056102775 -0.015795484 0.027046233 0.06450396 0.012969164 -0.019300252 0.012728844 0.03156601 0.0118968 0.022411723
money 0.058583263 -0.043344952 0.015755638 -0.052637666 0.15064117 0.049058273 -0.038811028 0.11324082 -0.030054081 0.025616793 0.11203232 0.13906968 -0.08165062 -0.12889881 0.10381318 0.018789498
maybe 0.032357812 -0.060159046 -0.0010689365 -0.07646496 0.06266524 0.05628903 -0.026643148 0.039039984 0.010721729 0.041798204 0.043188576 0.025951486 -0.032165773 0.014766854 0.035781454 -0.001674112
once 0.034413997 0.024006683 0.0066905785 -0.034470733 0.01496783 -0.008613136 0.035621334 -0.00060633477 -0.060374662 -0.010959258 -0.02448798 -0.005745954 -0.008047005 0.065825775 0.006328835 0.05806317
sense 0.060592584 -0.039778594 0.014560011 -0.023695366 0.032841437 0.053618725 0.033243235 -0.0047131637 0.012176506 0.054752667 0.056504697 -0.0054052924 -0.039336707 -0.028409343 0.04604317 0.07117057
reason 0.09197955 -0.029506907 0.051801164 -0.016244002 0.07892737 0.053456172 -0.02012298 0.031993095 -0.104924135 0.029209716 0.011296611 0.08069873 -0.08624296 0.013336293 0.038610253 0.07834058
true -0.09158962 0.07371147 -0.13200024 0.08167564 -0.03301112 -0.033080783 0.08839971 -0.049495403 0.04504887 -0.08530448 -0.006273958 -0.084514536 0.06751748 -0.11869742 -0.056616537 -0.10182024
actor 0.018206568 0.023041956 0.037190124 0.0050245347 0.008395701 -0.005812653 -0.037911747 0.004781008 -0.010364074 -0.00067699794 0.054464314 0.061811764 -0.02865364 -0.040416807 -0.022749742 0.05015317
everything 0.03601234 0.02434278 -0.046862084 -0.015843922 -0.0045801904 0.007884303 0.034594934 0.00347892 0.051940534 0.0066538546 -0.043867506 0.02999627 0.05637931 -0.06966273 -0.061344687 -0.028638171
wasn't 0.024994606 -0.01628641 0.01622433 -0.049876034 -0.034488466 0.026044825 0.0031497406 -0.034607902 -0.06006056 0.016734647 0.046334617 0.000468615 -0.044148687 0.005482664 -0.010445786 -0.005267312
shows -0.030815564 0.086287014 -0.022732962 0.05049918 -0.08421293 -0.07136677 0.08244404 -0.086953744 0.086796515 -0.0827828 -0.042698156 -0.056372657 0.06185449 -0.07688977 -0.036445264 -0.076684505
dvd -0.09207123 0.08165932 -0.06695405 0.032561313 -0.008715816 -0.045652103 0.0193158 -0.051646803 0.10340783 -0.05471586 0.035765145 -0.0053254156 0.043770906 -0.05145837 -0.06274929 -0.09429339
three 0.041408885 0.009389518 -0.03252452 -0.05508066 0.014019415 0.016471175 0.016326794 -0.0025431898 -0.0125633 0.032237753 -0.0033230102 0.023895627 0.025317835 -0.08325537 0.045716465 -0.038192544
worth -0.104591645 0.16525726 -0.13558163 0.12282594 -0.100111246 -0.05201111 0.068816684 -0.06513665 0.08915109 -0.07763442 -0.050861128 -0.07057863 0.10390133 -0.11857559 -0.106078096 -0.08669055
year -0.042358376 -0.03408037 0.010769314 -0.018289361 -0.07726069 0.055596054 0.009016054 0.0189699 0.0097760605 -0.020753028 -0.032750353 -0.030408049 0.027692534 0.10796 -0.0139324535 0.0063461335
job -0.02687457 0.07600462 -0.08224856 0.03084538 -0.09152939 -0.07750375 0.061300762 -0.055910453 0.046811838 -0.05920901 -0.035702955 -0.032119397 0.06253854 -0.06353629 -0.08735425 -0.055342
main 0.019274456 -0.030948885 0.07085896 -0.05123356 0.0043047024 0.03187362 -0.07678662 -0.0007797855 -0.017521957 0.070804924 0.096940026 0.07898126 -0.062274896 0.014411908 0.007863745 0.041751903
someone 0.121129416 -0.15237229 0.10146792 -0.08695051 0.13546093 0.044666532 -0.11010737 0.16158272 -0.11408682 0.0908201 0.15912363 0.08646411 -0.06629923 0.023970807 0.07425171 0.062203735
together -0.016763985 0.09065 -0.08434173 0.0051661455 -0.037752338 -0.061222535 0.029931832 -0.09790828 0.090096585 -0.07011002 -0.0044714627 -0.009648573 0.040277515 -0.077296436 -0.034489036 -0.046844512
watched 0.009983837 0.019531136 0.0045959735 -0.048135135 0.030671936 0.041196674 -0.007896284 -0.03715848 -0.03429049 0.053309765 0.028284553 -0.024427058 0.0074358294 -0.012611476 0.02614181 -0.02300288
play 0.03168731 -0.019107843 0.024028698 0.00836375 0.017596487 0.022120366 0.03267306 0.0032698342 -0.0111983 -0.01661056 0.042217378 -0.01932619 -0.027756214 0.014415721 -0.007302699 0.0017798161
american 0.035112742 0.044396576 -0.052192304 0.0245335 0.034514077 -0.019759923 0.023262626 -0.0034607528 0.06409902 -0.037498936 0.000789285 -0.059391387 0.0009954812 -0.015883125 -0.014532758 0.0038971468
plays 0.030527733 -0.029537637 -0.04088148 0.023860583 -0.024257284 0.049284525 0.0024947184 -0.00046183425 -0.027660156 0.013494508 -0.018808374 0.023279168 -0.032417335 0.03395578 -0.016917223 0.023991881
1 0.028676767 -0.04655029 0.075842954 -0.04547166 0.1856804 0.096158 -0.089516565 0.081840955 -0.08618834 0.0503698 0.14597924 0.13253044 -0.08371159 -0.30736345 0.067579314 0.028580286
said 0.062060744 -0.017275494 0.00059613097 -0.055014912 0.0044719703 -0.0038911067 -0.012885826 0.0023313945 -0.054778192 0.022810735 0.05526783 0.042547695 -0.0008586177 0.0063950582 0.009723351 0.06718025
effects 0.007660503 -0.031577587 0.007400882 -0.008586498 0.009498627 0.035576522 0.025472997 -0.012391309 -0.017552836 -0.02641174 0.047443602 -0.0457635 0.028759904 -0.03044597 0.020930491 -0.023463553
later -0.010031674 0.048292156 -0.04735214 0.027228408 -0.0012050876 -0.04806527 0.0015733291 -0.006207198 0.028658481 -0.007841477 -0.019679023 -0.03463712 0.050905768 -0.09101568 0.006702161 0.008933817
takes -0.046408877 -0.04168387 -0.01695836 -0.014124906 -0.0020657135 0.03481707 0.04453454 -0.037202843 0.047002003 0.010564815 0.014427785 -0.040864576 0.052763537 0.07286874 -0.0011821395 -0.025756195
instead 0.080360055 -0.06927821 0.15071169 -0.1414183 0.1312625 0.07826798 -0.17806374 0.16953069 -0.09943038 0.10278251 0.14724736 0.11666047 -0.08819673 -0.13915913 0.074803844 0.13326888
seem 0.07463097 -0.10352524 0.01652113 -0.033016317 0.09452405 0.021797335 -0.06676307 0.06518297 -0.041852523 0.044003583 0.09296843 0.07416945 -0.04436812 -0.010434307 0.06503878 -0.0019470024
beautiful -0.055810653 0.023058267 -0.07877859 0.04812085 -0.07079097 -0.027197279 0.0014009094 -0.08465319 0.07491697 -0.039732687 -0.005416926 -0.024074055 0.018298052 -0.016602827 0.00503969 -0.020223834
john 0.006401416 0.047217857 0.04137967 -0.015525488 0.03444587 0.017435867 0.036739014 -0.0012105039 -0.03717063 -0.036087792 0.019117722 0.012657797 -0.018365426 -0.06141625 0.022041181 0.0072914255
himself -0.009476829 -0.04502253 -0.00553361 0.005204661 0.060706485 -0.002747756 -0.023017889 -0.011044436 -0.024840456 0.008547293 0.05287806 0.06620405 -0.07831872 0.04829777 0.0030960548 -0.0020396027
version -0.01807696 -0.06957958 -0.0067771133 0.012928767 0.034823228 -0.015051393 -0.008039161 0.073746786 -0.043439437 -0.027176611 0.013926954 0.042286362 -0.0070615225 0.021099258 0.05324789 -0.010545713
audience 0.03458821 0.016173344 -0.031698994 -0.009151547 0.0935542 -0.0101773245 -0.039381266 0.03509577 -0.017566534 -0.002134865 0.06568515 0.0028701404 0.0018952801 -0.055614844 0.014506367 0.038275078
high 0.06519617 -0.005089471 0.055088818 -0.031710383 0.043286625 -0.019146772 0.009846323 0.04262261 -0.073251985 0.035871062 0.009037576 0.0032345674 -0.055312965 -0.041874435 0.07464978 -0.0067359344
house -0.06664618 0.00960625 -0.035271794 -0.015899384 -0.030358253 -0.0026710262 0.046067253 0.017353144 0.053847324 -0.073018916 -0.043579143 0.0007449626 -0.024096835 0.056796703 0.022747591 -0.00551049
night 0.015410412 -0.004114006 -0.004623578 0.054250482 0.022306163 0.02187968 -0.009450302 -0.004774515 0.014325072 -0.010041584 -0.01245855 0.0037552658 0.003536505 -0.017464677 -0.03985945 -0.035184238
during -0.025568007 -0.014569593 0.008757732 0.028828708 -0.020910207 -0.0178838 -0.024522621 0.006711802 0.009771593 -0.016221644 -0.04534526 0.00044660317 0.04371162 0.038342852 0.036924846 0.031309754
everyone -0.074922696 0.07150321 -0.06193656 0.021770764 0.011571572 -0.06013753 0.0873493 -0.037384436 0.07861567 -0.044336874 0.028945575 -0.037747994 0.028930508 -0.12537846 -0.076422796 -0.06898563
left 0.080044396 -0.04113285 0.08720573 -0.08947587 0.0015971368 0.013436 -0.03447262 0.0211976 -0.019619888 0.093114674 0.06900464 -0.008658044 -0.05259507 0.030435307 0.06817071 0.0019337159
special -0.039790373 0.011534803 -0.086302064 0.023509493 -0.017043412 -0.0008575024 0.032971557 -0.028386807 0.076826215 -0.06561385 -0.012131917 -0.027653215 0.09429072 -0.1297588 -0.007322915 -0.101946406
seeing -0.08002614 -0.019974323 -0.015602046 0.0049891057 -0.009780558 -0.0073044803 0.062350117 0.0009980015 -0.010404176 -0.024635894 0.035565022 0.0046520736 -0.011835411 0.11577944 0.023071289 -0.007003873
half 0.08111024 -0.036786877 0.048949923 -0.08501106 0.08048433 0.07624385 -0.03503601 0.05415123 -0.06224973 0.13215272 0.097022116 0.08301702 -0.08847008 0.002388455 0.06336872 0.08019925
excellent -0.14847906 0.17240816 -0.10858767 0.10597909 -0.03419634 -0.070286624 0.08738708 -0.11689224 0.11562062 -0.17683843 -0.027526995 -0.11650905 0.1575948 -0.19345707 -0.16951968 -0.17833595
wife -0.037020523 -0.008506394 -0.0356485 -0.05138742 0.04115478 -0.04050288 -0.008095402 0.045999035 0.014091928 0.04901737 0.026248896 0.014209545 0.028921692 0.0059192656 0.032113776 -0.012649791
star 0.072161384 0.010800715 -0.011396483 -0.010438314 0.007889698 0.07352355 -0.048039813 0.02842769 -0.0026747056 -0.0016795624 0.068165064 0.007927132 -0.07429519 -0.035120007 0.041381594 0.042860806
shot 0.004864091 -0.07473627 0.043588705 -0.023801738 -0.00022097984 0.07150179 -0.022221355 0.002350369 -0.019752676 0.0734453 -0.0029549894 0.02872821 -0.0014422152 0.054618992 -0.0030091847 0.09923982
war -0.02028429 -0.020302696 0.013157748 0.0005262753 -0.008647955 -0.01525331 0.021096794 0.0059801578 0.046689972 -0.022182835 0.041749418 0.03204132 0.033413928 -0.045840476 -0.056896314 -0.019514011
idea 0.081033275 -0.05655421 0.113784775 -0.11364877 0.06787797 0.031165631 -0.099205084 0.0913513 -0.08499746 0.03590657 0.09408628 0.087992765 -0.11878055 0.0034443892 0.043046243 0.090214014
nice -0.039364602 0.072948925 -0.059771027 0.029852029 -0.032235175 -0.04804869 0.025960717 -0.078003 0.07530271 -0.06404442 -0.036645003 -0.07463292 0.054511826 -0.048395324 -0.05128176 -0.037454076
black -0.0039631766 -0.051551133 0.04117833 -0.021977676 0.055592693 0.061188918 -0.08080185 0.013414142 -0.056096327 0.025154749 0.0042807735 0.016913293 -0.055910546 -0.0850149 0.045762524 -0.0031275882
less -0.036172297 0.031216478 -0.052947942 -0.033406716 -0.032147888 -0.03821242 -0.030006306 0.014092894 0.05292619 -0.004117267 0.004283327 -0.04909322 0.03127061 -0.028504122 0.0041154064 -0.04727867
mind -0.024240084 0.10072578 -0.10909227 -0.0027045473 -0.02361453 -0.008525758 0.019908346 -0.035601374 0.0786105 -0.11289664 -0.010811349 -0.03441152 0.034039516 -0.23627205 -0.08617903 -0.063625984
simply -0.008683523 -0.04461757 0.05412946 -0.052771118 3.8804068e-05 0.029854173 -0.0031088833 0.037504867 -0.04822333 0.018119516 0.04321554 0.03624641 -0.048764154 -0.040244848 -0.0035929023 0.0024299386
read 0.045991033 -0.065106876 -0.017184801 -0.0062049236 0.14308067 0.049478587 -0.05701541 0.055721343 -0.03599512 0.001887596 0.104936354 0.049768552 -0.023113484 -0.1839873 0.037448544 -0.014457452
second 0.00050918595 0.0056874296 -0.014302141 0.0013776203 0.09291145 0.049284235 0.017495532 -0.02559338 -0.018898735 0.041196603 0.081219815 -0.004886108 -0.045278363 -0.06388084 0.01590753 0.0457864
else 0.108794294 -0.046986096 0.01877617 -0.097815976 0.06330485 0.054040354 -0.06868555 0.038066216 -0.106839284 0.012640075 0.13810869 0.12822764 -0.036742523 -0.24642234 0.09840099 0.04149845
you're 0.02578888 0.043367337 -0.012038851 -0.058820885 0.04826568 -0.079563625 0.014237184 -0.012307077 0.03968768 0.02632829 0.09362372 0.027737962 0.03122275 -0.16802561 -0.035032302 -0.014079913
father -0.016032476 0.055786468 -0.04817387 -0.025857603 -0.06018163 -0.043381654 -0.015899066 -0.056080237 -0.011580549 -0.05297667 -0.024082331 -0.03350479 0.03963102 -0.005867697 0.026176156 0.019411506
fan 0.05466636 0.045697786 0.015926728 -0.013404683 -0.0047185463 0.027921442 -0.019830734 -0.0058604768 -0.030512528 -0.04849829 -0.007090872 0.033527333 0.037364393 0.0004566494 0.01765676 0.016639033
poor 0.12526101 -0.15868992 0.13139488 -0.13128228 0.16283385 0.14189851 -0.15152481 0.12683815 -0.092828475 0.1270787 0.15404922 0.14763772 -0.12063696 0.003826465 0.08832982 0.09979442
help 0.08384552 -0.020365627 0.028713861 -0.011364695 -0.006875596 0.006947081 -0.015545743 0.010739999 -0.013686263 0.071235865 0.07508666 0.015831523 -0.00090350886 0.0005464593 -0.013427951 0.07812655
completely 0.056251235 -0.078980885 0.00461854 -0.011393752 0.07110255 0.0052168565 -0.06541808 0.059007466 -0.07501966 -0.0033985258 0.056785483 0.072762825 0.0089242505 -0.06704987 -0.00822768 0.05199387
death -0.034690734 -0.021033343 -0.030178579 -0.023348916 0.010377895 0.0076282737 -0.012749824 -0.024572762 0.024822317 0.0021577296 0.0070401467 0.048706643 0.018342426 -0.02579957 -0.046721727 -0.04261999
3 0.1021548 -0.122897506 0.047040712 -0.10796003 0.10355889 0.06235644 -0.124288216 0.087576404 -0.08853168 0.0146978125 0.07617211 0.06597014 -0.05181652 -0.33507606 0.10399889 0.034413327
used -0.002225923 -0.022184495 0.07036999 -0.017670242 0.0008758994 -0.010283844 -0.006464158 0.03293728 -0.062080298 0.04949567 0.06841477 0.07294426 -0.07618648 0.06321806 0.059139784 0.053899463
home -0.042006332 -0.034518667 -0.0010659678 0.0054005673 -0.009604351 0.00089482404 0.004989131 0.014262907 -0.006216228 -0.0046476177 0.031468272 -0.01357346 0.013835543 0.00213936 -0.0059965877 -0.00904127
either 0.014967044 -0.05733866 0.013071676 -0.05159002 -0.0125286365 -0.0068659526 0.01580031 -0.03411462 -0.032422945 0.0429329 -0.054098714 -0.047698185 0.0148610305 -0.023555957 0.025287189 0.0004532001
short 0.037797026 0.03752356 -0.043491427 -0.035940446 -0.0041365977 0.056164935 0.05494246 -0.05005053 0.04980519 -0.008138558 -0.02604031 -0.027972661 0.02123502 0.01075802 -0.035743322 0.034501623
line 0.050923977 -0.056846898 0.10477426 -0.046864342 -0.02487262 0.09477877 -0.072203755 -0.0014691309 -0.03996132 0.050491046 0.013585193 -0.00056457805 0.0019556277 0.15120997 0.05319399 0.027505742
given -0.0019320734 0.070325494 -0.060489144 0.021051101 -0.033436593 -0.04945168 0.059036367 0.02067404 0.057411604 -0.021014612 -0.011110114 -0.021327924 0.029494122 -0.008075307 -0.03748811 -0.038883314
men 0.0162896 -0.05292788 -0.029181378 -0.050453495 0.07827889 -0.01554687 -0.055392426 0.029088445 -0.0397867 0.029053127 0.04925422 -0.0072026174 -0.016842872 -0.11095525 0.025221445 -0.008165186
top -0.031178042 0.03158953 -0.09865621 0.035736583 -0.049035158 -0.11465262 0.10611792 -0.06399255 0.08849236 -0.025870416 -0.06054083 -0.065015994 0.12199204 -0.057545006 -0.029219301 -0.06240102
dead -0.03467291 -0.047178786 -0.0044945045 -0.036093708 0.020833792 0.02544151 0.014615571 -0.016141895 -0.007980964 0.027856454 0.010084826 0.06717472 0.0068032523 -0.008563856 0.045886055 -0.021090185
budget -0.036927126 0.05115569 -0.02101279 0.0058527216 -0.08416381 -0.050028037 -0.01876231 0.014457812 -0.027976269 -0.0015293658 -0.08219026 0.013742584 0.017392624 -0.030643128 0.023504 8.231443e-05
try 0.032090403 -0.012451067 -0.009406617 -0.027501503 0.060700756 0.02588822 -0.06383664 0.00042672837 -0.060807623 0.047485694 0.09615537 0.022991221 -0.036239825 -0.026643327 0.067734785 0.02860222
performances -0.0511172 0.014450289 -0.024308067 0.06608391 -0.055018745 0.037845887 0.05774521 -0.020768091 0.0073708436 -0.09816217 -0.023710433 -0.009218276 0.036739364 -0.0920734 -0.016746342 -0.019183192
wrong 0.01843126 -0.046337713 0.005753282 -0.07174318 0.053884264 0.030391252 0.023268517 0.011322832 -0.0041995663 0.03649011 -0.014168471 0.03575863 -0.040583655 0.051577855 0.046477348 0.045810338
classic -0.087983206 0.05384964 -0.045323484 0.08674748 -0.08089517 -0.013338946 0.052650243 -0.028523052 0.003377841 -0.061476957 -0.048072405 -0.06497649 0.056656197 -0.03666584 -0.06408606 -0.018350959
boring 0.1722247 -0.16902186 0.21450427 -0.253631 0.2433948 0.21604872 -0.25822645 0.22367255 -0.24692917 0.16717844 0.2531543 0.23301648 -0.20585357 0.016736267 0.20194118 0.16527477
enjoy -0.127506 0.08555754 -0.09898464 0.04585583 -0.08772359 0.007570952 0.026980175 -0.035585396 0.07835981 -0.031530127 -0.015824413 -0.005022216 0.020101111 -0.00293674 -0.031217469 -0.035352323
need 0.0025111856 0.0011785346 0.005565101 -0.020962866 -0.0092732115 0.034521576 -0.0057107992 -0.0484656 0.023822045 0.0077843554 0.0053299204 0.012686069 0.03352127 -0.011518855 -0.026125776 -0.049915887
rest -0.038371667 0.0030200817 -0.0037306221 0.005897329 0.038163368 -0.0037171966 0.03561609 0.012194534 -0.02450304 0.03708678 -0.019121477 -0.012336803 -0.031929575 -0.061501063 -0.04092226 0.0019907511
use -0.035639644 -0.03668745 0.046524826 -0.007837835 0.018167468 0.038710844 -0.06855251 0.04000227 -0.0032711637 0.031317335 0.0067495164 0.028406072 -0.007086918 -0.1414587 -0.028166164 -0.009812029
kids 0.0505015 -0.010993076 -0.022978589 0.021661695 -0.04039858 -0.011384322 0.034709234 0.03905564 -0.032245114 -0.032970775 -0.0060590073 -0.039901532 -0.03763876 0.016505191 -0.04396474 0.033712633
hollywood -0.019601827 0.012949983 -0.009698277 0.02202097 -0.0022570814 -0.05701017 -0.04522069 0.029329414 -0.02599942 0.01713278 -0.022836927 -0.04354833 -0.031097816 -0.08169688 0.012917649 -0.051930767
low 0.08557549 -0.027037231 0.076992355 -0.016413758 0.046586394 0.0104197515 -0.067888536 0.03995633 -0.090554126 0.08430121 0.06776882 0.06489931 -0.03595978 -0.040775094 0.103840165 0.06460868
production 0.07270685 -0.040893134 0.08957428 -0.043244567 0.12172924 0.049472503 -0.061259452 0.1084986 -0.09377777 0.07874143 0.05056485 0.06912004 -0.07737625 -0.0047395253 0.0751084 0.079460196
until -0.022958517 0.0154370675 -0.04965668 -0.008291746 -0.006502927 -0.031564955 0.06373831 -0.05604236 0.026396122 -0.051425364 -0.009088164 -0.047573637 -0.007520525 0.011651664 -0.03378835 0.0073065595
along -0.09825174 0.04115752 -0.10428166 0.038573585 -0.06467205 -0.018601064 0.103394024 -0.032422084 0.025307547 -0.028487563 -0.09193849 -0.020345926 0.060038548 0.05048482 -0.10110296 -0.0059390124
full -0.02345132 0.018718353 0.03026532 0.06930517 -0.060785387 0.03811636 0.013531762 -0.06714904 0.027359726 -0.014281982 -0.04993102 -0.017756386 0.06380432 0.08608253 0.012130824 -0.0037339306
friends 0.013855992 -0.027170174 -0.005985358 0.02349671 0.03223498 0.0820103 0.0113265235 -0.0059797745 -0.02693597 0.03220333 0.080454566 0.011409253 0.023821216 0.06410477 0.06290983 -3.841103e-05
camera 0.052239757 -0.090795524 0.031588625 -0.069792464 0.04018615 0.06073328 -0.023210512 0.0492272 -0.06843778 0.07881705 0.05476547 0.06272981 -0.074620776 0.09163066 0.058059298 0.09159993
truly -0.0124153625 -0.06587382 0.06069372 0.0043773055 0.09387287 0.06956589 -0.012046325 0.023970196 0.01667022 0.060607806 0.103205636 0.07193758 0.0005273328 -0.13370882 0.035787098 0.008275338
women 0.05609947 -0.07253496 0.08425446 -0.06227578 0.009734081 0.062204 -0.067442685 0.055775736 -0.026165219 0.032695457 0.07030198 0.026594222 -0.08125394 0.00378675 0.057023834 0.022396727
awful 0.21539165 -0.1858563 0.21292078 -0.13719696 0.19048981 0.14302783 -0.16507812 0.1811914 -0.21663971 0.1344648 0.20508909 0.16610509 -0.12579305 0.012619013 0.12194492 0.15945707
video -0.036364302 0.022520252 -0.037615143 -0.011865628 0.100359276 0.10528019 -0.033090174 -0.0019961975 -0.0061891815 0.008658537 0.050710935 0.07125765 0.00028947787 -0.07303209 0.017346954 0.016481338
next -0.013035208 -0.02404261 0.0025228146 -0.037339646 0.044048414 0.003587221 0.015711792 0.029899657 0.005329801 -0.0022854116 0.058331713 -0.016429355 -0.057415724 0.008890737 -0.021496285 0.025736863
tell -0.003258004 0.026873685 -0.05046575 0.036558837 -0.055545263 -0.08764818 -0.02123648 0.015821232 0.01552476 -0.037070956 -0.064754546 -0.0019391589 -0.027302433 0.051428653 -0.024434902 0.0013205204
remember -0.026860712 0.012070898 -0.05110548 0.039997354 -0.075263634 -0.001859585 0.05230667 -0.040723275 0.040358864 -0.0679057 0.033389624 -0.029216176 0.05883449 -0.041434113 -0.020375798 -0.0860612
couple 0.029510235 0.039535657 0.016303947 -0.023702467 -0.027513372 -0.038000435 0.004167551 0.031049069 0.045543406 -0.062903486 -0.019204307 0.01190798 0.045403015 0.0141809555 0.00014788145 -0.052795168
stupid 0.09787636 -0.098091915 0.05714209 -0.09869671 0.017130876 0.1021914 -0.09884573 0.113140546 -0.08407381 0.06926453 0.06844186 0.1226755 -0.092660554 -0.00389782 0.123905234 0.0673789
start 0.013503409 -0.04894621 0.061157085 0.015398066 0.056421574 0.079871766 -0.074287824 0.054833118 -0.079023555 0.006018792 0.08725464 0.03948486 0.0074501317 -0.01195633 0.054830275 0.048809834
stars -0.042415608 0.07851262 -0.024974115 -0.026596779 -0.06709614 -0.0046858913 0.015585861 -0.037097964 -0.0061457283 -0.046816874 -0.020735305 0.03205256 0.05051629 -0.03640611 -0.0005063125 0.0194557
perhaps 0.056638326 -0.059032366 0.04084716 0.013506244 0.027052438 -0.02845747 -0.015572863 0.05140385 -0.05703173 -0.025490124 0.004457707 0.04762005 0.010912197 0.04616097 -0.033660002 -0.017076777
sex 0.031586822 0.0128964875 -0.02748926 -0.045766566 -0.0053609237 0.04307781 0.03404043 -0.031658255 -0.044587985 0.016704576 0.015863063 -0.025525175 -0.01709492 -0.007633849 0.03337541 -0.026659688
mean 0.038426742 -0.06049605 0.038239095 -0.055004228 -0.041590203 -0.010844069 0.025552846 -0.01444378 -0.03447321 0.030381657 -0.033510998 0.038873088 -0.0051505454 0.11269633 -0.02460346 0.030714853
came 0.058647 0.0005459561 -0.023047773 -0.04038631 -0.042419154 0.035528615 -0.009316585 -0.031197289 -0.07427288 0.05058294 -0.006727527 -0.038758904 0.019033737 -0.009686516 0.002850234 0.035676185
recommend 0.008504989 -0.034201656 -0.028369997 -0.024577493 0.046581168 0.048816465 0.04856504 -0.051065437 -0.027275717 0.00043834338 -0.010779242 -0.009366773 -0.018461559 -0.014166565 0.022428267 0.007249727
let 0.012227025 0.0093473 -0.0019173411 -0.026220238 0.061047167 -0.0021655175 0.0021757865 -0.016721433 -0.0026206414 -0.026772965 0.07128573 0.06048582 -0.028512504 -0.0822844 0.07951108 0.021337934
moments -0.029235978 0.05023328 -0.0011705008 0.028297763 -0.11763642 0.039150655 0.050565742 -0.0681993 0.0038841784 0.060183335 -0.07680671 -0.022577511 -0.036619402 0.23288144 0.020770224 0.08207041
wonderful -0.123233244 0.1503582 -0.14978191 0.10056245 0.020096827 -0.069493674 0.047421195 -0.10554086 0.07308083 -0.14262447 -0.013725306 -0.113648966 0.07007805 -0.24611999 -0.0963029 -0.16839568
episode 0.04210321 0.052132644 -0.021852639 0.0602223 -0.025759805 -0.019812554 0.06873423 0.00053384097 0.021889932 -0.048030548 0.026793651 -0.060420714 0.07894366 -0.032323454 -0.014741724 0.0036299597
understand 0.002948509 0.040469684 -0.009608209 0.0785077 -0.0017587637 -0.086545825 -0.0006052096 -0.024752425 -0.010418166 -0.08808808 -0.016654596 -0.026616044 0.046438415 -0.07898934 -0.067157395 -0.06785222
small -0.08176389 0.05018101 -0.035438243 0.042920962 -0.12788878 -0.01048864 0.07519789 -0.06744218 0.07746483 -0.039493218 -0.082609676 -0.079289466 0.10870624 0.06452017 -0.033382807 -0.0154331885
face 0.06940741 0.010463135 -0.01096565 -0.048103347 -0.08083157 0.032329068 -0.026478805 0.026827876 0.0048267874 -0.009462224 0.016731756 0.013575335 0.030017518 0.15339872 0.04631851 -0.01609597
terrible 0.08736171 -0.08954774 0.044397417 -0.15128401 0.14649981 0.106942676 -0.070949815 0.11904207 -0.08098664 0.07152643 0.14778657 0.11922155 -0.12922567 0.011009892 0.06634667 0.111974664
playing 0.016496737 -0.046020266 0.07203481 -0.0130187245 0.111860596 0.05770402 -0.013003584 0.012124444 -0.099314794 0.06152325 0.04383357 0.09700923 -0.08043304 -0.017048363 0.08411773 0.04935956
school 0.025492275 -0.0141672995 -0.028133374 -0.034897823 0.069608316 -0.0077677714 0.012361398 0.034747824 0.024749497 -0.027176078 0.010308943 -0.008537736 -0.015769951 -0.10961545 0.008484333 -0.0006818242
getting 0.020521102 -0.012082044 0.09892439 -0.022009026 0.041795682 0.106849335 -0.0969047 0.03571875 -0.0690361 0.008661272 0.08990955 0.07048563 -0.014544017 -0.028790276 0.0641093 0.034798227
written 0.023117866 -0.012241752 -0.024791408 -0.041580614 0.0969955 0.0072213034 -0.10545818 0.109463334 -0.059093893 0.0009308812 0.10727147 0.027510015 -0.063039206 -0.05678549 0.07906107 0.03683346
doing 0.034515988 -0.031563587 -0.038135618 0.020302959 -0.06471512 -0.021377694 -0.0012962827 -0.026593337 -0.0038967836 0.026042253 0.017230937 -0.009931164 0.057020746 0.04616322 -0.006186047 -0.05643285
often -0.059880614 0.075514 -0.044053435 0.039415598 -0.020045992 -0.06493095 0.058823686 -0.023410793 0.04097243 -0.02165531 -0.018576138 -0.0461656 0.074413285 0.055351585 -0.0018393509 -0.025773153
keep 0.0028964838 -0.029284764 0.0025848032 -0.08752763 0.089005135 0.042579833 -0.077635564 0.02285605 -0.015650958 0.0012170328 0.131192 0.052961897 -0.06624707 -0.12146046 0.042325873 -0.024305472
early 0.0022188183 0.022895731 0.024738787 0.049619876 -0.050088324 0.04607114 -0.0040154043 -0.010202543 -0.01379206 -0.021505076 -0.07663631 0.01496406 -0.027886529 0.034144968 -0.057138227 0.005973275
name 0.058374703 -0.084932044 0.009722455 -0.06239643 0.06977348 -0.0055541066 -0.05482506 0.054249547 -0.002392741 0.028764239 0.007794533 0.034572974 -0.07614187 -0.10161959 0.020089615 0.0379395
perfect -0.19736072 0.13101314 -0.16786546 0.175722 -0.15154248 -0.09304071 0.19704607 -0.17585942 0.18163574 -0.18627921 -0.09601539 -0.13208568 0.17468946 -0.17552122 -0.15979616 -0.14232899
style -0.0075926716 -0.014742781 0.02114768 0.01680356 -0.006447716 0.060249627 -0.03600133 0.021112712 0.024314005 0.022817394 0.071071625 0.064579435 -0.06061623 0.019042134 0.023664203 -0.031676386
human -0.03857964 0.039233606 -0.022753209 0.03798078 -0.019673051 0.006945256 0.04208012 -0.0077411872 0.011569468 -0.042320546 0.03212801 -0.0014780986 0.06767952 -0.08415311 -0.08858396 -0.06887266
definitely -0.123633906 0.16171628 -0.15883896 0.070078686 0.017487003 -0.056748237 0.15074283 -0.11850297 0.124379404 -0.12931141 -0.0002539643 -0.09159701 0.07917265 -0.1601285 -0.099624336 -0.1251602
gives 0.03160742 -0.008797545 -0.0033040005 -0.021672668 0.027569395 -0.048421226 0.060386 -0.032382313 0.06473266 -0.003689926 -0.00633978 -0.026905034 -0.007951262 0.0001948348 -0.040829476 0.037759665
others -0.021948008 0.009146339 -0.03232272 -0.0466977 0.052029584 0.04323213 -0.030283831 -0.019473093 -0.034804706 -0.037184313 0.099269345 0.012576417 -0.026533803 0.011455652 0.057447366 0.009879238
itself 0.03352389 -0.039085057 0.10358174 -0.028912092 0.03991111 0.089067854 -0.0511919 0.09312756 -0.035125446 0.097496234 0.08382162 0.012149824 -0.09855117 0.061580606 0.04908245 0.037298627
lines -0.024736071 0.04158514 0.01767929 -0.017749198 0.05376217 0.02616421 0.022344302 0.020868376 -0.037710533 -0.010578495 0.045988426 -0.012319964 -0.024982192 -0.07677341 -0.040707204 -0.02623934
live 0.031289242 0.017216565 -0.0005801951 0.04414968 0.03559965 0.05517269 -0.01864244 0.012736508 -0.038099855 -0.00017871577 -0.024289606 -0.0063857394 -0.011628616 0.012462292 0.023933724 -0.021220684
become -0.03710293 8.065079e-06 -0.10185951 0.050584733 -0.0070456886 0.0038103552 0.051401526 -0.08520268 0.012710061 -0.002088751 -0.022727665 -0.03472476 0.061402094 -0.05310039 -0.06056013 -0.07915365
dialogue 0.08123533 -0.12815803 0.032407034 -0.12761691 0.12540533 0.10179928 -0.04350036 0.094710164 -0.072236784 0.06224774 0.08269256 0.12308619 -0.04758289 0.02952416 0.044585872 0.055496994
person 0.02136762 -0.0067126304 0.018051129 -0.063176095 0.07184216 0.046778034 -0.023142792 -0.0032149078 -0.014518371 0.04726796 0.088432066 0.064555265 0.028061004 -0.115594655 0.04514134 0.0564848
lost 0.049156565 -0.0006215454 0.016934777 -0.08611712 0.08881417 0.07096492 -0.0902965 0.025241947 -0.07622559 -0.005458647 0.097772464 0.017544584 -0.055399716 -0.03557697 -0.004199634 0.074148566
finally 0.068509765 0.011089974 -0.034025446 -0.065163 0.020245705 0.006572316 -0.06588783 0.061201856 0.030238897 -0.0015680735 0.06402451 0.009731476 -0.028253935 0.030868936 -0.019090476 0.05561472
piece 0.078816704 -0.06934137 0.05692066 -0.043492246 0.07140709 0.04962748 -0.0315022 0.0015352361 -0.02485839 0.026484096 0.08541079 0.065421164 -0.09280747 -0.050680265 0.038677208 0.0067299358
head -0.004831736 0.029482093 0.034479514 -0.05212637 -0.0059495014 -0.018756786 0.020089801 -0.064600796 -0.0070536886 0.06956938 -0.010839045 0.030944329 -0.055741895 0.071283415 0.009660926 0.05019555
case 0.013954677 0.017101843 0.021784728 0.041728895 0.014853579 -0.011612808 -0.0492037 0.036368717 0.026551668 -0.04458465 0.059457608 0.057726193 -0.04903935 -0.046617463 -0.013804522 0.0117537165
felt 0.01971157 0.023573644 0.028969476 -0.04328486 0.021928675 -0.021658836 -0.0055317525 0.012933412 -0.03488091 -0.056671944 -0.049892616 0.013886666 0.055777628 -0.0020159672 0.026503004 0.0070194188
yes -0.0061021564 -0.019899568 0.011976356 -0.021720769 -0.03643345 -0.033880804 0.040893797 -0.0011769987 0.05315144 -0.06048942 -0.012528504 -0.043870945 -0.014574337 -0.03956735 0.007925984 0.032395333
liked -0.09768225 0.037504397 -0.048669137 0.086586535 -0.04191719 -0.08005446 0.13093306 -0.051530313 0.05243305 -0.026879296 -0.030018529 -0.054543298 0.08729853 -0.074086264 -0.1228755 -0.07526789
supposed 0.06527399 -0.13687728 0.103714645 -0.14995164 0.09098622 0.05681665 -0.13171487 0.13359864 -0.12350398 0.12266464 0.07621714 0.084217116 -0.12772796 0.039895404 0.11703685 0.09756318
title -0.052646495 0.018337373 -0.042389914 0.020699989 -0.011321856 -0.0021661501 0.023377232 -0.031607743 -0.013152093 -0.069351725 -0.0121735465 -0.059243564 -0.007947767 -0.08179521 -0.012371626 0.013067656
couldn't 0.080701254 -0.08585725 0.10914189 -0.076686606 0.046848584 0.080529116 -0.12138705 0.123142764 -0.07490898 0.10661959 0.12980258 0.04178913 -0.11589936 0.040258642 0.08002393 0.06233269
absolutely -0.04701263 -0.022827879 -0.021375649 0.0010384218 0.017613925 -0.028725091 0.039862137 0.021681597 0.0032337215 -0.06911568 0.021802474 0.029619468 -0.014908364 -0.10569099 -0.027239993 0.00689556
white -0.08152062 0.057889763 -0.08990684 0.08302786 -0.12091987 -0.024982205 0.048898857 -0.046938233 0.036792383 -0.032066826 -0.11386007 -0.040842418 0.03100546 0.007576582 -0.087934926 0.0073098703
against 0.016284779 0.008426692 0.029376574 -0.06574438 0.077412814 0.0015028219 -0.054138977 -0.0070779026 0.014135915 -0.022078115 -0.0026731282 -0.020770233 -0.014193224 0.01887403 0.06589533 -0.009187997
boy -0.030609837 -0.030511541 -0.038788863 0.022209862 0.010540534 -0.0071869837 0.03650302 0.00060322124 0.017001038 0.030941546 0.010073495 -0.03940079 0.05698311 -0.08505118 -0.029993646 -0.048717786
picture -0.040408514 0.061289243 -0.06839821 0.023442423 -0.042156592 0.024925282 0.053011157 -0.025019718 0.04935029 -0.021137346 -0.039497923 0.024967926 0.009788981 -0.026989134 -0.02430439 -0.025824064
sort -0.019669324 0.039783835 -0.022087187 0.05983799 -0.031443663 -0.06034048 0.02175229 -0.053926695 -0.027544206 0.03845361 -0.011472927 -0.032427944 -0.031155208 -0.0053883535 0.019791912 -0.0010521018
worse 0.115990944 -0.11445382 0.10937483 -0.15185824 0.16334817 0.11930976 -0.14483297 0.08014645 -0.07255773 0.09344766 0.16262086 0.06797734 -0.13847417 -0.07508478 0.12450619 0.087824315
certainly -0.06472163 0.05737868 -0.07361715 -0.010912341 -0.034600373 -0.05441104 0.040821236 -0.044786803 0.09019096 -0.0072992276 -0.0056743864 0.010042023 0.06019442 -0.1554361 -0.0129264705 -0.020289203
went -0.032998968 -0.009091711 -0.025360953 0.00030360697 0.059585877 -0.026797269 0.02581523 -0.009590223 -0.06050671 -0.019840207 0.02380934 0.041535996 -0.06243116 -0.023506135 0.030194294 0.04585426
entire -0.03885502 -0.007282288 -0.014471142 -0.040422045 0.06843091 0.04771192 -0.046099007 0.028102022 -0.059864216 -0.026759937 0.038209993 0.05611989 -0.046311863 -0.112955324 0.037561484 0.012674787
waste 0.22517352 -0.2612287 0.26844573 -0.31360853 0.33297074 0.2667915 -0.2896639 0.27932894 -0.28036663 0.2677682 0.25984946 0.2705954 -0.2532514 -0.18028942 0.26867512 0.25201532
cinema -0.09090581 0.059960775 -0.073714346 0.112544514 -0.013667894 -0.034821115 0.015444609 -0.001180715 0.070572704 -0.031413425 -0.07016242 0.008970908 0.042847782 -0.03761639 -0.043025233 -0.029763794
problem 0.032336935 -0.053155337 0.07417244 -0.025874052 0.03883669 0.041348893 -0.06882812 0.051141936 -0.0054470324 0.047696024 0.034755062 0.07412327 -0.031355105 0.11974103 0.015615432 0.017559478
hope -0.03280837 0.07248608 -0.024035124 0.013332413 -0.027187442 -0.0405522 0.032317884 -0.04243057 0.04004191 -0.019310262 0.024448648 0.014695388 0.07788083 -0.084565766 -0.029069396 -0.024119709
entertaining -0.08690792 0.083454564 -0.08694003 0.08652297 -0.06943643 -0.005327746 0.07812712 -0.04114954 0.07098868 -0.12986723 -0.07407358 -0.02012098 0.06928023 -0.12911011 -0.052167814 -0.06341739
she's -0.03085913 -0.03158913 0.015429485 0.033100996 0.053019717 0.077964775 -0.058112744 0.05565103 0.013885571 0.02256691 0.0164495 0.022429034 -0.017721187 0.010021666 0.01020427 0.030877387
mr 0.005684429 -0.0073102657 0.058848035 -0.02009399 -0.015445433 -0.0067270333 0.013037245 0.0017330059 0.02033136 0.0532445 0.02136762 -0.01174909 -0.030720543 -0.029131457 0.037089888 -0.03668718
overall 0.040176734 0.019547004 -0.016219664 -0.0027895155 -0.026803873 0.009109274 -0.0014751662 0.012009174 -0.0058744913 0.008887597 -0.068510525 -0.050615173 0.056496013 0.024846919 -0.020511273 0.012843815
evil -0.017703945 -0.025636386 0.0017159736 0.025479276 -0.07115232 0.040994246 0.043728534 -0.012750221 0.03771245 0.032286726 -0.014332752 -0.01589036 0.017532086 0.11599269 -0.01820015 0.03930766
called 0.049425427 -0.08315268 0.070059575 -0.032092113 0.0907753 0.08463519 -0.05860741 0.08094187 -0.055226564 0.012775355 0.07024159 0.05058458 -0.047065467 -0.018038109 0.04173423 -0.0009671457
loved -0.05948543 0.07145858 -0.106239885 0.11970267 -0.14363125 -0.10544573 0.13453162 -0.13562012 0.11546864 -0.077452846 -0.09918794 -0.07859381 0.056703195 -0.09786924 -0.06530097 -0.0982227
based 0.016827669 0.053349387 -0.040940013 0.026416434 0.012645643 -0.044269867 -0.029210577 -0.005194119 0.0042976937 -0.041380666 0.038448885 0.0010359035 -0.033492647 0.038519397 0.027135607 -0.041724842
oh 0.11511293 -0.11285393 0.14949054 -0.124861 0.15961678 0.13007116 -0.13941954 0.16618064 -0.11784371 0.101549014 0.07203831 0.16164204 -0.08305003 0.04659753 0.07570715 0.13334222
several -0.04986192 0.00013228958 -0.05538752 -0.0015661939 -0.0026642415 0.027568974 0.07608138 -0.06952244 -0.01640314 -0.011890119 -0.0016453997 -0.010766296 -0.01619463 -0.012061949 -0.017382836 0.019281022
fans -0.045737226 0.026378008 0.00458758 -0.030362276 0.0328776 0.03276956 0.010268984 -0.045360953 0.060991704 -0.0006217149 0.0121335955 0.001202083 0.030404694 -0.08125963 -0.074620865 -0.020943642
mother 0.008040828 -0.043821592 0.04853621 -0.05509851 -0.026523532 0.04073616 -0.028401539 0.03436422 0.011660355 -0.004252174 0.03569678 0.029190062 -0.04980529 0.095334254 -0.029167466 0.014712286
drama 0.0064100614 0.018547026 -0.013962312 -0.0020795607 -0.07346353 -0.012447819 0.035259537 -0.04960752 -0.0036736627 -0.06832788 -0.073599055 -0.022412073 0.02211351 -0.036982488 -0.09276768 -0.056021422
beginning 0.053237718 -0.02404939 -0.0078028096 -0.0032674943 -0.055551432 -0.0008783116 0.0133430315 0.04259146 0.022511937 -0.012139565 0.019893724 0.04809557 0.02002406 0.09685167 0.017125394 -0.004670063
killer -0.051795136 0.04469256 0.01792632 -0.025474003 0.023658555 -0.053341784 -0.040064275 0.007493903 0.025105257 0.0034937998 0.07144928 0.038126364 -0.0035268392 -0.076219134 0.019394511 0.012372868
lives -0.027379695 0.0973015 -0.023849707 0.06883799 -0.11601929 -0.048837326 0.019310435 -0.0152949365 0.032854762 -0.09214506 -0.04527155 -0.0029816942 -0.0017981196 -0.062411167 -0.068344966 -0.02253524
5 0.051783938 0.009093548 0.014301364 -0.036460217 0.17356783 0.056630727 -0.10142104 0.053940676 -0.012005601 -0.02987593 0.107764065 0.11157446 -0.01584843 -0.17099984 0.01976566 -0.016303217
direction 0.0029959762 -0.07561425 0.04175976 -0.029292317 0.06590193 0.029837709 -0.049584832 0.07818772 -0.033296287 0.05436714 0.10783792 0.0461478 -0.07356387 -0.13212687 0.074534684 0.011832164
care 0.048108716 -0.10017832 0.073520765 -0.091434404 0.15514679 0.08020596 -0.14748372 0.055115897 -0.07550435 0.10869885 0.080278344 0.06772748 -0.055202384 -0.07437584 0.081919685 0.025615185
already 0.0108644 -0.1026732 0.023504356 -0.0595886 0.06840002 0.05307573 -0.010154568 0.070451245 -0.0036935324 0.011745218 0.065527536 0.025243903 -0.040427215 0.037279993 0.03442613 0.09664694
becomes 0.07102467 0.018265115 0.07088551 -0.02978618 -0.006343352 0.048715856 -0.008785963 -0.028234208 -0.028273556 0.008944862 -0.048345756 -0.0019028165 -0.038906816 0.1783904 0.04674117 0.011384468
laugh 0.045476988 -0.025988564 0.05434703 0.012883058 0.07307809 0.048415862 -0.029304631 0.056680474 -0.015064699 -0.030164985 0.045688327 0.04979774 0.0055215014 -0.042107344 0.027104637 0.036533825
example 0.07027504 -0.042768966 -0.012332781 -0.11002983 0.12955053 0.0818315 -0.11016716 0.08603361 -0.06271903 0.03683183 0.078474745 0.11674074 -0.048066247 -0.10148363 0.045639638 0.08367459
friend -0.0040860325 -0.028498935 -0.00022594385 0.025963722 -0.004057123 -0.021421855 0.00086015795 -0.043814488 -0.013690989 -0.0057211965 -0.07257852 -0.0064226934 -0.020091861 0.042902425 0.015657362 0.021458646
dark -0.037828412 0.09965614 -0.05674366 0.04939695 -0.035982117 -0.053629838 0.024254227 -0.07755216 0.010897357 -0.052368496 -0.052916806 -0.08509519 0.04971068 -0.011423312 -0.022799874 -0.021005938
despite 4.2813816e-05 -0.025341516 0.027373267 -0.028242344 -0.057994932 0.0043630395 0.03457582 0.0019242646 -0.029779049 0.014746616 -0.01920248 -0.0037424173 -0.031245984 0.111163035 0.039657455 0.06409593
under 0.08402931 -0.016805358 0.037289422 -0.035446472 -0.009370277 0.056340497 0.031982154 0.060106434 -0.023154853 0.006709163 0.04997511 0.019774709 0.020445222 -0.017019017 0.041525237 0.07684901
seemed 0.025915602 -0.041191667 0.043273117 -0.041346006 -0.0264204 0.006195255 -0.023705466 0.023561819 0.047488958 0.011600246 -0.028214488 0.0143801 -0.011291188 0.04234858 -0.014744879 -0.04211659
throughout -0.03148888 0.072228335 -0.045618147 0.05033329 0.012227658 0.038103677 0.032509908 -0.046868306 0.060316566 0.0008827128 0.035309106 -0.04318373 -0.0023415661 -0.112923026 -0.024480933 -0.036565475
4 0.099567026 -0.13603485 0.07629304 -0.08984734 0.23100026 0.18133414 -0.15007962 0.14246686 -0.18359472 0.12707955 0.16132279 0.21263738 -0.0934186 -0.23934612 0.12829648 0.08371946
turn 0.080843806 -0.04880008 0.059523474 -0.029436504 0.076637164 0.0741951 -0.011352214 0.07611741 -0.0659289 0.056579847 0.094245374 0.075781725 -0.02279225 -0.08804331 0.03066498 0.07919867
unfortunately 0.102493234 -0.12186461 0.06638574 -0.07780714 0.066244684 0.094801545 -0.11073594 0.047209244 -0.15329662 0.12718609 0.108897045 0.11539831 -0.09590862 0.110755906 0.07721841 0.085912764
wanted 0.013321069 -0.06744713 -0.018068388 -0.02786419 0.0034180589 -0.034569368 -0.072494686 0.025000073 -0.057105634 0.01079498 0.013664061 0.0701702 -0.0034751343 -0.046683814 0.05624414 -0.02872016
i'd -0.002168556 0.03443235 -0.047270417 0.0056403936 -0.032894935 -0.009880501 0.058250282 -0.0066323783 -0.015659519 -0.03801769 0.0022814416 -0.024891267 -0.0062056207 -0.107160494 -0.050448406 -0.037463583
 -0.004873797 0.016520917 0.041512765 0.027383761 -0.00063318317 0.037637386 -0.01746423 0.024996543 -0.058719687 -0.025922673 0.07253498 -0.0012275737 0.005341746 -0.094417095 -0.031808946 -0.028996753
children 0.015060057 0.005334916 0.0029438897 -0.045252338 -0.0056991726 0.006423669 0.017489454 -0.0022099365 0.030159596 0.050491806 0.068386294 0.028752651 0.016744595 0.04291626 0.017754743 0.01469365
final -0.06954713 0.010932747 -0.07944093 0.067053474 -0.11713312 -0.035615005 0.089774884 -0.016582565 0.007446584 -0.071736164 -0.09342227 -0.10805352 0.062448062 0.03588893 -0.053550076 -0.0991462
fine -0.12525865 0.10392846 -0.098242484 0.033657376 0.011662546 -0.03234723 0.03882769 -0.014817327 0.09718366 -0.053856082 -0.039161272 -0.01790565 0.10263135 -0.107849374 -0.016440596 -0.058525804
history -0.015057159 -0.044847295 -0.026838696 -0.064636685 0.07545504 0.021946415 -0.00971161 0.012555323 0.00043107217 0.046889152 0.090587474 0.049768507 -0.0022579264 -0.094144575 0.057629548 -0.008997644
amazing -0.05303886 0.10238116 -0.13785586 0.068025135 -0.048119836 -0.05112971 0.11893057 -0.10010247 0.08081114 -0.10984828 0.04228023 -0.05814427 0.11664912 -0.1369917 -0.075736314 -0.10115141
sound -0.013870468 -0.006219448 -0.042877033 -0.025671976 -0.050879706 -0.030390887 -0.011374182 0.025151119 0.010427484 -0.034488153 -0.013453935 0.019084318 -0.014048978 0.040200435 0.020037685 0.04690495
guess 0.09574477 -0.10633574 0.11454954 -0.06674084 0.0327161 0.10529374 -0.0841365 0.086343735 -0.037279166 0.096213266 0.11519637 0.11295073 -0.06169318 0.06830716 0.06513618 0.04651081
heart -0.048008945 0.07958977 -0.065501876 0.10219938 -0.08055757 -0.0038806512 0.048373286 -0.11857568 0.08734583 -0.017732557 -0.10221618 -0.050913148 0.12110678 -0.014176732 -0.050484568 -0.037939295
totally 0.039611693 0.009622411 0.043174177 -0.03574822 0.013256248 0.047585554 -0.02057631 0.021311272 -0.011688303 0.042802345 0.039636895 0.027776329 0.011072878 -0.014659764 0.037820052 0.056582134
lead 0.02421328 -0.02296256 0.029991053 -0.032445215 0.11201123 0.0058046463 -0.04577152 0.09134018 -0.027097534 0.010494269 0.027331145 0.070752904 -0.046023883 -0.08213738 0.08882969 -0.003452525
humor -0.09244663 0.0083366595 -0.058238376 0.042780027 0.023217617 -0.06618838 0.08503457 -0.039462604 0.028813418 -0.0819359 0.00011987769 -0.029121997 0.07201156 -0.0204897 -0.08091645 -0.06285365
writing 0.028288737 -0.08212737 0.06960383 -0.02014008 -0.050482098 -0.006567257 -0.022514643 0.025404776 -0.02659444 0.07977877 0.010917801 -0.009466538 0.004221007 0.016149325 0.042336844 0.07350202
michael -0.0047588176 0.037749793 0.00323095 -0.011275144 0.018425856 -0.060789734 -0.00060323835 -0.012287584 0.02505136 -0.012918426 -0.029667696 -0.05010559 0.00085517677 0.03226852 -0.029348357 -0.062059056
quality 0.0011933192 0.017468913 0.008520864 0.074157655 -0.016070673 -0.0120612085 0.049093213 0.00896263 -0.0038259684 0.0018183517 -0.004979628 0.00654535 0.0060040383 -0.01931813 -0.06513602 0.016510691
you'll -0.017654708 0.034594342 0.008031641 0.009194274 0.06410403 -0.061560273 0.07955616 0.00249614 0.0467641 -0.009831656 -0.017977934 -0.049837757 0.039660577 -0.11314256 -0.022511082 0.0029498793
close -0.016931579 0.028551992 -0.065356605 0.064474896 -0.0896495 -0.029086098 0.015543174 -0.042746637 0.07301885 -0.09784378 -0.036490902 -0.02069595 0.004115181 0.0015314567 -0.08084928 -0.020855818
son -0.0493009 -0.02355395 0.033054896 0.0012099334 -0.010179169 0.001506296 0.033483926 0.009181657 -0.034808584 -0.03356917 -0.060178734 -0.03857048 0.018444223 -0.025158232 0.020111911 0.001782214
guys -0.034335952 -0.0073993043 0.04600504 0.005108595 -0.021913078 -0.025823506 -0.079830915 0.06838042 -0.06858288 0.0019967384 0.011611291 -0.019607037 -0.0204583 -0.07665325 -0.020646429 -0.02367875
wants -0.0050307335 0.05627129 0.009045403 0.054809246 -0.011841915 0.023037367 -0.023613479 0.015425136 0.04568405 -0.029836854 -0.06335946 0.03856488 -0.008407476 0.058668636 -0.034074876 -0.0050478526
works -0.011550565 0.043387983 0.0036926847 -0.015143123 -0.04601567 0.016746258 0.026823658 -0.0050198203 -0.020093229 0.0031968532 0.032209553 0.046937153 -0.026593614 0.1250468 0.047995653 -0.019493166
behind -0.026821226 0.099271245 -0.043775152 0.053316306 -0.11764499 -0.07380905 0.14517136 -0.12826586 0.032152794 -0.07221114 -0.13098131 -0.14018486 0.048268408 0.14214644 -0.0518228 -0.07805792
tries 0.12703757 -0.105321884 0.069181785 -0.06553896 0.124715395 0.053327195 -0.13074505 0.05520651 -0.119069025 0.12763634 0.09273084 0.09866415 -0.12626271 0.1300364 0.13022038 0.15283951
art -0.004716851 0.02683888 0.04759389 -0.031025114 -0.001161344 -0.0038114907 -0.0025739367 -0.023620604 0.015669258 0.0484736 -0.033713955 -0.021882383 0.005676064 0.051985692 0.0047734855 0.014099306
side 0.04293177 0.020991758 0.04387922 0.021918554 -0.032592498 0.04184111 -0.043708805 -0.0016217171 -0.03586361 0.03177139 0.010838643 0.0032960968 -0.038049318 -0.020470459 0.016161812 0.0015035366
